{"learner":{"attributes":{"best_iteration":"9","best_score":"0.6861486243667887","scikit_learn":"{\"_estimator_type\": \"classifier\"}"},"feature_names":[],"feature_types":[],"gradient_booster":{"model":{"cats":{"enc":[],"feature_segments":[],"sorted_idx":[]},"gbtree_model_param":{"num_parallel_tree":"1","num_trees":"40"},"iteration_indptr":[0,1,2,3,4,5,6,7,8,9,10,11,12,13,14,15,16,17,18,19,20,21,22,23,24,25,26,27,28,29,30,31,32,33,34,35,36,37,38,39,40],"tree_info":[0,0,0,0,0,0,0,0,0,0,0,0,0,0,0,0,0,0,0,0,0,0,0,0,0,0,0,0,0,0,0,0,0,0,0,0,0,0,0,0],"trees":[{"base_weights":[-7.617252E-2,3.6560306E-1,-2.508038E-1,6.879859E-1,-1.7126864E-1,-3.9082465E-1,5.148995E-1,4.8581835E-2,-2.508826E-3,1.7049415E-2,-2.704871E-2,-3.0445555E-2,2.2012172E-3,-3.4287058E-2,5.0138086E-2],"categories":[],"categories_nodes":[],"categories_segments":[],"categories_sizes":[],"default_left":[0,0,0,0,0,0,0,0,0,0,0,0,0,0,0],"id":0,"left_children":[1,3,5,7,9,11,13,-1,-1,-1,-1,-1,-1,-1,-1],"loss_changes":[9.126221E0,5.961346E0,9.279726E0,4.584834E0,2.7118218E0,6.9457436E0,8.58564E0,0E0,0E0,0E0,0E0,0E0,0E0,0E0,0E0],"parents":[2147483647,0,0,1,1,2,2,3,3,4,4,5,5,6,6],"right_children":[2,4,6,8,10,12,14,-1,-1,-1,-1,-1,-1,-1,-1],"split_conditions":[-7.057961E-1,-2.7726653E-1,1.1849635E0,-4.4456083E-2,-1.5486881E-1,1.4804664E-2,-6.902012E-1,4.8581835E-2,-2.508826E-3,1.7049415E-2,-2.704871E-2,-3.0445555E-2,2.2012172E-3,-3.4287058E-2,5.0138086E-2],"split_indices":[5,9,9,12,10,14,2,0,0,0,0,0,0,0,0],"split_type":[0,0,0,0,0,0,0,0,0,0,0,0,0,0,0],"sum_hessian":[1.1625548E2,3.2463737E1,8.379174E1,2.0224215E1,1.2239524E1,7.136223E1,1.2429517E1,1.4479437E1,5.7447767E0,5.0498037E0,7.1897206E0,4.741316E1,2.394907E1,3.4148674E0,9.014649E0],"tree_param":{"num_deleted":"0","num_feature":"20","num_nodes":"15","size_leaf_vector":"1"}},{"base_weights":[-6.481379E-3,-2.3879237E-1,3.6778224E-1,-1.0068921E-1,-1.1162654E0,6.771983E-1,-4.5922425E-1,-2.8562967E-2,6.2285434E-3,-2.1250948E-2,-7.895206E-2,-9.9835275E-3,4.481709E-2,1.2864481E-2,-3.9628714E-2],"categories":[],"categories_nodes":[],"categories_segments":[],"categories_sizes":[],"default_left":[0,0,0,0,0,0,0,0,0,0,0,0,0,0,0],"id":1,"left_children":[1,3,5,7,9,11,13,-1,-1,-1,-1,-1,-1,-1,-1],"loss_changes":[1.0037574E1,8.426943E0,1.1620948E1,6.788571E0,2.174304E0,6.512046E0,3.2475595E0,0E0,0E0,0E0,0E0,0E0,0E0,0E0,0E0],"parents":[2147483647,0,0,1,1,2,2,3,3,4,4,5,5,6,6],"right_children":[2,4,6,8,10,12,14,-1,-1,-1,-1,-1,-1,-1,-1],"split_conditions":[1.4804664E-2,-9.9499166E-2,1.4252296E-1,-3.708661E-1,-8.692917E-2,-7.5223047E-1,-8.415802E-1,-2.8562967E-2,6.2285434E-3,-2.1250948E-2,-7.895206E-2,-9.9835275E-3,4.481709E-2,1.2864481E-2,-3.9628714E-2],"split_indices":[14,14,12,3,10,1,15,0,0,0,0,0,0,0,0],"split_type":[0,0,0,0,0,0,0,0,0,0,0,0,0,0,0],"sum_hessian":[1.13584915E2,7.047141E1,4.31135E1,6.1949986E1,8.521432E0,3.1594719E1,1.151878E1,1.9701443E1,4.2248543E1,4.273147E0,4.2482843E0,6.243771E0,2.5350948E1,3.6346102E0,7.8841696E0],"tree_param":{"num_deleted":"0","num_feature":"20","num_nodes":"15","size_leaf_vector":"1"}},{"base_weights":[-1.1882371E-1,-1.8180872E-1,5.4597355E-2,8.988527E-2,-4.8103032E-1,2.9131746E-2,-7.0288815E-3,-4.3398207E-3,-4.6964135E-2],"categories":[],"categories_nodes":[],"categories_segments":[],"categories_sizes":[],"default_left":[0,0,0,0,0,0,0,0,0],"id":2,"left_children":[1,3,-1,5,7,-1,-1,-1,-1],"loss_changes":[8.815741E0,8.98271E0,0E0,6.717929E0,9.288373E0,0E0,0E0,0E0,0E0],"parents":[2147483647,0,0,1,1,3,3,4,4],"right_children":[2,4,-1,6,8,-1,-1,-1,-1],"split_conditions":[2.292789E0,-6.6499755E-2,5.4597355E-2,-6.1722994E-1,-4.1188905E-1,2.9131746E-2,-7.0288815E-3,-4.3398207E-3,-4.6964135E-2],"split_indices":[11,16,0,15,15,0,0,0,0],"split_type":[0,0,0,0,0,0,0,0,0],"sum_hessian":[1.1319068E2,1.0847993E2,4.7107573E0,5.704674E1,5.1433186E1,1.7830145E1,3.9216595E1,2.8404478E1,2.3028706E1],"tree_param":{"num_deleted":"0","num_feature":"20","num_nodes":"9","size_leaf_vector":"1"}},{"base_weights":[8.207306E-2,4.4520617E-1,-1.0754598E-1,1.1294239E0,2.66444E-1,-8.7278503E-1,-2.4333708E-2,7.6534994E-2,2.4728134E-2,4.5754276E-2,6.162263E-4,-1.5979683E-2,-5.945289E-2,1.4565556E-2,-1.2926559E-2],"categories":[],"categories_nodes":[],"categories_segments":[],"categories_sizes":[],"default_left":[0,0,0,0,0,0,0,0,0,0,0,0,0,0,0],"id":3,"left_children":[1,3,5,7,9,11,13,-1,-1,-1,-1,-1,-1,-1,-1],"loss_changes":[8.20956E0,4.5582323E0,4.8668194E0,1.0889645E0,5.471869E0,7.8484917E-1,5.3687553E0,0E0,0E0,0E0,0E0,0E0,0E0,0E0,0E0],"parents":[2147483647,0,0,1,1,2,2,3,3,4,4,5,5,6,6],"right_children":[2,4,6,8,10,12,14,-1,-1,-1,-1,-1,-1,-1,-1],"split_conditions":[-3.957739E-1,-4.713126E-1,-1.3424579E0,-2.6894066E-1,-1.5759104E0,5.014866E-1,-3.6678143E-2,7.6534994E-2,2.4728134E-2,4.5754276E-2,6.162263E-4,-1.5979683E-2,-5.945289E-2,1.4565556E-2,-1.2926559E-2],"split_indices":[17,15,2,5,4,5,16,0,0,0,0,0,0,0,0],"split_type":[0,0,0,0,0,0,0,0,0,0,0,0,0,0,0],"sum_hessian":[1.1704059E2,3.986875E1,7.717184E1,7.0411406E0,3.282761E1,6.520199E0,7.065164E1,3.3531346E0,3.6880057E0,8.397759E0,2.4429852E1,3.2181063E0,3.3020923E0,2.9807314E1,4.0844326E1],"tree_param":{"num_deleted":"0","num_feature":"20","num_nodes":"15","size_leaf_vector":"1"}},{"base_weights":[-1.5522278E-2,-7.249024E-2,4.6599437E-2,2.3836888E-1,-1.9766493E-1,4.0980313E-2,-5.7286024E-3,-5.2819993E-2,-4.5011006E-3],"categories":[],"categories_nodes":[],"categories_segments":[],"categories_sizes":[],"default_left":[0,0,0,0,0,0,0,0,0],"id":4,"left_children":[1,3,-1,5,7,-1,-1,-1,-1],"loss_changes":[6.4985065E0,4.5145106E0,0E0,6.9777503E0,7.4348097E0,0E0,0E0,0E0,0E0],"parents":[2147483647,0,0,1,1,3,3,4,4],"right_children":[2,4,-1,6,8,-1,-1,-1,-1],"split_conditions":[2.0412297E0,-2.619381E-1,4.6599437E-2,-3.8710025E-1,-9.4055474E-1,4.0980313E-2,-5.7286024E-3,-5.2819993E-2,-4.5011006E-3],"split_indices":[14,11,0,8,8,0,0,0,0],"split_type":[0,0,0,0,0,0,0,0,0],"sum_hessian":[1.19732956E2,1.139131E2,5.8198547E0,3.2212738E1,8.170036E1,1.1777761E1,2.0434978E1,8.015197E0,7.3685165E1],"tree_param":{"num_deleted":"0","num_feature":"20","num_nodes":"9","size_leaf_vector":"1"}},{"base_weights":[3.6599427E-2,4.010437E-1,-1.4437485E-1,8.0373067E-1,-1.5577288E-1,-3.984123E-1,5.3732757E-2,1.00867795E-2,5.785137E-2,2.8650174E-2,-3.33396E-2,-6.686043E-3,-5.8827616E-2,-3.3879415E-3,4.3549906E-2],"categories":[],"categories_nodes":[],"categories_segments":[],"categories_sizes":[],"default_left":[0,0,0,0,0,0,0,0,0,0,0,0,0,0,0],"id":5,"left_children":[1,3,5,7,9,11,13,-1,-1,-1,-1,-1,-1,-1,-1],"loss_changes":[8.102687E0,9.336224E0,4.172293E0,4.7219534E0,7.0401044E0,7.16312E0,4.7678657E0,0E0,0E0,0E0,0E0,0E0,0E0,0E0,0E0],"parents":[2147483647,0,0,1,1,2,2,3,3,4,4,5,5,6,6],"right_children":[2,4,6,8,10,12,14,-1,-1,-1,-1,-1,-1,-1,-1],"split_conditions":[-3.957739E-1,-2.7512437E-1,-1.2680921E-1,-9.668959E-1,-1.0608717E0,-2.755225E-1,1.1691E0,1.00867795E-2,5.785137E-2,2.8650174E-2,-3.33396E-2,-6.686043E-3,-5.8827616E-2,-3.3879415E-3,4.3549906E-2],"split_indices":[17,9,13,17,17,13,3,0,0,0,0,0,0,0,0],"split_type":[0,0,0,0,0,0,0,0,0,0,0,0,0,0,0],"sum_hessian":[1.2058463E2,3.9790813E1,8.079382E1,2.2938185E1,1.6852627E1,3.5178017E1,4.5615807E1,9.168945E0,1.376924E1,6.8156652E0,1.0036962E1,2.7219435E1,7.9585814E0,4.0404205E1,5.2116046E0],"tree_param":{"num_deleted":"0","num_feature":"20","num_nodes":"15","size_leaf_vector":"1"}},{"base_weights":[-4.314407E-2,3.6461782E-1,-2.4294847E-1,1.998931E-1,5.855317E-2,-5.5265146E-1,-5.3085983E-3,2.9435778E-2,-1.5878405E-2,-4.012024E-2,9.955688E-3,-5.787778E-2,5.003921E-3],"categories":[],"categories_nodes":[],"categories_segments":[],"categories_sizes":[],"default_left":[0,0,0,0,0,0,0,0,0,0,0,0,0],"id":6,"left_children":[1,3,5,7,-1,9,11,-1,-1,-1,-1,-1,-1],"loss_changes":[9.691464E0,4.8157415E0,5.8268657E0,7.000964E0,0E0,6.7029476E0,5.8610935E0,0E0,0E0,0E0,0E0,0E0,0E0],"parents":[2147483647,0,0,1,1,2,2,3,3,5,5,6,6],"right_children":[2,4,6,8,-1,10,12,-1,-1,-1,-1,-1,-1],"split_conditions":[-3.957739E-1,-5.073991E-1,-1.2680921E-1,-3.862121E-1,5.855317E-2,6.0414076E-1,-2.8591055E-1,2.9435778E-2,-1.5878405E-2,-4.012024E-2,9.955688E-3,-5.787778E-2,5.003921E-3],"split_indices":[17,17,13,4,0,0,17,0,0,0,0,0,0],"split_type":[0,0,0,0,0,0,0,0,0,0,0,0,0],"sum_hessian":[1.1701571E2,3.8045956E1,7.896976E1,3.2731983E1,5.3139706E0,3.3528072E1,4.544168E1,1.8720715E1,1.401127E1,2.5216307E1,8.311766E0,3.050804E0,4.2390877E1],"tree_param":{"num_deleted":"0","num_feature":"20","num_nodes":"13","size_leaf_vector":"1"}},{"base_weights":[5.135531E-2,-1.524279E-1,3.5285076E-1,-4.722543E-2,-6.0566403E-2,6.028628E-1,-1.2543596E-1,1.3540873E-2,-1.4138139E-2,6.0036637E-2,1.4335147E-2,2.4345396E-2,-3.8824998E-2],"categories":[],"categories_nodes":[],"categories_segments":[],"categories_sizes":[],"default_left":[0,0,0,0,0,0,0,0,0,0,0,0,0],"id":7,"left_children":[1,3,5,7,-1,9,11,-1,-1,-1,-1,-1,-1],"loss_changes":[7.3896623E0,7.787586E0,5.925607E0,5.0376873E0,0E0,5.588875E0,7.323062E0,0E0,0E0,0E0,0E0,0E0,0E0],"parents":[2147483647,0,0,1,1,2,2,3,3,5,5,6,6],"right_children":[2,4,6,8,-1,10,12,-1,-1,-1,-1,-1,-1],"split_conditions":[1.4804664E-2,7.6970696E-1,2.0412163E-1,-3.740164E-1,-6.0566403E-2,-1.9416858E-1,3.885419E-1,1.3540873E-2,-1.4138139E-2,6.0036637E-2,1.4335147E-2,2.4345396E-2,-3.8824998E-2],"split_indices":[14,8,3,14,0,11,16,0,0,0,0,0,0],"split_type":[0,0,0,0,0,0,0,0,0,0,0,0,0],"sum_hessian":[1.180734E2,7.05505E1,4.7522903E1,6.52108E1,5.339702E0,3.117539E1,1.6347511E1,2.750152E1,3.770928E1,9.706286E0,2.1469105E1,8.4750395E0,7.872472E0],"tree_param":{"num_deleted":"0","num_feature":"20","num_nodes":"13","size_leaf_vector":"1"}},{"base_weights":[-1.8833412E-2,8.7816745E-2,-4.413606E-1,-1.2693404E-1,4.2286703E-1,3.8221065E-2,-6.616822E-1,-1.1657374E-2,3.4262925E-2,2.7412668E-2,-2.8006492E-2,-4.7673002E-2,4.5079286E-3],"categories":[],"categories_nodes":[],"categories_segments":[],"categories_sizes":[],"default_left":[0,0,0,0,0,0,0,0,0,0,0,0,0],"id":8,"left_children":[1,3,5,7,9,-1,11,-1,-1,-1,-1,-1,-1],"loss_changes":[5.4810147E0,7.023036E0,7.0140085E0,5.235623E0,5.0001307E0,0E0,4.8563623E0,0E0,0E0,0E0,0E0,0E0,0E0],"parents":[2147483647,0,0,1,1,2,2,3,3,4,4,6,6],"right_children":[2,4,6,8,10,-1,12,-1,-1,-1,-1,-1,-1],"split_conditions":[1.8864428E-1,1.4804664E-2,-9.848962E-1,1.1849635E0,1.4352252E0,3.8221065E-2,1.0232074E0,-1.1657374E-2,3.4262925E-2,2.7412668E-2,-2.8006492E-2,-4.7673002E-2,4.5079286E-3],"split_indices":[12,14,17,9,7,0,14,0,0,0,0,0,0],"split_type":[0,0,0,0,0,0,0,0,0,0,0,0,0],"sum_hessian":[1.1898647E2,9.544953E1,2.353694E1,5.8363853E1,3.708568E1,3.184619E0,2.0352322E1,5.235346E1,6.0103927E0,3.33728E1,3.7128787E0,1.4564789E1,5.7875323E0],"tree_param":{"num_deleted":"0","num_feature":"20","num_nodes":"13","size_leaf_vector":"1"}},{"base_weights":[5.3494487E-2,4.703108E-1,-1.588396E-1,2.719111E-1,5.6695264E-2,-5.219536E-1,-0E0,4.050068E-3,4.6763714E-2,5.1288004E-3,-3.8395565E-2,1.660592E-2,-1.0305448E-2],"categories":[],"categories_nodes":[],"categories_segments":[],"categories_sizes":[],"default_left":[0,0,0,0,0,0,0,0,0,0,0,0,0],"id":9,"left_children":[1,3,5,7,-1,9,11,-1,-1,-1,-1,-1,-1],"loss_changes":[1.0655079E1,4.901472E0,4.556875E0,3.965933E0,0E0,3.8463345E0,3.925761E0,0E0,0E0,0E0,0E0,0E0,0E0],"parents":[2147483647,0,0,1,1,2,2,3,3,5,5,6,6],"right_children":[2,4,6,8,-1,10,12,-1,-1,-1,-1,-1,-1],"split_conditions":[-3.957739E-1,-5.5353105E-1,-6.630532E-1,1.1698682E0,5.6695264E-2,-1.0136925E-1,-1.865834E-1,4.050068E-3,4.6763714E-2,5.1288004E-3,-3.8395565E-2,1.660592E-2,-1.0305448E-2],"split_indices":[17,17,2,2,0,5,16,0,0,0,0,0,0],"split_type":[0,0,0,0,0,0,0,0,0,0,0,0,0],"sum_hessian":[1.181945E2,3.9638763E1,7.855574E1,3.1716654E1,7.9221106E0,2.3094025E1,5.5461716E1,2.5617134E1,6.09952E0,6.5750923E0,1.6518932E1,2.0891743E1,3.4569973E1],"tree_param":{"num_deleted":"0","num_feature":"20","num_nodes":"13","size_leaf_vector":"1"}},{"base_weights":[1.850756E-2,-5.7503443E-2,6.166951E-2,8.232926E-1,-0E0,-4.2041494E-3,6.636324E-2,-3.048653E-3,3.605265E-2],"categories":[],"categories_nodes":[],"categories_segments":[],"categories_sizes":[],"default_left":[0,0,0,0,0,0,0,0,0],"id":10,"left_children":[1,-1,3,5,7,-1,-1,-1,-1],"loss_changes":[6.071268E0,0E0,5.4971275E0,4.24697E0,4.913317E0,0E0,0E0,0E0,0E0],"parents":[2147483647,0,0,2,2,3,3,4,4],"right_children":[2,-1,4,6,8,-1,-1,-1,-1],"split_conditions":[-1.6382585E0,-5.7503443E-2,-1.7215827E0,-1.4825774E0,1.47817E0,-4.2041494E-3,6.636324E-2,-3.048653E-3,3.605265E-2],"split_indices":[14,0,4,17,0,0,0,0,0],"split_type":[0,0,0,0,0,0,0,0,0],"sum_hessian":[1.2012256E2,3.2827356E0,1.1683982E2,7.77131E0,1.0906851E2,3.0016792E0,4.7696304E0,1.0135019E2,7.718323E0],"tree_param":{"num_deleted":"0","num_feature":"20","num_nodes":"9","size_leaf_vector":"1"}},{"base_weights":[9.435395E-3,-2.698061E-1,1.3943382E-1,3.313001E-1,-5.306426E-1,-1.4242351E-1,5.4675114E-1,3.2991704E-2,-1.7878532E-2,-3.2961566E-2,1.4111991E-2,1.582641E-2,-2.9034764E-2,4.1953444E-2,-3.5558105E-3],"categories":[],"categories_nodes":[],"categories_segments":[],"categories_sizes":[],"default_left":[0,0,0,0,0,0,0,0,0,0,0,0,0,0,0],"id":11,"left_children":[1,3,5,7,9,11,13,-1,-1,-1,-1,-1,-1,-1,-1],"loss_changes":[4.100954E0,5.8037224E0,9.018747E0,2.8288362E0,2.8833632E0,9.55706E0,5.9266396E0,0E0,0E0,0E0,0E0,0E0,0E0,0E0,0E0],"parents":[2147483647,0,0,1,1,2,2,3,3,4,4,5,5,6,6],"right_children":[2,4,6,8,10,12,14,-1,-1,-1,-1,-1,-1,-1,-1],"split_conditions":[-2.5838062E-1,-2.619381E-1,-2.973169E-3,1.3105455E-1,7.11203E-1,-4.3038106E-1,4.6113357E-1,3.2991704E-2,-1.7878532E-2,-3.2961566E-2,1.4111991E-2,1.582641E-2,-2.9034764E-2,4.1953444E-2,-3.5558105E-3],"split_indices":[10,11,11,3,3,15,17,0,0,0,0,0,0,0,0],"split_type":[0,0,0,0,0,0,0,0,0,0,0,0,0,0,0],"sum_hessian":[1.1129377E2,3.47674E1,7.6526375E1,1.0323359E1,2.4444042E1,4.5468025E1,3.1058348E1,7.116634E0,3.2067246E0,2.1374826E1,3.0692146E0,2.2234257E1,2.323377E1,2.0950394E1,1.0107952E1],"tree_param":{"num_deleted":"0","num_feature":"20","num_nodes":"15","size_leaf_vector":"1"}},{"base_weights":[4.641282E-2,2.8568023E-1,-1.3323586E-1,9.1185695E-1,-3.531979E-2,-3.1219012E-1,4.603147E-1,5.5903286E-2,3.2597508E-3,4.1283008E-2,-2.0610513E-2,-1.9947698E-2,3.808945E-2,-1.2683384E-2,5.519088E-2],"categories":[],"categories_nodes":[],"categories_segments":[],"categories_sizes":[],"default_left":[0,0,0,0,0,0,0,0,0,0,0,0,0,0,0],"id":12,"left_children":[1,3,5,7,9,11,13,-1,-1,-1,-1,-1,-1,-1,-1],"loss_changes":[5.0965395E0,1.0345244E1,7.293968E0,2.8437395E0,1.1490326E1,5.164833E0,7.670813E0,0E0,0E0,0E0,0E0,0E0,0E0,0E0,0E0],"parents":[2147483647,0,0,1,1,2,2,3,3,4,4,5,5,6,6],"right_children":[2,4,6,8,10,12,14,-1,-1,-1,-1,-1,-1,-1,-1],"split_conditions":[-2.561199E-1,-4.802458E-1,1.1849635E0,3.331937E-1,-1.2757249E0,1.7027292E0,-8.589079E-2,5.5903286E-2,3.2597508E-3,4.1283008E-2,-2.0610513E-2,-1.9947698E-2,3.808945E-2,-1.2683384E-2,5.519088E-2],"split_indices":[9,15,9,17,5,8,2,0,0,0,0,0,0,0,0],"split_type":[0,0,0,0,0,0,0,0,0,0,0,0,0,0,0],"sum_hessian":[1.1632792E2,4.987186E1,6.645606E1,1.6383438E1,3.3488422E1,5.155488E1,1.4901183E1,1.2821926E1,3.561512E0,9.752795E0,2.3735626E1,4.8368923E1,3.1859539E0,7.277272E0,7.623911E0],"tree_param":{"num_deleted":"0","num_feature":"20","num_nodes":"15","size_leaf_vector":"1"}},{"base_weights":[1.2563433E-2,5.376432E-1,-9.2845835E-2,7.178883E-1,-9.529035E-3,-6.8844295E-1,-0E0,1.7040052E-2,7.310327E-2,-4.6497557E-2,2.2981437E-3,-4.1432283E-3,2.616848E-2],"categories":[],"categories_nodes":[],"categories_segments":[],"categories_sizes":[],"default_left":[0,0,0,0,0,0,0,0,0,0,0,0,0],"id":13,"left_children":[1,3,5,7,-1,9,11,-1,-1,-1,-1,-1,-1],"loss_changes":[6.3735704E0,2.7192855E0,5.2317295E0,3.7465086E0,0E0,2.3960142E0,3.6405232E0,0E0,0E0,0E0,0E0,0E0,0E0],"parents":[2147483647,0,0,1,1,2,2,3,3,5,5,6,6],"right_children":[2,4,6,8,-1,10,12,-1,-1,-1,-1,-1,-1],"split_conditions":[-8.7915E-1,5.628882E-1,-1.2045184E0,1.9558334E-1,-9.529035E-3,1.3493541E-1,1.1849635E0,1.7040052E-2,7.310327E-2,-4.6497557E-2,2.2981437E-3,-4.1432283E-3,2.616848E-2],"split_indices":[9,0,2,0,0,16,9,0,0,0,0,0,0],"split_type":[0,0,0,0,0,0,0,0,0,0,0,0,0],"sum_hessian":[1.124484E2,1.8272911E1,9.417549E1,1.476892E1,3.503991E0,1.1769552E1,8.240594E1,1.0858875E1,3.9100444E0,8.759052E0,3.0104997E0,7.194383E1,1.0462108E1],"tree_param":{"num_deleted":"0","num_feature":"20","num_nodes":"13","size_leaf_vector":"1"}},{"base_weights":[-4.2742644E-2,3.96851E-1,-1.7745712E-1,5.7528263E-1,-3.4635246E-2,4.3818463E-2,-3.7905324E-1,5.2565362E-2,1.0011515E-2,7.950791E-3,-5.3302962E-2,-2.8840262E-2,2.5102077E-2],"categories":[],"categories_nodes":[],"categories_segments":[],"categories_sizes":[],"default_left":[0,0,0,0,0,0,0,0,0,0,0,0,0],"id":14,"left_children":[1,3,5,7,-1,9,11,-1,-1,-1,-1,-1,-1],"loss_changes":[6.738011E0,5.56432E0,3.9457443E0,3.8615937E0,0E0,5.486121E0,8.318426E0,0E0,0E0,0E0,0E0,0E0,0E0],"parents":[2147483647,0,0,1,1,2,2,3,3,5,5,6,6],"right_children":[2,4,6,8,-1,10,12,-1,-1,-1,-1,-1,-1],"split_conditions":[-6.460896E-1,5.067432E-1,-2.1723181E-1,-6.612367E-1,-3.4635246E-2,1.3170741E0,1.9028137E0,5.2565362E-2,1.0011515E-2,7.950791E-3,-5.3302962E-2,-2.8840262E-2,2.5102077E-2],"split_indices":[9,1,8,17,0,13,1,0,0,0,0,0,0],"split_type":[0,0,0,0,0,0,0,0,0,0,0,0,0],"sum_hessian":[1.119613E2,2.5632011E1,8.632929E1,2.2509514E1,3.1224973E0,4.1292496E1,4.5036797E1,9.0074005E0,1.3502113E1,3.8267437E1,3.025059E0,3.7156322E1,7.880476E0],"tree_param":{"num_deleted":"0","num_feature":"20","num_nodes":"13","size_leaf_vector":"1"}},{"base_weights":[2.8790176E-2,3.42437E-1,-8.364242E-2,6.3654476E-1,-5.9982955E-2,1.8685505E-1,-4.602385E-1,5.7606347E-2,3.8678714E-3,3.39152E-2,-2.0073174E-2,2.8095007E-2,-1.28128445E-2,-3.6157824E-2,1.9028427E-2],"categories":[],"categories_nodes":[],"categories_segments":[],"categories_sizes":[],"default_left":[0,0,0,0,0,0,0,0,0,0,0,0,0,0,0],"id":15,"left_children":[1,3,5,7,9,11,13,-1,-1,-1,-1,-1,-1,-1,-1],"loss_changes":[4.2142406E0,3.83084E0,9.016753E0,5.1107006E0,3.7982526E0,8.720316E0,8.484101E0,0E0,0E0,0E0,0E0,0E0,0E0,0E0,0E0],"parents":[2147483647,0,0,1,1,2,2,3,3,4,4,5,5,6,6],"right_children":[2,4,6,8,10,12,14,-1,-1,-1,-1,-1,-1,-1,-1],"split_conditions":[-7.1582854E-1,-2.7726653E-1,-4.713126E-1,-1.1111358E-1,-2.4299622E-1,6.9075847E-1,5.741368E-1,5.7606347E-2,3.8678714E-3,3.39152E-2,-2.0073174E-2,2.8095007E-2,-1.28128445E-2,-3.6157824E-2,1.9028427E-2],"split_indices":[6,9,15,3,12,5,9,0,0,0,0,0,0,0,0],"split_type":[0,0,0,0,0,0,0,0,0,0,0,0,0,0,0],"sum_hessian":[1.1695894E2,3.0557667E1,8.640127E1,1.7462177E1,1.30954895E1,5.042257E1,3.59787E1,8.44059E0,9.021587E0,3.7369444E0,9.358545E0,2.7285782E1,2.313679E1,2.7605421E1,8.373277E0],"tree_param":{"num_deleted":"0","num_feature":"20","num_nodes":"15","size_leaf_vector":"1"}},{"base_weights":[2.8754758E-2,1.6774167E-1,-2.830529E-1,7.3366165E-1,-5.136836E-2,-6.2751085E-2,-3.5789862E-2,2.4763994E-2,6.901764E-2,1.2144315E-2,-2.240429E-2,2.378542E-2,-2.30667E-2],"categories":[],"categories_nodes":[],"categories_segments":[],"categories_sizes":[],"default_left":[0,0,0,0,0,0,0,0,0,0,0,0,0],"id":16,"left_children":[1,3,5,7,9,-1,11,-1,-1,-1,-1,-1,-1],"loss_changes":[4.8258677E0,9.690945E0,8.051935E0,2.484499E0,6.728614E0,0E0,6.3991375E0,0E0,0E0,0E0,0E0,0E0,0E0],"parents":[2147483647,0,0,1,1,2,2,3,3,4,4,6,6],"right_children":[2,4,6,8,10,-1,12,-1,-1,-1,-1,-1,-1],"split_conditions":[6.9456446E-1,-6.507802E-1,-1.0687218E0,9.6730614E-1,-3.014198E-1,-6.2751085E-2,1.20924E-1,2.4763994E-2,6.901764E-2,1.2144315E-2,-2.240429E-2,2.378542E-2,-2.30667E-2],"split_indices":[5,15,15,0,4,0,16,0,0,0,0,0,0],"split_type":[0,0,0,0,0,0,0,0,0,0,0,0,0],"sum_hessian":[1.0952679E2,7.62994E1,3.3227383E1,2.0767885E1,5.5531517E1,5.830019E0,2.7397364E1,1.6577593E1,4.1902924E0,3.196099E1,2.3570526E1,1.2281859E1,1.5115504E1],"tree_param":{"num_deleted":"0","num_feature":"20","num_nodes":"13","size_leaf_vector":"1"}},{"base_weights":[-3.0696703E-2,-1.0498193E-1,5.9451574E-1,3.8704067E-2,-1.6843058E-1,-1.0447744E-2,9.60117E-1,-4.610653E-2,-5.7544294E-3,2.0403648E-2,6.3389294E-2],"categories":[],"categories_nodes":[],"categories_segments":[],"categories_sizes":[],"default_left":[0,0,0,0,0,0,0,0,0,0,0],"id":17,"left_children":[1,3,5,-1,7,-1,9,-1,-1,-1,-1],"loss_changes":[5.2639136E0,5.760927E0,3.8044648E0,0E0,3.6535316E0,0E0,7.622032E-1,0E0,0E0,0E0,0E0],"parents":[2147483647,0,0,1,1,2,2,4,4,6,6],"right_children":[2,4,6,-1,8,-1,10,-1,-1,-1,-1],"split_conditions":[1.3534636E0,-1.7457789E0,-4.8255065E-1,3.8704067E-2,-1.4120547E0,-1.0447744E-2,8.726954E-1,-4.610653E-2,-5.7544294E-3,2.0403648E-2,6.3389294E-2],"split_indices":[9,4,13,0,2,0,6,0,0,0,0],"split_type":[0,0,0,0,0,0,0,0,0,0,0],"sum_hessian":[1.12049E2,1.0103631E2,1.1012695E1,5.9415526E0,9.509476E1,3.4924297E0,7.5202656E0,5.084934E0,9.000982E1,3.6401603E0,3.8801053E0],"tree_param":{"num_deleted":"0","num_feature":"20","num_nodes":"11","size_leaf_vector":"1"}},{"base_weights":[-4.420426E-2,-1.0196036E-1,5.0197143E-2,-5.336042E-2,-6.2825106E-2,2.768874E-4,-2.8044695E-2],"categories":[],"categories_nodes":[],"categories_segments":[],"categories_sizes":[],"default_left":[0,0,0,0,0,0,0],"id":18,"left_children":[1,3,-1,-1,5,-1,-1],"loss_changes":[7.170003E0,4.090908E0,0E0,0E0,3.7979183E0,0E0,0E0],"parents":[2147483647,0,0,1,1,4,4],"right_children":[2,4,-1,-1,6,-1,-1],"split_conditions":[2.0412297E0,-1.7441146E0,5.0197143E-2,-5.336042E-2,7.2587496E-1,2.768874E-4,-2.8044695E-2],"split_indices":[14,14,0,0,14,0,0],"split_type":[0,0,0,0,0,0,0],"sum_hessian":[1.1723929E2,1.1206244E2,5.1768517E0,3.2433026E0,1.0881914E2,9.63787E1,1.24404335E1],"tree_param":{"num_deleted":"0","num_feature":"20","num_nodes":"7","size_leaf_vector":"1"}},{"base_weights":[5.4234304E-3,-3.7318964E-2,4.5549776E-2,1.3090712E-1,-4.3597716E-1,-2.467988E-3,2.687507E-2,-4.4544242E-2,5.2614217E-3],"categories":[],"categories_nodes":[],"categories_segments":[],"categories_sizes":[],"default_left":[0,0,0,0,0,0,0,0,0],"id":19,"left_children":[1,3,-1,5,7,-1,-1,-1,-1],"loss_changes":[4.571943E0,7.508686E0,0E0,5.8225045E0,8.357206E0,0E0,0E0,0E0,0E0],"parents":[2147483647,0,0,1,1,3,3,4,4],"right_children":[2,4,-1,6,8,-1,-1,-1,-1],"split_conditions":[2.8321726E0,6.727481E-1,4.5549776E-2,1.5821095E-1,1.5196196E-3,-2.467988E-3,2.687507E-2,-4.4544242E-2,5.2614217E-3],"split_indices":[11,5,0,4,13,0,0,0,0],"split_type":[0,0,0,0,0,0,0,0,0],"sum_hessian":[1.1398324E2,1.09655914E2,4.327323E0,7.741083E1,3.224509E1,5.4070766E1,2.334006E1,1.7268661E1,1.4976427E1],"tree_param":{"num_deleted":"0","num_feature":"20","num_nodes":"9","size_leaf_vector":"1"}},{"base_weights":[1.6512997E-2,1.346818E-1,-3.9111772E-1,6.3911244E-2,8.6033165E-1,-5.7263047E-1,3.4686174E-2,-3.4562353E-2,6.551227E-3,1.2307986E-2,5.8929753E-2,-3.799666E-2,2.288155E-2],"categories":[],"categories_nodes":[],"categories_segments":[],"categories_sizes":[],"default_left":[0,0,0,0,0,0,0,0,0,0,0,0,0],"id":20,"left_children":[1,3,5,7,9,11,-1,-1,-1,-1,-1,-1,-1],"loss_changes":[5.6303687E0,4.5318623E0,5.5460567E0,4.303215E0,1.1098242E0,4.831629E0,0E0,0E0,0E0,0E0,0E0,0E0,0E0],"parents":[2147483647,0,0,1,1,2,2,3,3,4,4,5,5],"right_children":[2,4,6,8,10,12,-1,-1,-1,-1,-1,-1,-1],"split_conditions":[1.0180473E0,1.0191284E0,-1.0555091E-3,-1.4010104E0,-5.3378516E-1,1.8827884E0,3.4686174E-2,-3.4562353E-2,6.551227E-3,1.2307986E-2,5.8929753E-2,-3.799666E-2,2.288155E-2],"split_indices":[6,7,15,2,16,14,0,0,0,0,0,0,0],"split_type":[0,0,0,0,0,0,0,0,0,0,0,0,0],"sum_hessian":[1.1532603E2,9.011681E1,2.5209208E1,8.3225914E1,6.890904E0,2.2079292E1,3.1299155E0,5.9121966E0,7.731371E1,3.0646048E0,3.826299E0,1.8986902E1,3.0923903E0],"tree_param":{"num_deleted":"0","num_feature":"20","num_nodes":"13","size_leaf_vector":"1"}},{"base_weights":[2.1976797E-2,-4.9280554E-2,4.66065E-1,1.7822196E-1,-2.5528783E-1,1.0136842E0,-2.1178212E-2,-4.7698464E-2,1.7671477E-2,-5.548166E-2,-1.9157631E-3,2.3499608E-2,6.214685E-2,-3.3146605E-2,3.8457982E-2],"categories":[],"categories_nodes":[],"categories_segments":[],"categories_sizes":[],"default_left":[0,0,0,0,0,0,0,0,0,0,0,0,0,0,0],"id":21,"left_children":[1,3,5,7,9,11,13,-1,-1,-1,-1,-1,-1,-1,-1],"loss_changes":[3.803933E0,4.858813E0,4.557598E0,1.0013922E1,9.9364805E0,2.349844E-1,5.410126E0,0E0,0E0,0E0,0E0,0E0,0E0,0E0,0E0],"parents":[2147483647,0,0,1,1,2,2,3,3,4,4,5,5,6,6],"right_children":[2,4,6,8,10,12,14,-1,-1,-1,-1,-1,-1,-1,-1],"split_conditions":[1.1849635E0,-6.6017486E-2,1.0039794E0,-5.2572477E-1,1.0566272E-1,1.4838055E0,1.5986453E-1,-4.7698464E-2,1.7671477E-2,-5.548166E-2,-1.9157631E-3,2.3499608E-2,6.214685E-2,-3.3146605E-2,3.8457982E-2],"split_indices":[9,4,4,14,4,9,2,0,0,0,0,0,0,0,0],"split_type":[0,0,0,0,0,0,0,0,0,0,0,0,0,0,0],"sum_hessian":[1.17165276E2,1.0153677E2,1.5628504E1,4.8084496E1,5.345228E1,6.946277E0,8.682226E0,5.7717705E0,4.2312725E1,9.899038E0,4.355324E1,3.094268E0,3.852009E0,4.9503098E0,3.731917E0],"tree_param":{"num_deleted":"0","num_feature":"20","num_nodes":"15","size_leaf_vector":"1"}},{"base_weights":[5.976828E-2,1.9565307E-2,3.617685E-2,2.9523328E-1,-1.0520761E-1,2.6962543E-2,-3.6953177E-2,1.7725293E-3,-2.8736522E-2],"categories":[],"categories_nodes":[],"categories_segments":[],"categories_sizes":[],"default_left":[0,0,0,0,0,0,0,0,0],"id":22,"left_children":[1,3,-1,5,7,-1,-1,-1,-1],"loss_changes":[2.9763396E0,3.8150434E0,0E0,9.115937E0,5.0830216E0,0E0,0E0,0E0,0E0],"parents":[2147483647,0,0,1,1,3,3,4,4],"right_children":[2,4,-1,6,8,-1,-1,-1,-1],"split_conditions":[2.292789E0,-2.619381E-1,3.617685E-2,8.0805176E-1,9.1131496E-1,2.6962543E-2,-3.6953177E-2,1.7725293E-3,-2.8736522E-2],"split_indices":[11,11,0,16,5,0,0,0,0],"split_type":[0,0,0,0,0,0,0,0,0],"sum_hessian":[1.1384922E2,1.0846017E2,5.389056E0,3.3619022E1,7.484115E1,2.7666975E1,5.9520454E0,5.8136353E1,1.6704792E1],"tree_param":{"num_deleted":"0","num_feature":"20","num_nodes":"9","size_leaf_vector":"1"}},{"base_weights":[3.006571E-2,-1.4895506E-1,3.0707073E-1,-6.382062E-1,5.295793E-2,5.891891E-1,-1.785947E-1,5.6948997E-3,-3.9912373E-2,-1.9861098E-2,1.7952206E-2,-5.2317595E-3,4.200542E-2,3.0867735E-2,-3.016304E-2],"categories":[],"categories_nodes":[],"categories_segments":[],"categories_sizes":[],"default_left":[0,0,0,0,0,0,0,0,0,0,0,0,0,0,0],"id":23,"left_children":[1,3,5,7,9,11,13,-1,-1,-1,-1,-1,-1,-1,-1],"loss_changes":[5.9390736E0,7.2492743E0,6.5961676E0,2.7335567E0,7.312732E0,5.4086227E0,6.43305E0,0E0,0E0,0E0,0E0,0E0,0E0,0E0,0E0],"parents":[2147483647,0,0,1,1,2,2,3,3,4,4,5,5,6,6],"right_children":[2,4,6,8,10,12,14,-1,-1,-1,-1,-1,-1,-1,-1],"split_conditions":[1.4804664E-2,-2.9280442E-1,1.4420238E-2,-6.9886464E-1,-2.3954375E-1,-8.581432E-1,-7.111574E-1,5.6948997E-3,-3.9912373E-2,-1.9861098E-2,1.7952206E-2,-5.2317595E-3,4.200542E-2,3.0867735E-2,-3.016304E-2],"split_indices":[14,10,12,3,6,17,15,0,0,0,0,0,0,0,0],"split_type":[0,0,0,0,0,0,0,0,0,0,0,0,0,0,0],"sum_hessian":[1.17523155E2,7.144893E1,4.6074226E1,2.0386148E1,5.106278E1,2.913989E1,1.6934336E1,3.5178266E0,1.6868322E1,2.041408E1,3.0648699E1,7.7884035E0,2.1351486E1,5.6518617E0,1.12824745E1],"tree_param":{"num_deleted":"0","num_feature":"20","num_nodes":"15","size_leaf_vector":"1"}},{"base_weights":[2.5240853E-2,6.8694435E-2,-4.0177017E-2,-7.359846E-3,4.792989E-1,6.0565453E-3,-3.1120343E-2,5.7422258E-2,-3.4939777E-3],"categories":[],"categories_nodes":[],"categories_segments":[],"categories_sizes":[],"default_left":[0,0,0,0,0,0,0,0,0],"id":24,"left_children":[1,3,-1,5,7,-1,-1,-1,-1],"loss_changes":[4.24486E0,3.5955882E0,0E0,7.7559986E0,6.7882557E0,0E0,0E0,0E0,0E0],"parents":[2147483647,0,0,1,1,3,3,4,4],"right_children":[2,4,-1,6,8,-1,-1,-1,-1],"split_conditions":[1.8622861E0,1.1698682E0,-4.0177017E-2,3.1170917E-1,-2.5519678E-1,6.0565453E-3,-3.1120343E-2,5.7422258E-2,-3.4939777E-3],"split_indices":[17,2,0,11,4,0,0,0,0],"split_type":[0,0,0,0,0,0,0,0,0],"sum_hessian":[1.17376274E2,1.1251482E2,4.8614583E0,9.555429E1,1.6960527E1,7.957134E1,1.598295E1,7.2354193E0,9.725108E0],"tree_param":{"num_deleted":"0","num_feature":"20","num_nodes":"9","size_leaf_vector":"1"}},{"base_weights":[-5.02183E-2,-1.0100777E-1,4.2021487E-2,-5.400333E-2,-7.1105033E-1,-5.671836E-3,6.8025544E-2,-6.259381E-2,-1.2144477E-3],"categories":[],"categories_nodes":[],"categories_segments":[],"categories_sizes":[],"default_left":[0,0,0,0,0,0,0,0,0],"id":25,"left_children":[1,3,-1,5,7,-1,-1,-1,-1],"loss_changes":[5.3477526E0,3.11422E0,0E0,8.923364E0,2.7471278E0,0E0,0E0,0E0,0E0],"parents":[2147483647,0,0,1,1,3,3,4,4],"right_children":[2,4,-1,6,8,-1,-1,-1,-1],"split_conditions":[2.0412297E0,2.0152476E0,4.2021487E-2,1.4972603E0,-3.745044E-1,-5.671836E-3,6.8025544E-2,-6.259381E-2,-1.2144477E-3],"split_indices":[14,15,0,15,1,0,0,0,0],"split_type":[0,0,0,0,0,0,0,0,0],"sum_hessian":[1.16978134E2,1.11612274E2,5.365855E0,1.04790504E2,6.8217745E0,1.0151564E2,3.274863E0,3.2745664E0,3.547208E0],"tree_param":{"num_deleted":"0","num_feature":"20","num_nodes":"9","size_leaf_vector":"1"}},{"base_weights":[-1.4468445E-3,-4.632271E-2,4.06834E-2,9.9497706E-2,-3.76573E-1,2.4666062E-2,-6.4023375E-3,1.6775232E-2,-3.6513206E-2],"categories":[],"categories_nodes":[],"categories_segments":[],"categories_sizes":[],"default_left":[0,0,0,0,0,0,0,0,0],"id":26,"left_children":[1,3,-1,5,7,-1,-1,-1,-1],"loss_changes":[4.1086082E0,5.2918973E0,0E0,6.898705E0,8.762735E0,0E0,0E0,0E0,0E0],"parents":[2147483647,0,0,1,1,3,3,4,4],"right_children":[2,4,-1,6,8,-1,-1,-1,-1],"split_conditions":[2.292789E0,6.9456446E-1,4.06834E-2,-4.072388E-1,-2.6243865E-1,2.4666062E-2,-6.4023375E-3,1.6775232E-2,-3.6513206E-2],"split_indices":[11,5,0,15,11,0,0,0,0],"split_type":[0,0,0,0,0,0,0,0,0],"sum_hessian":[1.1238892E2,1.075345E2,4.8544226E0,7.487134E1,3.266316E1,2.7151033E1,4.7720306E1,1.0762987E1,2.1900171E1],"tree_param":{"num_deleted":"0","num_feature":"20","num_nodes":"9","size_leaf_vector":"1"}},{"base_weights":[-3.677759E-2,-8.9234605E-2,7.8352857E-1,2.5651272E-2,-5.0728416E-1,5.0107807E-2,1.7105127E-2,-3.0712415E-2,6.043295E-3,3.6078695E-2,-3.6376838E-2],"categories":[],"categories_nodes":[],"categories_segments":[],"categories_sizes":[],"default_left":[0,0,0,0,0,0,0,0,0,0,0],"id":27,"left_children":[1,3,5,7,9,-1,-1,-1,-1,-1,-1],"loss_changes":[5.117364E0,5.477632E0,2.1129942E-1,5.461475E0,7.169528E0,0E0,0E0,0E0,0E0,0E0,0E0],"parents":[2147483647,0,0,1,1,2,2,3,3,4,4],"right_children":[2,4,6,8,10,-1,-1,-1,-1,-1,-1],"split_conditions":[2.0412297E0,1.682748E-1,1.3584726E0,-1.2045184E0,-9.668959E-1,5.0107807E-2,1.7105127E-2,-3.0712415E-2,6.043295E-3,3.6078695E-2,-3.6376838E-2],"split_indices":[14,12,6,2,17,0,0,0,0,0,0],"split_type":[0,0,0,0,0,0,0,0,0,0,0],"sum_hessian":[1.1791189E2,1.1177708E2,6.1348066E0,8.8229744E1,2.3547335E1,3.1017683E0,3.0330386E0,1.0585741E1,7.7644005E1,3.1640365E0,2.0383299E1],"tree_param":{"num_deleted":"0","num_feature":"20","num_nodes":"11","size_leaf_vector":"1"}},{"base_weights":[-1.5470143E-2,2.0662725E-1,-2.0345518E-1,7.3629034E-1,-1.0744196E-2,-5.505285E-1,4.971127E-2,5.829805E-2,1.3778798E-2,9.027886E-3,-3.4711417E-2,-4.6103284E-2,-9.045734E-3,2.2410555E-2,-2.206317E-2],"categories":[],"categories_nodes":[],"categories_segments":[],"categories_sizes":[],"default_left":[0,0,0,0,0,0,0,0,0,0,0,0,0,0,0],"id":28,"left_children":[1,3,5,7,9,11,13,-1,-1,-1,-1,-1,-1,-1,-1],"loss_changes":[4.7209964E0,6.024666E0,5.4766397E0,2.5377417E0,5.0743628E0,3.3161788E0,7.29693E0,0E0,0E0,0E0,0E0,0E0,0E0,0E0,0E0],"parents":[2147483647,0,0,1,1,2,2,3,3,4,4,5,5,6,6],"right_children":[2,4,6,8,10,12,14,-1,-1,-1,-1,-1,-1,-1,-1],"split_conditions":[-1.4563419E-1,-4.072388E-1,-1.2680921E-1,-2.6894066E-1,-4.5446378E-1,-1.1918064E-1,4.5844483E-1,5.829805E-2,1.3778798E-2,9.027886E-3,-3.4711417E-2,-4.6103284E-2,-9.045734E-3,2.2410555E-2,-2.206317E-2],"split_indices":[17,15,13,5,6,12,13,0,0,0,0,0,0,0,0],"split_type":[0,0,0,0,0,0,0,0,0,0,0,0,0,0,0],"sum_hessian":[1.1107578E2,5.0628704E1,6.0447075E1,1.417112E1,3.6457584E1,2.516629E1,3.5280785E1,6.4282207E0,7.742899E0,2.8945486E1,7.5120993E0,1.167017E1,1.3496121E1,1.9634892E1,1.5645895E1],"tree_param":{"num_deleted":"0","num_feature":"20","num_nodes":"15","size_leaf_vector":"1"}},{"base_weights":[-5.7437513E-2,-5.971578E-1,5.6415498E-5,-5.3673755E-2,-5.671428E-3,9.42649E-1,-7.125616E-2,5.964288E-2,2.0124024E-2,-5.5013034E-3,4.079373E-2],"categories":[],"categories_nodes":[],"categories_segments":[],"categories_sizes":[],"default_left":[0,0,0,0,0,0,0,0,0,0,0],"id":29,"left_children":[1,3,5,-1,-1,7,9,-1,-1,-1,-1],"loss_changes":[3.6438031E0,2.360124E0,7.2266464E0,0E0,0E0,3.8336182E-1,3.411968E0,0E0,0E0,0E0,0E0],"parents":[2147483647,0,0,1,1,2,2,5,5,6,6],"right_children":[2,4,6,-1,-1,8,10,-1,-1,-1,-1],"split_conditions":[-9.711514E-1,-4.537372E-1,-8.802611E-1,-5.3673755E-2,-5.671428E-3,-2.8725848E-1,2.8321726E0,5.964288E-2,2.0124024E-2,-5.5013034E-3,4.079373E-2],"split_indices":[8,2,8,0,0,0,11,0,0,0,0],"split_type":[0,0,0,0,0,0,0,0,0,0,0],"sum_hessian":[1.1450065E2,1.0286808E1,1.0421384E2,4.4646626E0,5.822146E0,6.5690765E0,9.764476E1,3.5371966E0,3.0318801E0,9.450342E1,3.1413443E0],"tree_param":{"num_deleted":"0","num_feature":"20","num_nodes":"11","size_leaf_vector":"1"}},{"base_weights":[-2.493294E-2,8.057513E-1,-9.0273336E-2,5.9928395E-2,4.674227E-3,-3.9314702E-2,-5.555991E-2,-4.22701E-3,5.2352827E-2],"categories":[],"categories_nodes":[],"categories_segments":[],"categories_sizes":[],"default_left":[0,0,0,0,0,0,0,0,0],"id":30,"left_children":[1,3,5,-1,-1,7,-1,-1,-1],"loss_changes":[6.314727E0,2.1289916E0,5.5041065E0,0E0,0E0,5.1414557E0,0E0,0E0,0E0],"parents":[2147483647,0,0,1,1,2,2,5,5],"right_children":[2,4,6,-1,-1,8,-1,-1,-1],"split_conditions":[-1.7457789E0,-2.2444117E-1,2.0152476E0,5.9928395E-2,4.674227E-3,1.4972603E0,-5.555991E-2,-4.22701E-3,5.2352827E-2],"split_indices":[4,10,15,0,0,15,0,0,0],"split_type":[0,0,0,0,0,0,0,0,0],"sum_hessian":[1.1532016E2,7.471506E0,1.07848656E2,4.285111E0,3.186395E0,1.0380383E2,4.0448236E0,1.0062889E2,3.1749375E0],"tree_param":{"num_deleted":"0","num_feature":"20","num_nodes":"9","size_leaf_vector":"1"}},{"base_weights":[8.8356175E-2,8.752213E-1,3.477001E-2,5.99999E-2,1.401964E-2,-1.5645847E-1,2.2897626E-1,-5.28936E-4,-3.7638973E-2,2.7111385E-2,-6.2673534E-3],"categories":[],"categories_nodes":[],"categories_segments":[],"categories_sizes":[],"default_left":[0,0,0,0,0,0,0,0,0,0,0],"id":31,"left_children":[1,3,5,-1,-1,7,9,-1,-1,-1,-1],"loss_changes":[4.8561587E0,9.3857384E-1,4.1907587E0,0E0,0E0,4.8400855E0,6.3336344E0,0E0,0E0,0E0,0E0],"parents":[2147483647,0,0,1,1,2,2,5,5,6,6],"right_children":[2,4,6,-1,-1,8,10,-1,-1,-1,-1],"split_conditions":[-1.729113E0,-6.4254874E-1,1.8098804E-1,5.99999E-2,1.401964E-2,-2.727302E-2,9.69278E-1,-5.28936E-4,-3.7638973E-2,2.7111385E-2,-6.2673534E-3],"split_indices":[4,8,4,0,0,4,6,0,0,0,0],"split_type":[0,0,0,0,0,0,0,0,0,0,0],"sum_hessian":[1.17050026E2,6.366374E0,1.10683655E2,3.351146E0,3.015228E0,5.5607876E1,5.507578E1,4.563057E1,9.977305E0,2.9100454E1,2.5975325E1],"tree_param":{"num_deleted":"0","num_feature":"20","num_nodes":"11","size_leaf_vector":"1"}},{"base_weights":[4.8287325E-2,5.5683315E-1,-2.0245824E-2,6.3190624E-2,1.6906957E-1,-5.3446274E-2,2.4487333E-2,3.3942E-2,-2.8131787E-2,3.3963986E-2,-1.599084E-3],"categories":[],"categories_nodes":[],"categories_segments":[],"categories_sizes":[],"default_left":[0,0,0,0,0,0,0,0,0,0,0],"id":32,"left_children":[1,3,5,-1,7,-1,9,-1,-1,-1,-1],"loss_changes":[4.0756154E0,3.4466705E0,4.924992E0,0E0,4.200421E0,0E0,3.743585E0,0E0,0E0,0E0,0E0],"parents":[2147483647,0,0,1,1,2,2,4,4,6,6],"right_children":[2,4,6,-1,8,-1,10,-1,-1,-1,-1],"split_conditions":[-1.2757249E0,-2.619381E-1,-1.1588265E0,6.3190624E-2,-1.07975654E-1,-5.3446274E-2,-1.0017385E0,3.3942E-2,-2.8131787E-2,3.3963986E-2,-1.599084E-3],"split_indices":[5,11,5,0,13,0,5,0,0,0,0],"split_type":[0,0,0,0,0,0,0,0,0,0,0],"sum_hessian":[1.14076744E2,1.2874734E1,1.0120201E2,3.6687195E0,9.206014E0,3.2950895E0,9.790692E1,5.5490046E0,3.6570094E0,7.038055E0,9.0868866E1],"tree_param":{"num_deleted":"0","num_feature":"20","num_nodes":"11","size_leaf_vector":"1"}},{"base_weights":[3.693651E-2,-2.413355E-1,1.7825402E-1,-4.7886992E-1,5.917552E-1,4.017102E-1,-2.1194819E-1,1.2838236E-2,-3.667007E-2,5.2301265E-2,3.6364232E-5,2.7257947E-2,-1.9907132E-2,1.6005581E-2,-2.1517409E-2],"categories":[],"categories_nodes":[],"categories_segments":[],"categories_sizes":[],"default_left":[0,0,0,0,0,0,0,0,0,0,0,0,0,0,0],"id":33,"left_children":[1,3,5,7,9,11,13,-1,-1,-1,-1,-1,-1,-1,-1],"loss_changes":[4.6239285E0,8.083519E0,6.920498E0,6.1083155E0,2.340957E0,5.993579E0,3.5138001E0,0E0,0E0,0E0,0E0,0E0,0E0,0E0,0E0],"parents":[2147483647,0,0,1,1,2,2,3,3,4,4,5,5,6,6],"right_children":[2,4,6,8,10,12,14,-1,-1,-1,-1,-1,-1,-1,-1],"split_conditions":[-2.1315509E-1,8.700032E-1,1.0846083E-1,-1.0121162E0,-5.558269E-1,8.700032E-1,-4.4586548E-1,1.2838236E-2,-3.667007E-2,5.2301265E-2,3.6364232E-5,2.7257947E-2,-1.9907132E-2,1.6005581E-2,-2.1517409E-2],"split_indices":[12,1,12,5,15,1,6,0,0,0,0,0,0,0,0],"split_type":[0,0,0,0,0,0,0,0,0,0,0,0,0,0,0],"sum_hessian":[1.1564975E2,3.847407E1,7.7175674E1,3.0362272E1,8.111798E0,4.9217304E1,2.7958374E1,7.701658E0,2.2660614E1,4.055592E0,4.056206E0,4.21088E1,7.1085067E0,7.8677053E0,2.0090668E1],"tree_param":{"num_deleted":"0","num_feature":"20","num_nodes":"15","size_leaf_vector":"1"}},{"base_weights":[-7.237934E-2,-1.7624225E-1,4.824745E-1,-6.082374E-1,-3.1430278E-2,6.3003354E-2,-2.7912531E-2,-6.7717074E-3,-5.980764E-2,-1.4666361E-2,1.3690727E-2,3.9134596E-2,-2.1886794E-2],"categories":[],"categories_nodes":[],"categories_segments":[],"categories_sizes":[],"default_left":[0,0,0,0,0,0,0,0,0,0,0,0,0],"id":34,"left_children":[1,3,5,7,9,-1,11,-1,-1,-1,-1,-1,-1],"loss_changes":[6.3900137E0,5.7653484E0,7.0839095E0,6.165675E0,5.7777853E0,0E0,4.107181E0,0E0,0E0,0E0,0E0,0E0,0E0],"parents":[2147483647,0,0,1,1,2,2,3,3,4,4,6,6],"right_children":[2,4,6,8,10,-1,12,-1,-1,-1,-1,-1,-1],"split_conditions":[1.1698682E0,-3.9668205E-1,-9.4959396E-1,1.32488E-1,1.2440519E-1,6.3003354E-2,-3.708661E-1,-6.7717074E-3,-5.980764E-2,-1.4666361E-2,1.3690727E-2,3.9134596E-2,-2.1886794E-2],"split_indices":[2,3,0,2,7,0,3,0,0,0,0,0,0],"split_type":[0,0,0,0,0,0,0,0,0,0,0,0,0],"sum_hessian":[1.08938286E2,9.248807E1,1.6450218E1,2.2243057E1,7.024501E1,6.0143027E0,1.0435916E1,1.3104687E1,9.13837E0,3.800433E1,3.224068E1,3.116951E0,7.3189654E0],"tree_param":{"num_deleted":"0","num_feature":"20","num_nodes":"13","size_leaf_vector":"1"}},{"base_weights":[3.7806552E-2,-1.46007E-2,4.8032638E-2,5.2614048E-2,-4.822709E-1,-4.0260132E-2,4.558181E-3,1.2193578E-2,-3.861951E-2],"categories":[],"categories_nodes":[],"categories_segments":[],"categories_sizes":[],"default_left":[0,0,0,0,0,0,0,0,0],"id":35,"left_children":[1,3,-1,5,7,-1,-1,-1,-1],"loss_changes":[5.851158E0,3.6278994E0,0E0,3.299685E0,3.2990685E0,0E0,0E0,0E0,0E0],"parents":[2147483647,0,0,1,1,3,3,4,4],"right_children":[2,4,-1,6,8,-1,-1,-1,-1],"split_conditions":[2.0412297E0,3.3603412E-1,4.8032638E-2,-1.4640696E0,-8.415802E-1,-4.0260132E-2,4.558181E-3,1.2193578E-2,-3.861951E-2],"split_indices":[14,12,0,15,15,0,0,0,0],"split_type":[0,0,0,0,0,0,0,0,0],"sum_hessian":[1.1773598E2,1.12237946E2,5.4980307E0,9.872291E1,1.3515036E1,3.2788754E0,9.544404E1,3.805339E0,9.709697E0],"tree_param":{"num_deleted":"0","num_feature":"20","num_nodes":"9","size_leaf_vector":"1"}},{"base_weights":[-3.1673465E-2,-7.586032E-2,3.729486E-2,-2.2680854E-2,-7.255104E-1,-3.0717102E-3,3.4263443E-2,-0E0,-5.7910133E-2],"categories":[],"categories_nodes":[],"categories_segments":[],"categories_sizes":[],"default_left":[0,0,0,0,0,0,0,0,0],"id":36,"left_children":[1,3,-1,5,7,-1,-1,-1,-1],"loss_changes":[3.918456E0,3.6824234E0,0E0,2.7819712E0,2.563086E0,0E0,0E0,0E0,0E0],"parents":[2147483647,0,0,1,1,3,3,4,4],"right_children":[2,4,-1,6,8,-1,-1,-1,-1],"split_conditions":[2.0412297E0,5.5921537E-1,3.729486E-2,2.1159E0,-5.736817E-1,-3.0717102E-3,3.4263443E-2,-0E0,-5.7910133E-2],"split_indices":[14,12,0,1,15,0,0,0,0],"split_type":[0,0,0,0,0,0,0,0,0],"sum_hessian":[1.13349754E2,1.08230415E2,5.1193438E0,1.0114007E2,7.0903463E0,9.689072E1,4.2493477E0,3.005066E0,4.0852804E0],"tree_param":{"num_deleted":"0","num_feature":"20","num_nodes":"9","size_leaf_vector":"1"}},{"base_weights":[5.778685E-4,-1.6545714E-1,2.5608134E-1,-2.91336E-1,5.469536E-1,-2.3330337E-1,3.9578703E-1,-4.1422483E-2,-7.363004E-3,-1.6903771E-2,6.929499E-2,2.1830473E-2,-3.8185194E-2,3.209425E-2,-0E0],"categories":[],"categories_nodes":[],"categories_segments":[],"categories_sizes":[],"default_left":[0,0,0,0,0,0,0,0,0,0,0,0,0,0,0],"id":37,"left_children":[1,3,5,7,9,11,13,-1,-1,-1,-1,-1,-1,-1,-1],"loss_changes":[4.9328256E0,6.4214535E0,3.2503037E0,4.45121E0,8.560091E0,4.1591997E0,3.5682225E0,0E0,0E0,0E0,0E0,0E0,0E0,0E0,0E0],"parents":[2147483647,0,0,1,1,2,2,3,3,4,4,5,5,6,6],"right_children":[2,4,6,8,10,12,14,-1,-1,-1,-1,-1,-1,-1,-1],"split_conditions":[1.4804664E-2,1.0191284E0,-9.200867E-1,-2.4911769E-1,-3.6042046E-2,-1.5138733E0,8.870972E-1,-4.1422483E-2,-7.363004E-3,-1.6903771E-2,6.929499E-2,2.1830473E-2,-3.8185194E-2,3.209425E-2,-0E0],"split_indices":[14,7,17,12,13,5,6,0,0,0,0,0,0,0,0],"split_type":[0,0,0,0,0,0,0,0,0,0,0,0,0,0,0],"sum_hessian":[1.1406607E2,6.9114265E1,4.4951805E1,5.935756E1,9.756712E0,9.674961E0,3.5276844E1,1.1403023E1,4.7954536E1,4.9804816E0,4.7762303E0,4.270048E0,5.4049134E0,2.1452736E1,1.3824108E1],"tree_param":{"num_deleted":"0","num_feature":"20","num_nodes":"15","size_leaf_vector":"1"}},{"base_weights":[7.3840385E-3,-2.2444296E-1,1.190302E-1,-4.8876557E-1,5.702686E-1,5.8670904E-2,4.5430735E-2,-1.7727197E-3,-4.259346E-2,4.7966268E-2,2.758368E-3,1.5301677E-2,-1.01158E-2],"categories":[],"categories_nodes":[],"categories_segments":[],"categories_sizes":[],"default_left":[0,0,0,0,0,0,0,0,0,0,0,0,0],"id":38,"left_children":[1,3,5,7,9,-1,11,-1,-1,-1,-1,-1,-1],"loss_changes":[2.9778156E0,8.095246E0,5.8914766E0,4.586203E0,1.7823625E0,0E0,4.8631816E0,0E0,0E0,0E0,0E0,0E0,0E0],"parents":[2147483647,0,0,1,1,2,2,3,3,4,4,6,6],"right_children":[2,4,6,8,10,-1,12,-1,-1,-1,-1,-1,-1],"split_conditions":[-2.1315509E-1,8.700032E-1,-1.8570398E-1,-2.59602E-1,5.231166E-1,5.8670904E-2,-4.1188905E-1,-1.7727197E-3,-4.259346E-2,4.7966268E-2,2.758368E-3,1.5301677E-2,-1.01158E-2],"split_indices":[12,1,12,9,17,0,15,0,0,0,0,0,0],"split_type":[0,0,0,0,0,0,0,0,0,0,0,0,0],"sum_hessian":[1.1342599E2,3.6249645E1,7.7176346E1,2.7585472E1,8.664173E0,3.9719589E0,7.320439E1,1.2879412E1,1.4706059E1,4.3340898E0,4.3300834E0,3.5758587E1,3.74458E1],"tree_param":{"num_deleted":"0","num_feature":"20","num_nodes":"13","size_leaf_vector":"1"}},{"base_weights":[-6.4082734E-2,-1.8202494E-1,4.3687278E-1,-5.8077075E-2,-7.084143E-2,6.2170047E-2,1.6050394E-1,6.433842E-3,-2.7885238E-2,-1.9842481E-2,4.5194056E-2],"categories":[],"categories_nodes":[],"categories_segments":[],"categories_sizes":[],"default_left":[0,0,0,0,0,0,0,0,0,0,0],"id":39,"left_children":[1,3,5,-1,7,-1,9,-1,-1,-1,-1],"loss_changes":[6.4421887E0,9.419966E0,4.282257E0,0E0,7.9372406E0,0E0,7.3224325E0,0E0,0E0,0E0,0E0],"parents":[2147483647,0,0,1,1,2,2,4,4,6,6],"right_children":[2,4,6,-1,8,-1,10,-1,-1,-1,-1],"split_conditions":[1.0815566E0,-1.0082078E0,-9.930058E-1,-5.8077075E-2,3.1570247E-1,6.2170047E-2,2.02792E-1,6.433842E-3,-2.7885238E-2,-1.9842481E-2,4.5194056E-2],"split_indices":[2,16,16,0,16,0,8,0,0,0,0],"split_type":[0,0,0,0,0,0,0,0,0,0,0],"sum_hessian":[1.0712019E2,8.738339E1,1.9736801E1,7.85297E0,7.9530426E1,4.0517287E0,1.5685072E1,5.6788574E1,2.2741848E1,9.153665E0,6.5314083E0],"tree_param":{"num_deleted":"0","num_feature":"20","num_nodes":"11","size_leaf_vector":"1"}}]},"name":"gbtree"},"learner_model_param":{"base_score":"[4.968855E-1]","boost_from_average":"1","num_class":"0","num_feature":"20","num_target":"1"},"objective":{"name":"binary:logistic","reg_loss_param":{"scale_pos_weight":"1.22000003"}}},"version":[3,2,0]}