{"learner":{"attributes":{"best_iteration":"35","best_score":"0.6757976755277434","scikit_learn":"{\"_estimator_type\": \"classifier\"}"},"feature_names":[],"feature_types":[],"gradient_booster":{"model":{"cats":{"enc":[],"feature_segments":[],"sorted_idx":[]},"gbtree_model_param":{"num_parallel_tree":"1","num_trees":"66"},"iteration_indptr":[0,1,2,3,4,5,6,7,8,9,10,11,12,13,14,15,16,17,18,19,20,21,22,23,24,25,26,27,28,29,30,31,32,33,34,35,36,37,38,39,40,41,42,43,44,45,46,47,48,49,50,51,52,53,54,55,56,57,58,59,60,61,62,63,64,65,66],"tree_info":[0,0,0,0,0,0,0,0,0,0,0,0,0,0,0,0,0,0,0,0,0,0,0,0,0,0,0,0,0,0,0,0,0,0,0,0,0,0,0,0,0,0,0,0,0,0,0,0,0,0,0,0,0,0,0,0,0,0,0,0,0,0,0,0,0,0],"trees":[{"base_weights":[-3.3679537E-2,-8.072893E-2,5.9540875E-2,4.6538316E-2,-6.57419E-1,9.529026E-3,-2.5158992E-2,-7.64688E-2,-8.227985E-3],"categories":[],"categories_nodes":[],"categories_segments":[],"categories_sizes":[],"default_left":[0,0,0,0,0,0,0,0,0],"id":0,"left_children":[1,3,-1,5,7,-1,-1,-1,-1],"loss_changes":[7.7621284E0,9.706998E0,0E0,8.625604E0,9.847101E0,0E0,0E0,0E0,0E0],"parents":[2147483647,0,0,1,1,3,3,4,4],"right_children":[2,4,-1,6,8,-1,-1,-1,-1],"split_conditions":[2.596819E0,6.055717E-1,5.9540875E-2,1.4384805E-1,7.376542E-1,9.529026E-3,-2.5158992E-2,-7.64688E-2,-8.227985E-3],"split_indices":[16,17,0,10,5,0,0,0,0],"split_type":[0,0,0,0,0,0,0,0,0],"sum_hessian":[1.3398967E2,1.3000998E2,3.9796932E0,1.07116745E2,2.2893236E1,8.553841E1,2.1578337E1,7.434427E0,1.5458809E1],"tree_param":{"num_deleted":"0","num_feature":"20","num_nodes":"9","size_leaf_vector":"1"}},{"base_weights":[1.7066885E-2,-7.641915E-1,1.4725387E-1,2.0330504E-2,-1.0548022E0,8.516395E-1,-0E0,-3.1539227E-3,-6.7757644E-2,4.6625496E-3,5.765005E-2,-5.9724476E-2,4.772667E-3],"categories":[],"categories_nodes":[],"categories_segments":[],"categories_sizes":[],"default_left":[0,0,0,0,0,0,0,0,0,0,0,0,0],"id":1,"left_children":[1,3,5,-1,7,9,11,-1,-1,-1,-1,-1,-1],"loss_changes":[1.3517515E1,6.9460764E0,1.1828169E1,0E0,4.4013233E0,4.2770243E0,1.0972609E1,0E0,0E0,0E0,0E0,0E0,0E0],"parents":[2147483647,0,0,1,1,2,2,4,4,5,5,6,6],"right_children":[2,4,6,-1,8,10,12,-1,-1,-1,-1,-1,-1],"split_conditions":[-6.715941E-1,-1.4254314E0,-2.7053827E-1,2.0330504E-2,-7.0123994E-1,-2.6380596E-1,-1.1158354E0,-3.1539227E-3,-6.7757644E-2,4.6625496E-3,5.765005E-2,-5.9724476E-2,4.772667E-3],"split_indices":[14,16,12,0,1,1,15,0,0,0,0,0,0],"split_type":[0,0,0,0,0,0,0,0,0,0,0,0,0],"sum_hessian":[1.3140312E2,1.7963745E1,1.13439384E2,3.4243968E0,1.4539349E1,1.8729544E1,9.470984E1,3.7384322E0,1.0800916E1,5.7928514E0,1.2936691E1,6.1182175E0,8.859162E1],"tree_param":{"num_deleted":"0","num_feature":"20","num_nodes":"13","size_leaf_vector":"1"}},{"base_weights":[1.7394574E-3,-4.489756E-1,1.6478696E-1,-2.4364547E-1,-6.799711E-2,-1.024673E0,3.2635024E-1,3.3468965E-2,-2.2755131E-2,-7.002171E-3,-6.511577E-2,-5.6320418E-2,2.2300158E-2],"categories":[],"categories_nodes":[],"categories_segments":[],"categories_sizes":[],"default_left":[0,0,0,0,0,0,0,0,0,0,0,0,0],"id":2,"left_children":[1,3,5,7,-1,9,11,-1,-1,-1,-1,-1,-1],"loss_changes":[9.7783165E0,6.1089873E0,1.9126638E1,6.095543E0,0E0,2.597396E0,1.5600101E1,0E0,0E0,0E0,0E0,0E0,0E0],"parents":[2147483647,0,0,1,1,2,2,3,3,5,5,6,6],"right_children":[2,4,6,8,-1,10,12,-1,-1,-1,-1,-1,-1],"split_conditions":[-6.067214E-1,-3.1481537E-1,-7.35747E-1,-1.5934398E0,-6.799711E-2,-4.9022096E-1,-1.1158354E0,3.3468965E-2,-2.2755131E-2,-7.002171E-3,-6.511577E-2,-5.6320418E-2,2.2300158E-2],"split_indices":[6,17,14,4,0,16,15,0,0,0,0,0,0],"split_type":[0,0,0,0,0,0,0,0,0,0,0,0,0],"sum_hessian":[1.3144005E2,3.4288578E1,9.7151474E1,2.9105488E1,5.1830897E0,1.0905069E1,8.624641E1,4.977084E0,2.4128403E1,3.0504E0,7.854669E0,5.859075E0,8.038733E1],"tree_param":{"num_deleted":"0","num_feature":"20","num_nodes":"13","size_leaf_vector":"1"}},{"base_weights":[-3.8554072E-3,1.6661711E-1,-6.172478E-1,-8.9861035E-1,2.6265576E-1,-1.1096649E0,1.8855286E-1,-7.607027E-2,2.0825434E-3,-5.5563655E-2,1.6427223E-2,-8.085149E-3,-7.145029E-2,-2.6311064E-2,3.135021E-2],"categories":[],"categories_nodes":[],"categories_segments":[],"categories_sizes":[],"default_left":[0,0,0,0,0,0,0,0,0,0,0,0,0,0,0],"id":3,"left_children":[1,3,5,7,9,11,13,-1,-1,-1,-1,-1,-1,-1,-1],"loss_changes":[1.4308419E1,1.1080997E1,1.21221485E1,5.4573784E0,9.219194E0,5.274868E0,4.125052E0,0E0,0E0,0E0,0E0,0E0,0E0,0E0,0E0],"parents":[2147483647,0,0,1,1,2,2,3,3,4,4,5,5,6,6],"right_children":[2,4,6,8,10,12,14,-1,-1,-1,-1,-1,-1,-1,-1],"split_conditions":[5.4146177E-1,-1.092167E0,2.3573542E-1,6.479094E-1,-1.194565E0,-2.0123394E-1,1.1855874E0,-7.607027E-2,2.0825434E-3,-5.5563655E-2,1.6427223E-2,-8.085149E-3,-7.145029E-2,-2.6311064E-2,3.135021E-2],"split_indices":[15,15,8,4,8,10,15,0,0,0,0,0,0,0,0],"split_type":[0,0,0,0,0,0,0,0,0,0,0,0,0,0,0],"sum_hessian":[1.3442105E2,1.05629974E2,2.8791084E1,7.9585443E0,9.7671425E1,1.7713522E1,1.107756E1,4.4796634E0,3.4788806E0,3.6741166E0,9.3997314E1,4.9220247E0,1.2791498E1,4.0488195E0,7.0287414E0],"tree_param":{"num_deleted":"0","num_feature":"20","num_nodes":"15","size_leaf_vector":"1"}},{"base_weights":[-3.9234865E-2,-2.9049906E-1,2.616383E-1,4.1216332E-1,-4.6925822E-1,-6.3644284E-1,4.157949E-1,4.4691246E-2,-1.8592505E-2,2.4859116E-3,-3.9470803E-2,7.6223398E-3,-5.383822E-2,-2.8035158E-2,2.6884172E-2],"categories":[],"categories_nodes":[],"categories_segments":[],"categories_sizes":[],"default_left":[0,0,0,0,0,0,0,0,0,0,0,0,0,0,0],"id":4,"left_children":[1,3,5,7,9,11,13,-1,-1,-1,-1,-1,-1,-1,-1],"loss_changes":[1.0550682E1,9.762479E0,9.017393E0,6.3738027E0,1.0294633E1,3.5863185E0,6.8211584E0,0E0,0E0,0E0,0E0,0E0,0E0,0E0,0E0],"parents":[2147483647,0,0,1,1,2,2,3,3,4,4,5,5,6,6],"right_children":[2,4,6,8,10,12,14,-1,-1,-1,-1,-1,-1,-1,-1],"split_conditions":[1.7294335E-1,-2.7053827E-1,-7.5049305E-1,1.6693418E-1,-1.6682261E-1,-1.2260071E0,-1.3368583E0,4.4691246E-2,-1.8592505E-2,2.4859116E-3,-3.9470803E-2,7.6223398E-3,-5.383822E-2,-2.8035158E-2,2.6884172E-2],"split_indices":[2,12,13,13,14,13,7,0,0,0,0,0,0,0,0],"split_type":[0,0,0,0,0,0,0,0,0,0,0,0,0,0,0],"sum_hessian":[1.375182E2,7.513694E1,6.238126E1,1.4860101E1,6.027684E1,8.585699E0,5.3795563E1,9.197231E0,5.662869E0,2.3200747E1,3.7076096E1,3.2283654E0,5.3573337E0,5.479168E0,4.8316395E1],"tree_param":{"num_deleted":"0","num_feature":"20","num_nodes":"15","size_leaf_vector":"1"}},{"base_weights":[-3.2949377E-2,-5.454152E-1,1.1271384E-1,2.6928434E-1,-9.0431327E-1,-9.7599876E-1,2.0072217E-1,-1.7138371E-2,3.307501E-2,-2.6491442E-4,-5.6275345E-2,-7.243963E-2,-4.986418E-3,-3.5271805E-2,1.5037255E-2],"categories":[],"categories_nodes":[],"categories_segments":[],"categories_sizes":[],"default_left":[0,0,0,0,0,0,0,0,0,0,0,0,0,0,0],"id":5,"left_children":[1,3,5,7,9,11,13,-1,-1,-1,-1,-1,-1,-1,-1],"loss_changes":[1.0491438E1,9.406237E0,1.0564562E1,2.707684E0,4.23942E0,3.1142907E0,9.397047E0,0E0,0E0,0E0,0E0,0E0,0E0,0E0,0E0],"parents":[2147483647,0,0,1,1,2,2,3,3,4,4,5,5,6,6],"right_children":[2,4,6,8,10,12,14,-1,-1,-1,-1,-1,-1,-1,-1],"split_conditions":[-7.456699E-1,-1.3854275E0,-1.1158354E0,5.0566442E-2,-3.629257E-1,1.0467851E0,-9.819095E-1,-1.7138371E-2,3.307501E-2,-2.6491442E-4,-5.6275345E-2,-7.243963E-2,-4.986418E-3,-3.5271805E-2,1.5037255E-2],"split_indices":[7,4,15,1,10,17,8,0,0,0,0,0,0,0,0],"split_type":[0,0,0,0,0,0,0,0,0,0,0,0,0,0,0],"sum_hessian":[1.3814334E2,3.0119703E1,1.0802364E2,9.202061E0,2.0917643E1,7.239601E0,1.0078404E2,3.5435202E0,5.6585407E0,4.4218025E0,1.649584E1,4.203896E0,3.0357049E0,9.317707E0,9.146633E1],"tree_param":{"num_deleted":"0","num_feature":"20","num_nodes":"15","size_leaf_vector":"1"}},{"base_weights":[-4.692803E-3,5.223966E-1,-1.2902915E-1,-2.6952932E-2,8.3550066E-1,-8.7986946E-1,5.857513E-2,4.4104955E-3,5.5751927E-2,-7.5758316E-2,-1.7063051E-2,-4.6719447E-2,7.886771E-3],"categories":[],"categories_nodes":[],"categories_segments":[],"categories_sizes":[],"default_left":[0,0,0,0,0,0,0,0,0,0,0,0,0],"id":6,"left_children":[1,3,5,-1,7,9,11,-1,-1,-1,-1,-1,-1],"loss_changes":[8.947587E0,9.128251E0,1.5780284E1,0E0,4.0760746E0,6.953367E0,8.902196E0,0E0,0E0,0E0,0E0,0E0,0E0],"parents":[2147483647,0,0,1,1,2,2,4,4,5,5,6,6],"right_children":[2,4,6,-1,8,10,12,-1,-1,-1,-1,-1,-1],"split_conditions":[-2.7053827E-1,-6.3293016E-1,-7.0898277E-1,-2.6952932E-2,-2.6380596E-1,-8.261844E-2,-1.092167E0,4.4104955E-3,5.5751927E-2,-7.5758316E-2,-1.7063051E-2,-4.6719447E-2,7.886771E-3],"split_indices":[12,14,7,0,1,12,15,0,0,0,0,0,0],"split_type":[0,0,0,0,0,0,0,0,0,0,0,0,0],"sum_hessian":[1.3510028E2,2.5021753E1,1.1007852E2,5.4624467E0,1.9559305E1,2.1374664E1,8.870386E1,5.7802386E0,1.3779067E1,8.889999E0,1.2484665E1,7.1975975E0,8.150626E1],"tree_param":{"num_deleted":"0","num_feature":"20","num_nodes":"13","size_leaf_vector":"1"}},{"base_weights":[2.358683E-2,-5.9078246E-1,1.8925871E-1,-2.9224998E-1,-7.690413E-2,7.4179715E-1,-1.2727791E-1,2.8240217E-2,-2.6590466E-2,4.9314834E-2,5.276196E-3,-1.5717065E-2,3.2177832E-2],"categories":[],"categories_nodes":[],"categories_segments":[],"categories_sizes":[],"default_left":[0,0,0,0,0,0,0,0,0,0,0,0,0],"id":7,"left_children":[1,3,5,7,-1,9,11,-1,-1,-1,-1,-1,-1],"loss_changes":[1.4013606E1,7.6270895E0,1.917952E1,5.1266685E0,0E0,5.9904747E0,1.0247409E1,0E0,0E0,0E0,0E0,0E0,0E0],"parents":[2147483647,0,0,1,1,2,2,3,3,5,5,6,6],"right_children":[2,4,6,8,-1,10,12,-1,-1,-1,-1,-1,-1],"split_conditions":[-7.9804456E-1,-5.2983534E-1,1.50862895E-2,-1.5934398E0,-7.690413E-2,-1.0914074E-1,1.5654112E0,2.8240217E-2,-2.6590466E-2,4.9314834E-2,5.276196E-3,-1.5717065E-2,3.2177832E-2],"split_indices":[6,17,6,4,0,8,5,0,0,0,0,0,0],"split_type":[0,0,0,0,0,0,0,0,0,0,0,0,0],"sum_hessian":[1.359762E2,2.8206617E1,1.07769585E2,2.2522837E1,5.683782E0,3.887784E1,6.889175E1,4.532418E0,1.799042E1,2.7574541E1,1.1303298E1,5.6019154E1,1.2872593E1],"tree_param":{"num_deleted":"0","num_feature":"20","num_nodes":"13","size_leaf_vector":"1"}},{"base_weights":[-7.0878393E-3,-6.0498472E-2,7.203439E-2,2.41099E-2,-9.844406E-1,7.6242774E-3,-1.767066E-2,5.1105972E-3,-7.20704E-2],"categories":[],"categories_nodes":[],"categories_segments":[],"categories_sizes":[],"default_left":[0,0,0,0,0,0,0,0,0],"id":8,"left_children":[1,3,-1,5,7,-1,-1,-1,-1],"loss_changes":[1.0616879E1,1.0600833E1,0E0,6.0290885E0,5.927555E0,0E0,0E0,0E0,0E0],"parents":[2147483647,0,0,1,1,3,3,4,4],"right_children":[2,4,-1,6,8,-1,-1,-1,-1],"split_conditions":[2.8123944E0,4.2131308E-1,7.203439E-2,3.4317645E-1,-7.5207657E-1,7.6242774E-3,-1.767066E-2,5.1105972E-3,-7.20704E-2],"split_indices":[0,12,0,17,10,0,0,0,0],"split_type":[0,0,0,0,0,0,0,0,0],"sum_hessian":[1.3695688E2,1.3307483E2,3.8820477E0,1.22704094E2,1.0370738E1,9.2209496E1,3.0494602E1,3.2351513E0,7.1355867E0],"tree_param":{"num_deleted":"0","num_feature":"20","num_nodes":"9","size_leaf_vector":"1"}},{"base_weights":[4.3597464E-2,-2.558175E-1,4.0351945E-1,6.683121E-2,-7.315039E-1,7.838478E-1,5.767243E-2,-9.857127E-3,3.9856877E-2,-4.7031697E-2,6.751988E-3,-1.27421385E-2,4.6301477E-2,-6.3465023E-3,5.4670792E-2],"categories":[],"categories_nodes":[],"categories_segments":[],"categories_sizes":[],"default_left":[0,0,0,0,0,0,0,0,0,0,0,0,0,0,0],"id":9,"left_children":[1,3,5,7,9,11,13,-1,-1,-1,-1,-1,-1,-1,-1],"loss_changes":[1.4950695E1,1.1717615E1,8.163052E0,9.053114E0,5.782055E0,4.7051945E0,6.7812834E0,0E0,0E0,0E0,0E0,0E0,0E0,0E0,0E0],"parents":[2147483647,0,0,1,1,2,2,3,3,4,4,5,5,6,6],"right_children":[2,4,6,8,10,12,14,-1,-1,-1,-1,-1,-1,-1,-1],"split_conditions":[1.7294335E-1,9.76879E-2,7.9318905E-1,2.5841293E-1,3.8368877E-2,-6.4513284E-1,1.397886E0,-9.857127E-3,3.9856877E-2,-4.7031697E-2,6.751988E-3,-1.27421385E-2,4.6301477E-2,-6.3465023E-3,5.4670792E-2],"split_indices":[2,17,2,3,15,13,17,0,0,0,0,0,0,0,0],"split_type":[0,0,0,0,0,0,0,0,0,0,0,0,0,0,0],"sum_hessian":[1.3663797E2,7.45948E1,6.204316E1,4.4834038E1,2.9760765E1,2.8807697E1,3.323546E1,3.33666E1,1.1467439E1,2.3998833E1,5.7619333E0,3.2884717E0,2.5519226E1,2.8870686E1,4.364774E0],"tree_param":{"num_deleted":"0","num_feature":"20","num_nodes":"15","size_leaf_vector":"1"}},{"base_weights":[-8.144983E-3,-5.2432783E-2,6.662421E-2,4.3248165E-2,-6.548795E-1,1.1841462E-2,-9.072071E-3,2.6200732E-2,-4.6702277E-2],"categories":[],"categories_nodes":[],"categories_segments":[],"categories_sizes":[],"default_left":[0,0,0,0,0,0,0,0,0],"id":10,"left_children":[1,3,-1,5,7,-1,-1,-1,-1],"loss_changes":[8.190847E0,7.9015217E0,0E0,5.169939E0,6.7108974E0,0E0,0E0,0E0,0E0],"parents":[2147483647,0,0,1,1,3,3,4,4],"right_children":[2,4,-1,6,8,-1,-1,-1,-1],"split_conditions":[2.8123944E0,8.040835E-1,6.662421E-2,-1.18438035E-1,-2.0474343E-1,1.1841462E-2,-9.072071E-3,2.6200732E-2,-4.6702277E-2],"split_indices":[0,16,0,11,17,0,0,0,0],"split_type":[0,0,0,0,0,0,0,0,0],"sum_hessian":[1.3793378E2,1.345252E2,3.4085705E0,1.167458E2,1.7779413E1,6.2924385E1,5.382141E1,3.1676059E0,1.4611808E1],"tree_param":{"num_deleted":"0","num_feature":"20","num_nodes":"9","size_leaf_vector":"1"}},{"base_weights":[4.2113505E-2,-2.6071668E-1,2.365901E-1,-1.6429927E-2,-1.3131623E0,1.0998568E-1,7.4657416E-1,-3.262163E-2,2.0641934E-2,-7.83888E-2,-2.8383851E-2,1.082099E-2,-5.821504E-2,-3.0655102E-3,5.53126E-2],"categories":[],"categories_nodes":[],"categories_segments":[],"categories_sizes":[],"default_left":[0,0,0,0,0,0,0,0,0,0,0,0,0,0,0],"id":11,"left_children":[1,3,5,7,9,11,13,-1,-1,-1,-1,-1,-1,-1,-1],"loss_changes":[7.704996E0,1.296861E1,4.98332E0,1.1901179E1,7.0461655E-1,9.005962E0,4.6869516E0,0E0,0E0,0E0,0E0,0E0,0E0,0E0,0E0],"parents":[2147483647,0,0,1,1,2,2,3,3,4,4,5,5,6,6],"right_children":[2,4,6,8,10,12,14,-1,-1,-1,-1,-1,-1,-1,-1],"split_conditions":[-3.1446087E-1,1.2430168E-1,1.1905032E0,-1.281975E-1,3.3961508E-1,7.093837E-1,2.5989562E-1,-3.262163E-2,2.0641934E-2,-7.83888E-2,-2.8383851E-2,1.082099E-2,-5.821504E-2,-3.0655102E-3,5.53126E-2],"split_indices":[2,1,6,12,15,17,2,0,0,0,0,0,0,0,0],"split_type":[0,0,0,0,0,0,0,0,0,0,0,0,0,0,0],"sum_hessian":[1.2882317E2,5.0043255E1,7.877991E1,4.151719E1,8.526068E0,6.424318E1,1.4536729E1,1.6614418E1,2.4902771E1,5.43323E0,3.0928373E0,6.012953E1,4.113649E0,4.6480656E0,9.888663E0],"tree_param":{"num_deleted":"0","num_feature":"20","num_nodes":"15","size_leaf_vector":"1"}},{"base_weights":[-3.432456E-2,1.16848335E-1,-5.8757335E-1,-8.065395E-1,2.3072834E-1,3.341958E-1,-1.0018961E0,8.105646E-3,-6.0182154E-2,-5.741374E-2,1.6266445E-2,4.7020573E-2,-2.297636E-2,1.43965E-3,-6.461587E-2],"categories":[],"categories_nodes":[],"categories_segments":[],"categories_sizes":[],"default_left":[0,0,0,0,0,0,0,0,0,0,0,0,0,0,0],"id":12,"left_children":[1,3,5,7,9,11,13,-1,-1,-1,-1,-1,-1,-1,-1],"loss_changes":[1.1328747E1,1.1273841E1,1.1507462E1,4.823753E0,1.271402E1,5.1440353E0,6.2661114E0,0E0,0E0,0E0,0E0,0E0,0E0,0E0,0E0],"parents":[2147483647,0,0,1,1,2,2,3,3,4,4,5,5,6,6],"right_children":[2,4,6,8,10,12,14,-1,-1,-1,-1,-1,-1,-1,-1],"split_conditions":[5.4146177E-1,-7.35747E-1,-3.4006983E-1,-7.0123994E-1,-1.1158354E0,1.6693418E-1,-1.5934398E0,8.105646E-3,-6.0182154E-2,-5.741374E-2,1.6266445E-2,4.7020573E-2,-2.297636E-2,1.43965E-3,-6.461587E-2],"split_indices":[15,14,10,1,15,13,4,0,0,0,0,0,0,0,0],"split_type":[0,0,0,0,0,0,0,0,0,0,0,0,0,0,0],"sum_hessian":[1.3306892E2,1.0498913E2,2.8079792E1,1.0762413E1,9.4226715E1,8.692684E0,1.9387108E1,3.2280903E0,7.5343223E0,5.2661533E0,8.896056E1,4.895139E0,3.797545E0,4.3842316E0,1.5002876E1],"tree_param":{"num_deleted":"0","num_feature":"20","num_nodes":"15","size_leaf_vector":"1"}},{"base_weights":[-2.905215E-2,6.0957957E-2,-7.5944796E-2,-4.6371356E-1,4.0772345E-2,1.5310704E-2,-3.423099E-2,2.1123167E-2,-1.0892549E-2],"categories":[],"categories_nodes":[],"categories_segments":[],"categories_sizes":[],"default_left":[0,0,0,0,0,0,0,0,0],"id":13,"left_children":[1,-1,3,5,7,-1,-1,-1,-1],"loss_changes":[7.5661235E0,0E0,5.7620997E0,5.251489E0,9.741053E0,0E0,0E0,0E0,0E0],"parents":[2147483647,0,0,2,2,3,3,4,4],"right_children":[2,-1,4,6,8,-1,-1,-1,-1],"split_conditions":[-9.0268E-1,6.0957957E-2,-7.0898277E-1,-1.2228338E0,-1.2020723E-1,1.5310704E-2,-3.423099E-2,2.1123167E-2,-1.0892549E-2],"split_indices":[12,0,7,2,17,0,0,0,0],"split_type":[0,0,0,0,0,0,0,0,0],"sum_hessian":[1.2863617E2,3.6752453E0,1.2496093E2,2.8421183E1,9.653975E1,6.149475E0,2.2271708E1,3.8892757E1,5.7646988E1],"tree_param":{"num_deleted":"0","num_feature":"20","num_nodes":"9","size_leaf_vector":"1"}},{"base_weights":[3.8399475E-3,2.6277617E-1,-2.493402E-1,-4.754853E-2,3.8273925E-1,-6.2064046E-1,7.748224E-2,2.5021393E-2,-2.9349864E-2,2.0776985E-2,-3.830784E-2,-5.2798178E-2,1.2001325E-2],"categories":[],"categories_nodes":[],"categories_segments":[],"categories_sizes":[],"default_left":[0,0,0,0,0,0,0,0,0,0,0,0,0],"id":14,"left_children":[1,3,5,-1,7,9,11,-1,-1,-1,-1,-1,-1],"loss_changes":[8.595851E0,9.771559E0,8.123425E0,0E0,7.1260977E0,5.057496E0,6.786032E0,0E0,0E0,0E0,0E0,0E0,0E0],"parents":[2147483647,0,0,1,1,2,2,4,4,5,5,6,6],"right_children":[2,4,6,-1,8,10,12,-1,-1,-1,-1,-1,-1],"split_conditions":[-1.463634E-1,-1.1242186E0,7.733409E-2,-4.754853E-2,8.061044E-1,-1.8948438E0,-6.9707245E-1,2.5021393E-2,-2.9349864E-2,2.0776985E-2,-3.830784E-2,-5.2798178E-2,1.2001325E-2],"split_indices":[11,8,7,0,17,17,1,0,0,0,0,0,0],"split_type":[0,0,0,0,0,0,0,0,0,0,0,0,0],"sum_hessian":[1.290993E2,6.400066E1,6.509864E1,5.058603E0,5.894206E1,3.019796E1,3.4900684E1,5.3086483E1,5.855576E0,3.4055045E0,2.6792456E1,3.610743E0,3.1289942E1],"tree_param":{"num_deleted":"0","num_feature":"20","num_nodes":"13","size_leaf_vector":"1"}},{"base_weights":[4.033678E-2,-5.2675843E-2,7.8789675E-1,8.162221E-2,-9.246388E-1,-0E0,6.621409E-2,-1.0631745E-3,3.0986225E-2,-5.8612652E-2,-4.721939E-3,2.9593503E-2,-2.8983483E-2],"categories":[],"categories_nodes":[],"categories_segments":[],"categories_sizes":[],"default_left":[0,0,0,0,0,0,0,0,0,0,0,0,0],"id":15,"left_children":[1,3,5,7,9,11,-1,-1,-1,-1,-1,-1,-1],"loss_changes":[9.567597E0,1.4413564E1,6.326213E0,5.957817E0,3.1392174E0,2.8239293E0,0E0,0E0,0E0,0E0,0E0,0E0,0E0],"parents":[2147483647,0,0,1,1,2,2,3,3,4,4,5,5],"right_children":[2,4,6,8,10,12,-1,-1,-1,-1,-1,-1,-1],"split_conditions":[1.5654112E0,1.1192163E0,-1.6506699E-1,5.9062254E-1,4.471638E-2,-9.357134E-2,6.621409E-2,-1.0631745E-3,3.0986225E-2,-5.8612652E-2,-4.721939E-3,2.9593503E-2,-2.8983483E-2],"split_indices":[5,6,1,6,15,12,0,0,0,0,0,0,0],"split_type":[0,0,0,0,0,0,0,0,0,0,0,0,0],"sum_hessian":[1.3494463E2,1.2072019E2,1.4224434E1,1.05294624E2,1.5425568E1,6.2279944E0,7.99644E0,8.9043976E1,1.625065E1,1.14716E1,3.9539678E0,3.140687E0,3.0873075E0],"tree_param":{"num_deleted":"0","num_feature":"20","num_nodes":"13","size_leaf_vector":"1"}},{"base_weights":[8.500023E-2,-7.5579655E-1,1.4916413E-1,7.266066E-4,-6.711694E-2,-6.2966484E-1,2.0967469E-1,3.9571873E-3,-6.828043E-2,-9.4245095E-3,1.9262005E-2],"categories":[],"categories_nodes":[],"categories_segments":[],"categories_sizes":[],"default_left":[0,0,0,0,0,0,0,0,0,0,0],"id":16,"left_children":[1,3,5,-1,-1,7,9,-1,-1,-1,-1],"loss_changes":[6.969573E0,4.2845817E0,5.748974E0,0E0,0E0,4.820635E0,7.9418273E0,0E0,0E0,0E0,0E0],"parents":[2147483647,0,0,1,1,2,2,5,5,6,6],"right_children":[2,4,6,-1,-1,8,10,-1,-1,-1,-1],"split_conditions":[-1.092167E0,2.3012437E-1,-1.1242186E0,7.266066E-4,-6.711694E-2,-9.357134E-2,-4.43098E-1,3.9571873E-3,-6.828043E-2,-9.4245095E-3,1.9262005E-2],"split_indices":[15,16,8,0,0,12,4,0,0,0,0],"split_type":[0,0,0,0,0,0,0,0,0,0,0],"sum_hessian":[1.2722341E2,8.145678E0,1.19077736E2,3.8690443E0,4.276633E0,7.78744E0,1.112903E2,4.352246E0,3.4351938E0,3.385877E1,7.7431526E1],"tree_param":{"num_deleted":"0","num_feature":"20","num_nodes":"11","size_leaf_vector":"1"}},{"base_weights":[-4.7897913E-2,-5.5059206E-1,5.8491867E-2,2.1931508E-1,-9.8749846E-1,-3.3406455E-2,7.017297E-1,4.0908895E-2,-3.005071E-2,-6.977479E-2,-2.909511E-3,7.2151585E-3,-2.7745545E-2,-2.468651E-2,5.5006485E-2],"categories":[],"categories_nodes":[],"categories_segments":[],"categories_sizes":[],"default_left":[0,0,0,0,0,0,0,0,0,0,0,0,0,0,0],"id":17,"left_children":[1,3,5,7,9,11,13,-1,-1,-1,-1,-1,-1,-1,-1],"loss_changes":[6.9897523E0,7.970528E0,6.4359646E0,4.9338937E0,5.39437E0,8.902068E0,7.0816073E0,0E0,0E0,0E0,0E0,0E0,0E0,0E0,0E0],"parents":[2147483647,0,0,1,1,2,2,3,3,4,4,5,5,6,6],"right_children":[2,4,6,8,10,12,14,-1,-1,-1,-1,-1,-1,-1,-1],"split_conditions":[-9.312305E-1,-1.4683923E0,5.489326E-1,-8.899576E-1,3.57998E-1,1.2430168E-1,-8.956461E-1,4.0908895E-2,-3.005071E-2,-6.977479E-2,-2.909511E-3,7.2151585E-3,-2.7745545E-2,-2.468651E-2,5.5006485E-2],"split_indices":[6,4,14,17,8,1,13,0,0,0,0,0,0,0,0],"split_type":[0,0,0,0,0,0,0,0,0,0,0,0,0,0,0],"sum_hessian":[1.2817241E2,2.182299E1,1.0634943E2,7.9980836E0,1.3824906E1,9.374835E1,1.260107E1,4.695075E0,3.3030083E0,9.183699E0,4.641207E0,7.031807E1,2.343028E1,3.0272026E0,9.573867E0],"tree_param":{"num_deleted":"0","num_feature":"20","num_nodes":"15","size_leaf_vector":"1"}},{"base_weights":[-3.7591267E-2,-8.163526E-2,4.952265E-2,-4.4742593E-1,5.4177422E-2,-4.2928796E-2,-2.4522075E-3,2.4489671E-2,-4.88339E-3],"categories":[],"categories_nodes":[],"categories_segments":[],"categories_sizes":[],"default_left":[0,0,0,0,0,0,0,0,0],"id":18,"left_children":[1,3,-1,5,7,-1,-1,-1,-1],"loss_changes":[6.1171923E0,6.560523E0,0E0,5.717324E0,6.4411917E0,0E0,0E0,0E0,0E0],"parents":[2147483647,0,0,1,1,3,3,4,4],"right_children":[2,4,-1,6,8,-1,-1,-1,-1],"split_conditions":[2.7817004E0,-3.6145192E-1,4.952265E-2,-1.8480203E-1,-5.9683037E-1,-4.2928796E-2,-2.4522075E-3,2.4489671E-2,-4.88339E-3],"split_indices":[4,3,0,15,9,0,0,0,0],"split_type":[0,0,0,0,0,0,0,0,0],"sum_hessian":[1.3432089E2,1.2977872E2,4.542181E0,3.4716637E1,9.506208E1,1.639254E1,1.8324099E1,2.4166317E1,7.089576E1],"tree_param":{"num_deleted":"0","num_feature":"20","num_nodes":"9","size_leaf_vector":"1"}},{"base_weights":[3.1882E-2,-6.1319745E-3,6.0240746E-2,4.320473E-2,-5.894039E-2,1.755516E-2,-5.3403717E-3],"categories":[],"categories_nodes":[],"categories_segments":[],"categories_sizes":[],"default_left":[0,0,0,0,0,0,0],"id":19,"left_children":[1,3,-1,5,-1,-1,-1],"loss_changes":[6.0387654E0,7.6470933E0,0E0,5.835164E0,0E0,0E0,0E0],"parents":[2147483647,0,0,1,1,3,3],"right_children":[2,4,-1,6,-1,-1,-1],"split_conditions":[2.8123944E0,1.0066005E0,6.0240746E-2,-4.4894293E-1,-5.894039E-2,1.755516E-2,-5.3403717E-3],"split_indices":[0,12,0,0,0,0,0],"split_type":[0,0,0,0,0,0,0],"sum_hessian":[1.315812E2,1.2833159E2,3.2496254E0,1.2399285E2,4.3387337E0,4.0399467E1,8.359338E1],"tree_param":{"num_deleted":"0","num_feature":"20","num_nodes":"7","size_leaf_vector":"1"}},{"base_weights":[-7.873722E-2,-2.781119E-2,-6.1092712E-2,-1.0739491E-1,8.13416E-1,-7.834545E-3,4.046343E-2,6.45271E-2,-1.0646782E-2],"categories":[],"categories_nodes":[],"categories_segments":[],"categories_sizes":[],"default_left":[0,0,0,0,0,0,0,0,0],"id":20,"left_children":[1,3,-1,5,7,-1,-1,-1,-1],"loss_changes":[7.522709E0,8.548186E0,0E0,5.3671346E0,5.7799554E0,0E0,0E0,0E0,0E0],"parents":[2147483647,0,0,1,1,3,3,4,4],"right_children":[2,4,-1,6,8,-1,-1,-1,-1],"split_conditions":[1.0349531E0,1.5441092E0,-6.1092712E-2,1.1378543E0,1.711895E0,-7.834545E-3,4.046343E-2,6.45271E-2,-1.0646782E-2],"split_indices":[12,1,0,14,11,0,0,0,0],"split_type":[0,0,0,0,0,0,0,0,0],"sum_hessian":[1.3095456E2,1.2643373E2,4.5208325E0,1.1641187E2,1.0021856E1,1.1136128E2,5.0505905E0,6.7322307E0,3.2896256E0],"tree_param":{"num_deleted":"0","num_feature":"20","num_nodes":"9","size_leaf_vector":"1"}},{"base_weights":[2.031896E-3,-1.7756318E-1,2.390181E-1,6.121375E-1,-2.9424575E-1,7.2427934E-1,-1.5129782E-1,6.741061E-2,-0E0,-3.8664684E-2,-6.4946087E-3,5.9746947E-2,8.476238E-3,-1.8263048E-2,4.847826E-2],"categories":[],"categories_nodes":[],"categories_segments":[],"categories_sizes":[],"default_left":[0,0,0,0,0,0,0,0,0,0,0,0,0,0,0],"id":21,"left_children":[1,3,5,7,9,11,13,-1,-1,-1,-1,-1,-1,-1,-1],"loss_changes":[5.8264127E0,7.295125E0,1.1378022E1,4.7301083E0,5.191586E0,6.6254177E0,8.332095E0,0E0,0E0,0E0,0E0,0E0,0E0,0E0,0E0],"parents":[2147483647,0,0,1,1,2,2,3,3,4,4,5,5,6,6],"right_children":[2,4,6,8,10,12,14,-1,-1,-1,-1,-1,-1,-1,-1],"split_conditions":[2.4454275E-1,-1.4014512E0,8.0458564E-1,-2.7276963E-1,-2.1823876E-1,-1.8133606E-1,1.397886E0,6.741061E-2,-0E0,-3.8664684E-2,-6.4946087E-3,5.9746947E-2,8.476238E-3,-1.8263048E-2,4.847826E-2],"split_indices":[2,2,2,9,11,11,17,0,0,0,0,0,0,0,0],"split_type":[0,0,0,0,0,0,0,0,0,0,0,0,0,0,0],"sum_hessian":[1.3475223E2,7.6560905E1,5.8191315E1,9.199055E0,6.7361855E1,2.567339E1,3.2517925E1,3.704809E0,5.4942455E0,1.6105373E1,5.125648E1,1.3167603E1,1.2505788E1,2.7946518E1,4.571408E0],"tree_param":{"num_deleted":"0","num_feature":"20","num_nodes":"15","size_leaf_vector":"1"}},{"base_weights":[-1.9423395E-2,-8.245098E-1,4.079715E-2,-6.639906E-2,-1.0224353E-2,2.6120538E-1,-1.857842E-1,5.1701076E-2,5.3144963E-3,-1.7665248E-2,4.311448E-2],"categories":[],"categories_nodes":[],"categories_segments":[],"categories_sizes":[],"default_left":[0,0,0,0,0,0,0,0,0,0,0],"id":22,"left_children":[1,3,5,-1,-1,7,9,-1,-1,-1,-1],"loss_changes":[6.461034E0,2.4709544E0,6.182654E0,0E0,0E0,7.2975974E0,1.0937873E1,0E0,0E0,0E0,0E0],"parents":[2147483647,0,0,1,1,2,2,5,5,6,6],"right_children":[2,4,6,-1,-1,8,10,-1,-1,-1,-1],"split_conditions":[-1.1242186E0,-1.7862046E-1,-1.4072785E-1,-6.639906E-2,-1.0224353E-2,-1.2121407E0,1.3715006E0,5.1701076E-2,5.3144963E-3,-1.7665248E-2,4.311448E-2],"split_indices":[8,3,11,0,0,2,2,0,0,0,0],"split_type":[0,0,0,0,0,0,0,0,0,0,0],"sum_hessian":[1.2995433E2,8.276406E0,1.21677925E2,3.848353E0,4.428053E0,6.1825436E1,5.985249E1,9.268423E0,5.255701E1,5.2258045E1,7.594444E0],"tree_param":{"num_deleted":"0","num_feature":"20","num_nodes":"11","size_leaf_vector":"1"}},{"base_weights":[3.4487445E-2,4.553252E-1,-5.8320906E-2,-2.979174E-1,7.98134E-1,-4.502753E-1,6.355656E-2,2.5092727E-2,-4.4598293E-2,1.872765E-2,6.3331425E-2,2.7259478E-2,-4.0678546E-2,1.755811E-2,-1.3749908E-2],"categories":[],"categories_nodes":[],"categories_segments":[],"categories_sizes":[],"default_left":[0,0,0,0,0,0,0,0,0,0,0,0,0,0,0],"id":23,"left_children":[1,3,5,7,9,11,13,-1,-1,-1,-1,-1,-1,-1,-1],"loss_changes":[5.3930635E0,6.730586E0,5.438291E0,4.496893E0,2.8362684E0,1.0230117E1,8.521535E0,0E0,0E0,0E0,0E0,0E0,0E0,0E0,0E0],"parents":[2147483647,0,0,1,1,2,2,3,3,4,4,5,5,6,6],"right_children":[2,4,6,8,10,12,14,-1,-1,-1,-1,-1,-1,-1,-1],"split_conditions":[-2.7053827E-1,-2.3633888E-1,-6.067214E-1,-8.45087E-1,6.7830406E-2,-1.4683923E0,1.3021684E-1,2.5092727E-2,-4.4598293E-2,1.872765E-2,6.3331425E-2,2.7259478E-2,-4.0678546E-2,1.755811E-2,-1.3749908E-2],"split_indices":[12,14,6,10,6,4,0,0,0,0,0,0,0,0,0],"split_type":[0,0,0,0,0,0,0,0,0,0,0,0,0,0,0],"sum_hessian":[1.3538458E2,2.3950933E1,1.11433655E2,7.4407854E0,1.6510147E1,2.5986814E1,8.544684E1,3.165674E0,4.2751117E0,9.727832E0,6.7823167E0,6.7407036E0,1.924611E1,4.6339283E1,3.9107555E1],"tree_param":{"num_deleted":"0","num_feature":"20","num_nodes":"15","size_leaf_vector":"1"}},{"base_weights":[6.0958765E-2,-4.78724E-2,1.11599214E-1,-8.800202E-1,1.682059E-1,-1.7913047E-2,-5.871367E-2,4.6919603E-3,4.401968E-2],"categories":[],"categories_nodes":[],"categories_segments":[],"categories_sizes":[],"default_left":[0,0,0,0,0,0,0,0,0],"id":24,"left_children":[1,-1,3,5,7,-1,-1,-1,-1],"loss_changes":[7.080016E0,0E0,7.4502344E0,5.251174E-1,6.4508667E0,0E0,0E0,0E0,0E0],"parents":[2147483647,0,0,2,2,3,3,4,4],"right_children":[2,-1,4,6,8,-1,-1,-1,-1],"split_conditions":[-1.194565E0,-4.78724E-2,-1.1158354E0,-4.2479962E-1,1.5654112E0,-1.7913047E-2,-5.871367E-2,4.6919603E-3,4.401968E-2],"split_indices":[8,0,15,2,5,0,0,0,0],"split_type":[0,0,0,0,0,0,0,0,0],"sum_hessian":[1.3585083E2,5.4934335E0,1.303574E2,6.1586776E0,1.2419872E2,3.1429968E0,3.0156808E0,1.1360795E2,1.05907755E1],"tree_param":{"num_deleted":"0","num_feature":"20","num_nodes":"9","size_leaf_vector":"1"}},{"base_weights":[-8.690108E-2,-1.2961431E-1,4.655101E-2,3.5351485E-2,-5.085513E-1,-3.604202E-2,6.165563E-3,-3.337526E-2,4.4633012E-2],"categories":[],"categories_nodes":[],"categories_segments":[],"categories_sizes":[],"default_left":[0,0,0,0,0,0,0,0,0],"id":25,"left_children":[1,3,-1,5,7,-1,-1,-1,-1],"loss_changes":[5.857496E0,8.152617E0,0E0,6.074323E0,9.368358E0,0E0,0E0,0E0,0E0],"parents":[2147483647,0,0,1,1,3,3,4,4],"right_children":[2,4,-1,6,8,-1,-1,-1,-1],"split_conditions":[2.596819E0,1.2430168E-1,4.655101E-2,-7.1376276E-1,1.5654112E0,-3.604202E-2,6.165563E-3,-3.337526E-2,4.4633012E-2],"split_indices":[16,1,0,14,5,0,0,0,0],"split_type":[0,0,0,0,0,0,0,0,0],"sum_hessian":[1.327888E2,1.2837302E2,4.415782E0,8.988531E1,3.848771E1,8.497775E0,8.1387535E1,3.5100845E1,3.3868613E0],"tree_param":{"num_deleted":"0","num_feature":"20","num_nodes":"9","size_leaf_vector":"1"}},{"base_weights":[5.496911E-3,-4.8207024E-1,1.2757872E-1,-8.5866946E-1,2.3357634E-1,4.9047822E-1,-1.5790805E-1,-0E0,-5.575366E-2,5.3357583E-2,-1.51977185E-2,3.1688172E-2,-1.6410377E-2,-6.5142974E-2,-2.0580138E-3],"categories":[],"categories_nodes":[],"categories_segments":[],"categories_sizes":[],"default_left":[0,0,0,0,0,0,0,0,0,0,0,0,0,0,0],"id":26,"left_children":[1,3,5,7,9,11,13,-1,-1,-1,-1,-1,-1,-1,-1],"loss_changes":[7.755824E0,7.2838516E0,1.0969523E1,3.7298965E0,4.736437E0,5.698758E0,7.733958E0,0E0,0E0,0E0,0E0,0E0,0E0,0E0,0E0],"parents":[2147483647,0,0,1,1,2,2,3,3,4,4,5,5,6,6],"right_children":[2,4,6,8,10,12,14,-1,-1,-1,-1,-1,-1,-1,-1],"split_conditions":[-7.9804456E-1,2.3573542E-1,1.8242235E-1,-8.4301805E-1,4.8276648E-1,5.473552E-1,3.1955773E-1,-0E0,-5.575366E-2,5.3357583E-2,-1.51977185E-2,3.1688172E-2,-1.6410377E-2,-6.5142974E-2,-2.0580138E-3],"split_indices":[6,8,6,8,8,16,6,0,0,0,0,0,0,0,0],"split_type":[0,0,0,0,0,0,0,0,0,0,0,0,0,0,0],"sum_hessian":[1.2886176E2,2.5049969E1,1.0381178E2,1.6373514E1,8.6764555E0,4.554677E1,5.8265015E1,4.0714602E0,1.23020525E1,3.0881932E0,5.588262E0,3.905878E1,6.4879885E0,4.3720407E0,5.3892975E1],"tree_param":{"num_deleted":"0","num_feature":"20","num_nodes":"15","size_leaf_vector":"1"}},{"base_weights":[6.492115E-2,-8.5414994E-1,1.2700447E-1,-6.460785E-2,-4.5450344E-3,-4.7237828E-1,2.0806785E-1,3.34662E-2,-4.379976E-2,-1.1395431E-2,1.712589E-2],"categories":[],"categories_nodes":[],"categories_segments":[],"categories_sizes":[],"default_left":[0,0,0,0,0,0,0,0,0,0,0],"id":27,"left_children":[1,3,5,-1,-1,7,9,-1,-1,-1,-1],"loss_changes":[7.890861E0,2.6655793E0,6.3847837E0,0E0,0E0,7.812896E0,6.8474956E0,0E0,0E0,0E0,0E0],"parents":[2147483647,0,0,1,1,2,2,5,5,6,6],"right_children":[2,4,6,-1,-1,8,10,-1,-1,-1,-1],"split_conditions":[-1.092167E0,-1.6506699E-1,-7.35747E-1,-6.460785E-2,-4.5450344E-3,-1.2860652E0,-7.224792E-1,3.34662E-2,-4.379976E-2,-1.1395431E-2,1.712589E-2],"split_indices":[15,1,14,0,0,17,4,0,0,0,0],"split_type":[0,0,0,0,0,0,0,0,0,0,0],"sum_hessian":[1.366662E2,7.738461E0,1.2892773E2,4.393289E0,3.3451717E0,1.463746E1,1.14290276E2,3.586456E0,1.1051003E1,2.659916E1,8.769112E1],"tree_param":{"num_deleted":"0","num_feature":"20","num_nodes":"11","size_leaf_vector":"1"}},{"base_weights":[5.838113E-2,1.786056E-1,-3.785667E-1,5.0483346E-1,-1.1564529E-1,3.980446E-1,-7.4555844E-1,-5.339851E-2,3.7125602E-2,-1.8678444E-2,2.6261294E-2,3.4003656E-2,-6.7834356E-3,-5.0865497E-2,1.2602414E-2],"categories":[],"categories_nodes":[],"categories_segments":[],"categories_sizes":[],"default_left":[0,0,0,0,0,0,0,0,0,0,0,0,0,0,0],"id":28,"left_children":[1,3,5,7,9,11,13,-1,-1,-1,-1,-1,-1,-1,-1],"loss_changes":[6.8442397E0,9.919539E0,8.328444E0,1.9029926E1,9.181466E0,1.5870042E0,5.6166296E0,0E0,0E0,0E0,0E0,0E0,0E0,0E0,0E0],"parents":[2147483647,0,0,1,1,2,2,3,3,4,4,5,5,6,6],"right_children":[2,4,6,8,10,12,14,-1,-1,-1,-1,-1,-1,-1,-1],"split_conditions":[5.4146177E-1,1.2301759E-2,-4.3341494E-1,-3.7911195E-1,5.4908913E-1,1.7704135E-1,2.2574776E-1,-5.339851E-2,3.7125602E-2,-1.8678444E-2,2.6261294E-2,3.4003656E-2,-6.7834356E-3,-5.0865497E-2,1.2602414E-2],"split_indices":[15,17,14,14,13,13,0,0,0,0,0,0,0,0,0],"split_type":[0,0,0,0,0,0,0,0,0,0,0,0,0,0,0],"sum_hessian":[1.2838104E2,1.01322624E2,2.7058416E1,4.7872208E1,5.3450417E1,8.568674E0,1.8489742E1,5.7707863E0,4.210142E1,3.8520622E1,1.4929793E1,5.5493736E0,3.0193012E0,1.4594609E1,3.8951328E0],"tree_param":{"num_deleted":"0","num_feature":"20","num_nodes":"15","size_leaf_vector":"1"}},{"base_weights":[-3.1823456E-2,-2.394048E-1,2.32468E-1,-1.3241689E-1,-1.0927707E0,6.7282355E-1,-1.04761705E-1,-1.8136946E-2,9.00797E-3,-2.3853881E-2,-6.900013E-2,-1.6130658E-2,4.2482004E-2,-1.5019104E-2,4.4799015E-2],"categories":[],"categories_nodes":[],"categories_segments":[],"categories_sizes":[],"default_left":[0,0,0,0,0,0,0,0,0,0,0,0,0,0,0],"id":29,"left_children":[1,3,5,7,9,11,13,-1,-1,-1,-1,-1,-1,-1,-1],"loss_changes":[7.283671E0,6.533605E0,8.777111E0,4.9382915E0,5.8067226E-1,4.8193893E0,6.811365E0,0E0,0E0,0E0,0E0,0E0,0E0,0E0,0E0],"parents":[2147483647,0,0,1,1,2,2,3,3,4,4,5,5,6,6],"right_children":[2,4,6,8,10,12,14,-1,-1,-1,-1,-1,-1,-1,-1],"split_conditions":[2.4454275E-1,3.732887E-1,8.0458564E-1,-1.0654458E-1,-1.0228802E0,-5.348385E-1,1.397886E0,-1.8136946E-2,9.00797E-3,-2.3853881E-2,-6.900013E-2,-1.6130658E-2,4.2482004E-2,-1.5019104E-2,4.4799015E-2],"split_indices":[2,12,2,12,2,13,17,0,0,0,0,0,0,0,0],"split_type":[0,0,0,0,0,0,0,0,0,0,0,0,0,0,0],"sum_hessian":[1.3073648E2,7.3488914E1,5.7247562E1,6.643252E1,7.056402E0,2.4524622E1,3.272294E1,3.8340633E1,2.8091883E1,3.2019641E0,3.854438E0,3.4894876E0,2.1035135E1,2.8041319E1,4.6816196E0],"tree_param":{"num_deleted":"0","num_feature":"20","num_nodes":"15","size_leaf_vector":"1"}},{"base_weights":[-1.1314379E-1,5.610598E-1,-1.8224695E-1,1.0511762E0,-1.9449603E-2,-2.7241442E-1,5.3657126E-1,2.0842008E-2,6.819707E-2,-9.228635E-3,-5.2433338E-2,-7.882911E-3,5.040145E-2],"categories":[],"categories_nodes":[],"categories_segments":[],"categories_sizes":[],"default_left":[0,0,0,0,0,0,0,0,0,0,0,0,0],"id":30,"left_children":[1,3,5,7,-1,9,11,-1,-1,-1,-1,-1,-1],"loss_changes":[6.150217E0,6.181326E0,7.856737E0,9.2462444E-1,0E0,6.969213E0,4.6684093E0,0E0,0E0,0E0,0E0,0E0,0E0],"parents":[2147483647,0,0,1,1,2,2,3,3,5,5,6,6],"right_children":[2,4,6,8,-1,10,12,-1,-1,-1,-1,-1,-1],"split_conditions":[-1.4014512E0,-3.4303138E-1,1.5654112E0,-5.0926346E-1,-1.9449603E-2,6.6699904E-1,-1.6506699E-1,2.0842008E-2,6.819707E-2,-9.228635E-3,-5.2433338E-2,-7.882911E-3,5.040145E-2],"split_indices":[2,1,5,8,0,10,1,0,0,0,0,0,0],"split_type":[0,0,0,0,0,0,0,0,0,0,0,0,0],"sum_hessian":[1.2962672E2,1.1254656E1,1.1837207E2,7.423703E0,3.8309524E0,1.0585404E2,1.2518027E1,3.327502E0,4.096201E0,9.632085E1,9.5331955E0,5.246279E0,7.271748E0],"tree_param":{"num_deleted":"0","num_feature":"20","num_nodes":"13","size_leaf_vector":"1"}},{"base_weights":[2.6052538E-2,-1.0297564E0,9.6404396E-2,-1.963239E-2,-6.593109E-2,1.6322704E-2,7.773464E-1,6.4126425E-3,-3.5676908E-2,8.159336E-3,5.8116604E-2],"categories":[],"categories_nodes":[],"categories_segments":[],"categories_sizes":[],"default_left":[0,0,0,0,0,0,0,0,0,0,0],"id":31,"left_children":[1,3,5,-1,-1,7,9,-1,-1,-1,-1],"loss_changes":[9.984341E0,8.5501766E-1,6.83062E0,0E0,0E0,9.406774E0,2.8002086E0,0E0,0E0,0E0,0E0],"parents":[2147483647,0,0,1,1,2,2,5,5,6,6],"right_children":[2,4,6,-1,-1,8,10,-1,-1,-1,-1],"split_conditions":[-1.1242186E0,-4.644143E-1,1.5654112E0,-1.963239E-2,-6.593109E-2,8.040835E-1,7.2517E-1,6.4126425E-3,-3.5676908E-2,8.159336E-3,5.8116604E-2],"split_indices":[8,5,5,0,0,16,0,0,0,0,0],"split_type":[0,0,0,0,0,0,0,0,0,0,0],"sum_hessian":[1.3333838E2,7.388995E0,1.2594938E2,3.1490493E0,4.239946E0,1.13743484E2,1.2205894E1,9.9452866E1,1.429062E1,5.351842E0,6.8540525E0],"tree_param":{"num_deleted":"0","num_feature":"20","num_nodes":"11","size_leaf_vector":"1"}},{"base_weights":[4.7756992E-2,-1.6735406E-1,1.934013E-1,5.2091133E-2,-1.0061029E0,7.722103E-1,8.0779105E-2,-2.820313E-2,2.0520546E-2,-7.313434E-2,-9.6959475E-4,5.4799415E-2,8.769175E-3,-4.148278E-3,3.1324964E-2],"categories":[],"categories_nodes":[],"categories_segments":[],"categories_sizes":[],"default_left":[0,0,0,0,0,0,0,0,0,0,0,0,0,0,0],"id":32,"left_children":[1,3,5,7,9,11,13,-1,-1,-1,-1,-1,-1,-1,-1],"loss_changes":[4.167045E0,9.996017E0,5.027133E0,9.768409E0,4.8870316E0,2.1287732E0,6.157305E0,0E0,0E0,0E0,0E0,0E0,0E0,0E0,0E0],"parents":[2147483647,0,0,1,1,2,2,3,3,4,4,5,5,6,6],"right_children":[2,4,6,8,10,12,14,-1,-1,-1,-1,-1,-1,-1,-1],"split_conditions":[-3.27307E-1,9.994782E-2,-1.0963897E0,-4.442976E-2,-5.9975855E-2,3.181581E-2,4.0417933E-1,-2.820313E-2,2.0520546E-2,-7.313434E-2,-9.6959475E-4,5.4799415E-2,8.769175E-3,-4.148278E-3,3.1324964E-2],"split_indices":[2,1,5,0,11,11,14,0,0,0,0,0,0,0,0],"split_type":[0,0,0,0,0,0,0,0,0,0,0,0,0,0,0],"sum_hessian":[1.3088998E2,5.2505585E1,7.838439E1,4.2266026E1,1.0239559E1,1.1668891E1,6.67155E1,1.522772E1,2.7038305E1,6.6012225E0,3.638337E0,6.9140916E0,4.7547994E0,5.1828854E1,1.4886649E1],"tree_param":{"num_deleted":"0","num_feature":"20","num_nodes":"15","size_leaf_vector":"1"}},{"base_weights":[4.8627917E-2,-2.1183342E-1,2.2412057E-1,-1.4173205E-2,-6.356147E-2,9.6835345E-1,1.0898445E-1,-2.6183385E-2,2.1487659E-2,7.199744E-2,9.367972E-3,1.7081125E-2,-1.4097074E-2],"categories":[],"categories_nodes":[],"categories_segments":[],"categories_sizes":[],"default_left":[0,0,0,0,0,0,0,0,0,0,0,0,0],"id":33,"left_children":[1,3,5,7,-1,9,11,-1,-1,-1,-1,-1,-1],"loss_changes":[6.1696076E0,1.1200855E1,6.703478E0,1.0810519E1,0E0,3.4610987E0,6.572838E0,0E0,0E0,0E0,0E0,0E0,0E0],"parents":[2147483647,0,0,1,1,2,2,3,3,5,5,6,6],"right_children":[2,4,6,8,-1,10,12,-1,-1,-1,-1,-1,-1],"split_conditions":[-3.27307E-1,2.7462104E-1,-1.1694665E0,-1.0808411E-1,-6.356147E-2,-1.353682E-1,8.519236E-1,-2.6183385E-2,2.1487659E-2,7.199744E-2,9.367972E-3,1.7081125E-2,-1.4097074E-2],"split_indices":[2,1,5,12,0,12,2,0,0,0,0,0,0],"split_type":[0,0,0,0,0,0,0,0,0,0,0,0,0],"sum_hessian":[1.3291006E2,5.3190018E1,7.9720055E1,4.5759975E1,7.4300427E0,9.571488E0,7.014857E1,2.1327747E1,2.4432228E1,5.3619494E0,4.2095394E0,4.421711E1,2.5931452E1],"tree_param":{"num_deleted":"0","num_feature":"20","num_nodes":"13","size_leaf_vector":"1"}},{"base_weights":[8.33411E-3,4.402704E-2,-4.236752E-2,-5.525727E-1,4.1490883E-2,1.3140052E-3,-6.656852E-2,-1.5887028E-2,1.2285389E-2],"categories":[],"categories_nodes":[],"categories_segments":[],"categories_sizes":[],"default_left":[0,0,0,0,0,0,0,0,0],"id":34,"left_children":[1,-1,3,5,7,-1,-1,-1,-1],"loss_changes":[5.7043724E0,0E0,5.2152467E0,7.9196815E0,7.6977324E0,0E0,0E0,0E0,0E0],"parents":[2147483647,0,0,2,2,3,3,4,4],"right_children":[2,-1,4,6,8,-1,-1,-1,-1],"split_conditions":[-1.5193554E0,4.402704E-2,-1.0135163E0,5.6877755E-2,-1.935926E-1,1.3140052E-3,-6.656852E-2,-1.5887028E-2,1.2285389E-2],"split_indices":[2,0,2,5,7,0,0,0,0],"split_type":[0,0,0,0,0,0,0,0,0],"sum_hessian":[1.2525415E2,6.090259E0,1.1916389E2,1.6200588E1,1.029633E2,9.773869E0,6.4267187E0,3.6939186E1,6.602412E1],"tree_param":{"num_deleted":"0","num_feature":"20","num_nodes":"9","size_leaf_vector":"1"}},{"base_weights":[3.5078492E-2,-5.148641E-2,8.925125E-2,1.5966114E-2,6.463465E-1,7.744033E-3,-1.9933563E-2,1.0844E-3,6.265774E-2],"categories":[],"categories_nodes":[],"categories_segments":[],"categories_sizes":[],"default_left":[0,0,0,0,0,0,0,0,0],"id":35,"left_children":[1,-1,3,5,7,-1,-1,-1,-1],"loss_changes":[7.8299847E0,0E0,5.239663E0,6.7338305E0,5.513659E0,0E0,0E0,0E0,0E0],"parents":[2147483647,0,0,2,2,3,3,4,4],"right_children":[2,-1,4,6,8,-1,-1,-1,-1],"split_conditions":[-1.1158354E0,-5.148641E-2,1.132712E0,1.2430168E-1,-1.0428005E-1,7.744033E-3,-1.9933563E-2,1.0844E-3,6.265774E-2],"split_indices":[15,0,0,1,12,0,0,0,0],"split_type":[0,0,0,0,0,0,0,0,0],"sum_hessian":[1.3477759E2,5.5637465E0,1.2921384E2,1.15259735E2,1.39541025E1,8.698506E1,2.827467E1,7.467487E0,6.4866157E0],"tree_param":{"num_deleted":"0","num_feature":"20","num_nodes":"9","size_leaf_vector":"1"}},{"base_weights":[4.5586962E-4,4.7235575E-1,-1.0757003E-1,-3.9794764E-1,8.6697626E-1,-3.1533647E-1,1.3698049E-1,-4.8291963E-2,9.485368E-3,6.261861E-2,1.6738825E-2,-5.3591203E-2,-5.542715E-3,3.6794607E-2,-8.088012E-3],"categories":[],"categories_nodes":[],"categories_segments":[],"categories_sizes":[],"default_left":[0,0,0,0,0,0,0,0,0,0,0,0,0,0,0],"id":36,"left_children":[1,3,5,7,9,11,13,-1,-1,-1,-1,-1,-1,-1,-1],"loss_changes":[6.7483516E0,8.874172E0,5.4960594E0,3.0345592E0,2.9881344E0,8.790207E0,9.052817E0,0E0,0E0,0E0,0E0,0E0,0E0,0E0,0E0],"parents":[2147483647,0,0,1,1,2,2,3,3,4,4,5,5,6,6],"right_children":[2,4,6,8,10,12,14,-1,-1,-1,-1,-1,-1,-1,-1],"split_conditions":[-2.7053827E-1,-2.3633888E-1,1.7294335E-1,6.4570713E-1,1.6693418E-1,-1.6804202E-1,6.534154E-1,-4.8291963E-2,9.485368E-3,6.261861E-2,1.6738825E-2,-5.3591203E-2,-5.542715E-3,3.6794607E-2,-8.088012E-3],"split_indices":[12,14,2,8,13,12,2,0,0,0,0,0,0,0,0],"split_type":[0,0,0,0,0,0,0,0,0,0,0,0,0,0,0],"sum_hessian":[1.2966693E2,2.369796E1,1.0596897E2,7.311407E0,1.638655E1,5.7357967E1,4.8611004E1,3.477489E0,3.833918E0,8.61027E0,7.7762823E0,1.1198417E1,4.615955E1,1.580226E1,3.2808743E1],"tree_param":{"num_deleted":"0","num_feature":"20","num_nodes":"15","size_leaf_vector":"1"}},{"base_weights":[1.2577809E-2,1.1174509E-1,-4.7482318E-1,7.638118E-1,2.5240367E-2,-8.496858E-1,1.4236553E-1,5.4989446E-2,4.7193384E-3,-4.814005E-2,5.017947E-3,-7.3891796E-2,4.32412E-3,4.3253914E-2,-1.8853921E-2],"categories":[],"categories_nodes":[],"categories_segments":[],"categories_sizes":[],"default_left":[0,0,0,0,0,0,0,0,0,0,0,0,0,0,0],"id":37,"left_children":[1,3,5,7,9,11,13,-1,-1,-1,-1,-1,-1,-1,-1],"loss_changes":[6.3517194E0,6.1002173E0,5.322932E0,2.6333594E0,7.297806E0,8.524565E0,3.8048072E0,0E0,0E0,0E0,0E0,0E0,0E0,0E0,0E0],"parents":[2147483647,0,0,1,1,2,2,3,3,4,4,5,5,6,6],"right_children":[2,4,6,8,10,12,14,-1,-1,-1,-1,-1,-1,-1,-1],"split_conditions":[7.6143396E-1,-1.054982E0,6.520344E-1,-1.1617895E-1,-1.1997585E0,-7.917827E-1,8.519236E-1,5.4989446E-2,4.7193384E-3,-4.814005E-2,5.017947E-3,-7.3891796E-2,4.32412E-3,4.3253914E-2,-1.8853921E-2],"split_indices":[15,5,2,12,9,5,2,0,0,0,0,0,0,0,0],"split_type":[0,0,0,0,0,0,0,0,0,0,0,0,0,0,0],"sum_hessian":[1.3006586E2,1.0888738E2,2.1178474E1,1.1700921E1,9.718646E1,1.3042288E1,8.136188E0,7.263288E0,4.437633E0,5.937795E0,9.1248665E1,7.5228343E0,5.519453E0,3.2046351E0,4.9315524E0],"tree_param":{"num_deleted":"0","num_feature":"20","num_nodes":"15","size_leaf_vector":"1"}},{"base_weights":[1.1892057E-1,2.4978419E-1,-1.5582664E-1,3.8475156E-1,-4.9722648E-1,-1.0192772E0,7.287057E-2,2.5634656E-2,-1.676813E-3,2.8628288E-2,-4.44156E-2,-3.277619E-3,-7.405033E-2,-4.8596516E-2,1.7204437E-2],"categories":[],"categories_nodes":[],"categories_segments":[],"categories_sizes":[],"default_left":[0,0,0,0,0,0,0,0,0,0,0,0,0,0,0],"id":38,"left_children":[1,3,5,7,9,11,13,-1,-1,-1,-1,-1,-1,-1,-1],"loss_changes":[4.805495E0,9.279654E0,8.671393E0,4.19228E0,6.453681E0,3.788391E0,1.0156345E1,0E0,0E0,0E0,0E0,0E0,0E0,0E0,0E0],"parents":[2147483647,0,0,1,1,2,2,3,3,4,4,5,5,6,6],"right_children":[2,4,6,8,10,12,14,-1,-1,-1,-1,-1,-1,-1,-1],"split_conditions":[1.2430168E-1,7.6143396E-1,3.1210104E-1,3.379917E-1,-5.833802E-1,-1.9844118E-1,-3.5603234E-1,2.5634656E-2,-1.676813E-3,2.8628288E-2,-4.44156E-2,-3.277619E-3,-7.405033E-2,-4.8596516E-2,1.7204437E-2],"split_indices":[1,15,1,0,16,2,2,0,0,0,0,0,0,0,0],"split_type":[0,0,0,0,0,0,0,0,0,0,0,0,0,0,0],"sum_hessian":[1.3131131E2,8.9253975E1,4.2057335E1,7.6119736E1,1.3134246E1,8.174549E0,3.3882786E1,5.8300697E1,1.7819036E1,3.3234353E0,9.81081E0,3.1097522E0,5.0647964E0,6.374463E0,2.7508322E1],"tree_param":{"num_deleted":"0","num_feature":"20","num_nodes":"15","size_leaf_vector":"1"}},{"base_weights":[-8.934085E-2,-1.6369842E-1,5.7634294E-1,-5.7729306E-3,-5.8963275E-1,-2.622159E-3,5.7261705E-2,-2.5066642E-2,1.013003E-2,-3.94025E-2,3.1309281E-3],"categories":[],"categories_nodes":[],"categories_segments":[],"categories_sizes":[],"default_left":[0,0,0,0,0,0,0,0,0,0,0],"id":39,"left_children":[1,3,5,7,9,-1,-1,-1,-1,-1,-1],"loss_changes":[6.0768604E0,7.3620043E0,4.574113E0,8.568587E0,3.9624395E0,0E0,0E0,0E0,0E0,0E0,0E0],"parents":[2147483647,0,0,1,1,2,2,3,3,4,4],"right_children":[2,4,6,8,10,-1,-1,-1,-1,-1,-1],"split_conditions":[1.5654112E0,2.0142807E-1,2.450939E-3,-9.234928E-1,4.471638E-2,-2.622159E-3,5.7261705E-2,-2.5066642E-2,1.013003E-2,-3.94025E-2,3.1309281E-3],"split_indices":[5,17,10,4,15,0,0,0,0,0,0],"split_type":[0,0,0,0,0,0,0,0,0,0,0],"sum_hessian":[1.2069587E2,1.09382095E2,1.1313781E1,8.070652E1,2.867557E1,5.721706E0,5.592075E0,2.3616074E1,5.7090446E1,2.194495E1,6.730621E0],"tree_param":{"num_deleted":"0","num_feature":"20","num_nodes":"11","size_leaf_vector":"1"}},{"base_weights":[3.8207262E-3,5.256902E-1,-1.2776451E-1,-1.3334155E-2,7.335602E-1,4.0492438E-2,-6.535413E-1,5.9170153E-2,5.7939E-3,5.943209E-3,-6.6161186E-2,-4.2759765E-2,1.6996076E-2],"categories":[],"categories_nodes":[],"categories_segments":[],"categories_sizes":[],"default_left":[0,0,0,0,0,0,0,0,0,0,0,0,0],"id":40,"left_children":[1,3,5,-1,7,9,11,-1,-1,-1,-1,-1,-1],"loss_changes":[8.94642E0,4.569158E0,9.239874E0,0E0,5.6170893E0,8.498364E0,5.4073324E0,0E0,0E0,0E0,0E0,0E0,0E0],"parents":[2147483647,0,0,1,1,2,2,4,4,5,5,6,6],"right_children":[2,4,6,-1,8,10,12,-1,-1,-1,-1,-1,-1],"split_conditions":[-2.7053827E-1,-7.9591495E-1,8.302348E-2,-1.3334155E-2,-6.393355E-2,1.6755315E0,1.399289E0,5.9170153E-2,5.7939E-3,5.943209E-3,-6.6161186E-2,-4.2759765E-2,1.6996076E-2],"split_indices":[12,9,10,0,17,5,1,0,0,0,0,0,0],"split_type":[0,0,0,0,0,0,0,0,0,0,0,0,0],"sum_hessian":[1.277232E2,2.5269358E1,1.02453835E2,5.092689E0,2.017667E1,7.8170746E1,2.428309E1,1.105084E1,9.125829E0,7.485505E1,3.3156962E0,2.0385134E1,3.8979576E0],"tree_param":{"num_deleted":"0","num_feature":"20","num_nodes":"13","size_leaf_vector":"1"}},{"base_weights":[2.7735066E-2,2.5379735E-1,-1.4890845E-1,4.831227E-1,-2.5560206E-1,-7.737319E-1,-1.7566243E-2,4.8687126E-2,3.1578795E-3,-5.2764308E-2,5.1657725E-3,-6.0403932E-2,9.05583E-3,3.9900847E-2,-5.458784E-3],"categories":[],"categories_nodes":[],"categories_segments":[],"categories_sizes":[],"default_left":[0,0,0,0,0,0,0,0,0,0,0,0,0,0,0],"id":41,"left_children":[1,3,5,7,9,11,13,-1,-1,-1,-1,-1,-1,-1,-1],"loss_changes":[5.285502E0,6.9388475E0,5.980568E0,8.19552E0,5.5340214E0,5.5881653E0,4.673466E0,0E0,0E0,0E0,0E0,0E0,0E0,0E0,0E0],"parents":[2147483647,0,0,1,1,2,2,3,3,4,4,5,5,6,6],"right_children":[2,4,6,8,10,12,14,-1,-1,-1,-1,-1,-1,-1,-1],"split_conditions":[-1.4073521E-1,-2.5949722E-2,-7.1436024E-1,-3.702588E-1,-4.740838E-1,8.4422016E-1,-6.360742E-1,4.8687126E-2,3.1578795E-3,-5.2764308E-2,5.1657725E-3,-6.0403932E-2,9.05583E-3,3.9900847E-2,-5.458784E-3],"split_indices":[13,12,1,1,1,13,1,0,0,0,0,0,0,0,0],"split_type":[0,0,0,0,0,0,0,0,0,0,0,0,0,0,0],"sum_hessian":[1.3015205E2,5.7146835E1,7.300522E1,3.9577446E1,1.7569387E1,1.169886E1,6.1306355E1,1.7535288E1,2.204216E1,4.9280024E0,1.2641384E1,7.9307857E0,3.7680748E0,5.3018875E0,5.6004467E1],"tree_param":{"num_deleted":"0","num_feature":"20","num_nodes":"15","size_leaf_vector":"1"}},{"base_weights":[8.832136E-2,-5.892376E-1,1.4976272E-1,-6.3521385E-2,2.0559411E-3,6.558179E-2,9.302931E-2,1.4270621E-2,-7.4624694E-3],"categories":[],"categories_nodes":[],"categories_segments":[],"categories_sizes":[],"default_left":[0,0,0,0,0,0,0,0,0],"id":42,"left_children":[1,3,5,-1,-1,-1,7,-1,-1],"loss_changes":[5.5126114E0,4.893471E0,7.7376184E0,0E0,0E0,0E0,5.503768E0,0E0,0E0],"parents":[2147483647,0,0,1,1,2,2,6,6],"right_children":[2,4,6,-1,-1,-1,8,-1,-1],"split_conditions":[-1.0600051E0,1.2253987E0,-1.0271E0,-6.3521385E-2,2.0559411E-3,6.558179E-2,-1.0945452E-3,1.4270621E-2,-7.4624694E-3],"split_indices":[15,5,15,0,0,0,13,0,0],"split_type":[0,0,0,0,0,0,0,0,0],"sum_hessian":[1.3035463E2,9.988319E0,1.2036632E2,4.388811E0,5.5995083E0,4.4919257E0,1.1587439E2,6.4718735E1,5.1155655E1],"tree_param":{"num_deleted":"0","num_feature":"20","num_nodes":"9","size_leaf_vector":"1"}},{"base_weights":[7.23691E-2,6.4226687E-1,-6.563668E-2,1.2174909E0,3.347481E-1,-9.130012E-1,7.5458502E-3,2.6609158E-2,7.5502716E-2,-3.095387E-2,2.8631303E-2,-6.154698E-2,-1.2930487E-2,-1.0644967E-2,1.4494737E-2],"categories":[],"categories_nodes":[],"categories_segments":[],"categories_sizes":[],"default_left":[0,0,0,0,0,0,0,0,0,0,0,0,0,0,0],"id":43,"left_children":[1,3,5,7,9,11,13,-1,-1,-1,-1,-1,-1,-1,-1],"loss_changes":[1.0316802E1,3.9584312E0,6.6302223E0,6.786146E-1,4.467449E0,1.299479E0,6.160146E0,0E0,0E0,0E0,0E0,0E0,0E0,0E0,0E0],"parents":[2147483647,0,0,1,1,2,2,3,3,4,4,5,5,6,6],"right_children":[2,4,6,8,10,12,14,-1,-1,-1,-1,-1,-1,-1,-1],"split_conditions":[-2.7053827E-1,-8.8047826E-1,-1.1997585E0,-1.3854275E0,-3.5433546E-1,-1.2175519E-1,1.7998406E-1,2.6609158E-2,7.5502716E-2,-3.095387E-2,2.8631303E-2,-6.154698E-2,-1.2930487E-2,-1.0644967E-2,1.4494737E-2],"split_indices":[12,4,9,4,11,3,2,0,0,0,0,0,0,0,0],"split_type":[0,0,0,0,0,0,0,0,0,0,0,0,0,0,0],"sum_hessian":[1.2890579E2,2.4559113E1,1.0434667E2,7.4114633E0,1.714765E1,7.491779E0,9.68549E1,3.163065E0,4.2483983E0,3.0190804E0,1.4128569E1,4.3462696E0,3.145509E0,5.4329044E1,4.252585E1],"tree_param":{"num_deleted":"0","num_feature":"20","num_nodes":"15","size_leaf_vector":"1"}},{"base_weights":[1.313846E-2,1.4974661E-1,-2.6614738E-1,-2.9624436E-2,5.880881E-1,-5.032256E-1,3.2193384E-1,3.10441E-2,-1.16276955E-2,6.396411E-2,1.35795465E-2,-6.868334E-2,-1.709315E-2,5.2245636E-2,-1.4299172E-2],"categories":[],"categories_nodes":[],"categories_segments":[],"categories_sizes":[],"default_left":[0,0,0,0,0,0,0,0,0,0,0,0,0,0,0],"id":44,"left_children":[1,3,5,7,9,11,13,-1,-1,-1,-1,-1,-1,-1,-1],"loss_changes":[4.6778564E0,6.5771437E0,5.777876E0,7.9585853E0,4.7980185E0,3.4497328E0,5.659492E0,0E0,0E0,0E0,0E0,0E0,0E0,0E0,0E0],"parents":[2147483647,0,0,1,1,2,2,3,3,4,4,5,5,6,6],"right_children":[2,4,6,8,10,12,14,-1,-1,-1,-1,-1,-1,-1,-1],"split_conditions":[2.1453649E-1,-1.611704E-1,1.132712E0,-3.1548214E-1,-7.277275E-1,-6.383207E-1,1.5361538E0,3.10441E-2,-1.16276955E-2,6.396411E-2,1.35795465E-2,-6.868334E-2,-1.709315E-2,5.2245636E-2,-1.4299172E-2],"split_indices":[16,16,0,10,8,10,0,0,0,0,0,0,0,0,0],"split_type":[0,0,0,0,0,0,0,0,0,0,0,0,0,0,0],"sum_hessian":[1.2086922E2,8.1719376E1,3.9149834E1,5.848952E1,2.3229856E1,2.8125639E1,1.1024197E1,1.3300701E1,4.518882E1,6.2413945E0,1.6988462E1,3.1266835E0,2.4998955E1,4.7823443E0,6.2418523E0],"tree_param":{"num_deleted":"0","num_feature":"20","num_nodes":"15","size_leaf_vector":"1"}},{"base_weights":[7.649714E-2,-5.967751E-1,1.4095794E-1,-5.2088898E-2,6.816495E-4,4.511492E-1,1.1998177E-2,3.6981057E-2,-1.0034207E-3,1.8838163E-2,-9.298905E-3],"categories":[],"categories_nodes":[],"categories_segments":[],"categories_sizes":[],"default_left":[0,0,0,0,0,0,0,0,0,0,0],"id":45,"left_children":[1,3,5,-1,-1,7,9,-1,-1,-1,-1],"loss_changes":[5.661872E0,3.2073936E0,4.7162876E0,0E0,0E0,4.8100753E0,6.2596726E0,0E0,0E0,0E0,0E0],"parents":[2147483647,0,0,1,1,2,2,5,5,6,6],"right_children":[2,4,6,-1,-1,8,10,-1,-1,-1,-1],"split_conditions":[-1.1997585E0,-3.415999E-1,-3.915076E-1,-5.2088898E-2,6.816495E-4,-1.5895662E-1,-1.9973385E-1,3.6981057E-2,-1.0034207E-3,1.8838163E-2,-9.298905E-3],"split_indices":[9,15,9,0,0,8,10,0,0,0,0],"split_type":[0,0,0,0,0,0,0,0,0,0,0],"sum_hessian":[1.2857088E2,1.0377016E1,1.1819387E2,5.687685E0,4.689331E0,3.3747078E1,8.444679E1,2.0710846E1,1.3036231E1,2.9568954E1,5.4877834E1],"tree_param":{"num_deleted":"0","num_feature":"20","num_nodes":"11","size_leaf_vector":"1"}},{"base_weights":[-5.0582425E-3,-8.0362236E-1,4.6275444E-2,-5.0497428E-3,-6.1857846E-2,-5.8784824E-2,4.3018162E-1,4.1454704E-4,-5.68838E-2,4.1623738E-2,-3.9368897E-4],"categories":[],"categories_nodes":[],"categories_segments":[],"categories_sizes":[],"default_left":[0,0,0,0,0,0,0,0,0,0,0],"id":46,"left_children":[1,3,5,-1,-1,7,9,-1,-1,-1,-1],"loss_changes":[5.532563E0,2.2261095E0,5.106134E0,0E0,0E0,7.2764244E0,4.8812118E0,0E0,0E0,0E0,0E0],"parents":[2147483647,0,0,1,1,2,2,5,5,6,6],"right_children":[2,4,6,-1,-1,8,10,-1,-1,-1,-1],"split_conditions":[-1.1242186E0,-1.5401073E-1,6.1202604E-1,-5.0497428E-3,-6.1857846E-2,4.2139256E-1,1.0504636E0,4.1454704E-4,-5.68838E-2,4.1623738E-2,-3.9368897E-4],"split_indices":[8,12,9,0,0,9,9,0,0,0,0],"split_type":[0,0,0,0,0,0,0,0,0,0,0],"sum_hessian":[1.3120816E2,7.1574607E0,1.24050705E2,3.2896152E0,3.8678455E0,9.785734E1,2.6193369E1,9.297652E1,4.8808174E0,1.330368E1,1.2889689E1],"tree_param":{"num_deleted":"0","num_feature":"20","num_nodes":"11","size_leaf_vector":"1"}},{"base_weights":[3.3336367E-2,-6.191605E-1,8.531641E-2,-5.9899338E-2,-1.9542768E-3,-5.5451453E-2,1.3044429E-1,2.2747633E-3,2.5083289E-2],"categories":[],"categories_nodes":[],"categories_segments":[],"categories_sizes":[],"default_left":[0,0,0,0,0,0,0,0,0],"id":47,"left_children":[1,3,5,-1,-1,-1,7,-1,-1],"loss_changes":[4.514677E0,3.1206005E0,6.7477E0,0E0,0E0,0E0,3.7310486E0,0E0,0E0],"parents":[2147483647,0,0,1,1,2,2,6,6],"right_children":[2,4,6,-1,-1,-1,8,-1,-1],"split_conditions":[-1.1242186E0,-1.5512285E-1,-1.27298E0,-5.9899338E-2,-1.9542768E-3,-5.5451453E-2,6.4429945E-1,2.2747633E-3,2.5083289E-2],"split_indices":[8,3,15,0,0,0,13,0,0],"split_type":[0,0,0,0,0,0,0,0,0],"sum_hessian":[1.3212679E2,8.801958E0,1.2332483E2,3.7862446E0,5.0157137E0,3.551093E0,1.19773735E2,9.860195E1,2.1171783E1],"tree_param":{"num_deleted":"0","num_feature":"20","num_nodes":"9","size_leaf_vector":"1"}},{"base_weights":[-4.547587E-2,-6.544204E-1,3.4753006E-2,-9.059747E-1,8.674235E-3,1.4235175E-1,-4.9602303E-1,-3.1765674E-3,-6.007133E-2,9.961355E-3,-4.4292554E-2,2.6595477E-2,-3.986679E-2],"categories":[],"categories_nodes":[],"categories_segments":[],"categories_sizes":[],"default_left":[0,0,0,0,0,0,0,0,0,0,0,0,0],"id":48,"left_children":[1,3,5,7,-1,9,11,-1,-1,-1,-1,-1,-1],"loss_changes":[6.1960483E0,3.3039336E0,6.3936033E0,2.6774788E0,0E0,5.5757613E0,6.2833967E0,0E0,0E0,0E0,0E0,0E0,0E0],"parents":[2147483647,0,0,1,1,2,2,3,3,5,5,6,6],"right_children":[2,4,6,8,-1,10,12,-1,-1,-1,-1,-1,-1],"split_conditions":[-7.35747E-1,6.7149717E-1,7.6143396E-1,-4.4578132E-1,8.674235E-3,1.0349531E0,-4.307141E-1,-3.1765674E-3,-6.007133E-2,9.961355E-3,-4.4292554E-2,2.6595477E-2,-3.986679E-2],"split_indices":[14,11,15,1,0,12,10,0,0,0,0,0,0],"split_type":[0,0,0,0,0,0,0,0,0,0,0,0,0],"sum_hessian":[1.2409153E2,1.37578335E1,1.103337E2,1.0572061E1,3.1857724E0,9.2501945E1,1.7831755E1,3.1483731E0,7.423688E0,8.850951E1,3.9924357E0,3.7933843E0,1.4038371E1],"tree_param":{"num_deleted":"0","num_feature":"20","num_nodes":"13","size_leaf_vector":"1"}},{"base_weights":[3.7310895E-2,2.3864764E-1,-1.3201788E-1,3.6117983E-1,-4.3669426E-1,-2.583815E-1,3.155087E-1,2.717931E-2,-8.602765E-3,-5.759383E-2,3.1643905E-2,-8.92523E-3,-5.3747095E-2,-5.570672E-3,3.9801754E-2],"categories":[],"categories_nodes":[],"categories_segments":[],"categories_sizes":[],"default_left":[0,0,0,0,0,0,0,0,0,0,0,0,0,0,0],"id":49,"left_children":[1,3,5,7,9,11,13,-1,-1,-1,-1,-1,-1,-1,-1],"loss_changes":[4.505198E0,5.150753E0,4.11818E0,5.171124E0,8.130167E0,3.3657532E0,3.4426663E0,0E0,0E0,0E0,0E0,0E0,0E0,0E0,0E0],"parents":[2147483647,0,0,1,1,2,2,3,3,4,4,5,5,6,6],"right_children":[2,4,6,8,10,12,14,-1,-1,-1,-1,-1,-1,-1,-1],"split_conditions":[-1.4073521E-1,8.040835E-1,3.7318987E-1,1.3859119E-1,1.1624095E0,2.0447549E-1,2.6356779E-2,2.717931E-2,-8.602765E-3,-5.759383E-2,3.1643905E-2,-8.92523E-3,-5.3747095E-2,-5.570672E-3,3.9801754E-2],"split_indices":[13,16,3,10,0,3,0,0,0,0,0,0,0,0,0],"split_type":[0,0,0,0,0,0,0,0,0,0,0,0,0,0,0],"sum_hessian":[1.2991093E2,5.9429157E1,7.048177E1,5.0821507E1,8.607652E0,5.546638E1,1.5015391E1,3.799313E1,1.2828375E1,5.16833E0,3.4393213E0,5.1745636E1,3.7207475E0,8.2477455E0,6.767646E0],"tree_param":{"num_deleted":"0","num_feature":"20","num_nodes":"15","size_leaf_vector":"1"}},{"base_weights":[-4.1637523E-3,6.5155216E-2,-5.504535E-1,-3.224361E-1,1.8978734E-1,-9.972445E-1,4.2452153E-2,2.5094256E-2,-3.316961E-2,1.734238E-2,-9.529808E-3,-8.802709E-3,-6.3239716E-2],"categories":[],"categories_nodes":[],"categories_segments":[],"categories_sizes":[],"default_left":[0,0,0,0,0,0,0,0,0,0,0,0,0],"id":50,"left_children":[1,3,5,7,9,11,-1,-1,-1,-1,-1,-1,-1],"loss_changes":[4.939186E0,5.5789094E0,1.0055766E1,8.228395E0,5.307079E0,2.1950226E0,0E0,0E0,0E0,0E0,0E0,0E0,0E0],"parents":[2147483647,0,0,1,1,2,2,3,3,4,4,5,5],"right_children":[2,4,6,8,10,12,-1,-1,-1,-1,-1,-1,-1],"split_conditions":[3.993555E-1,-7.224792E-1,2.0497913E0,-2.7053827E-1,9.875619E-2,-6.656374E-1,4.2452153E-2,2.5094256E-2,-3.316961E-2,1.734238E-2,-9.529808E-3,-8.802709E-3,-6.3239716E-2],"split_indices":[12,4,0,12,1,10,0,0,0,0,0,0,0],"split_type":[0,0,0,0,0,0,0,0,0,0,0,0,0],"sum_hessian":[1.2720219E2,1.1349804E2,1.3704144E1,2.7034487E1,8.6463554E1,1.0659853E1,3.0442908E0,7.686276E0,1.9348211E1,6.1444283E1,2.501927E1,3.1188774E0,7.540976E0],"tree_param":{"num_deleted":"0","num_feature":"20","num_nodes":"13","size_leaf_vector":"1"}},{"base_weights":[-7.0066676E-3,-6.42312E-2,3.3646245E-2,3.0154866E-1,-8.217436E-2,2.5494901E-2,-1.4982528E-2,-2.6478305E-2,5.796839E-3],"categories":[],"categories_nodes":[],"categories_segments":[],"categories_sizes":[],"default_left":[0,0,0,0,0,0,0,0,0],"id":51,"left_children":[1,-1,3,5,7,-1,-1,-1,-1],"loss_changes":[6.996825E0,0E0,4.0281935E0,5.084607E0,8.08962E0,0E0,0E0,0E0,0E0],"parents":[2147483647,0,0,2,2,3,3,4,4],"right_children":[2,-1,4,6,8,-1,-1,-1,-1],"split_conditions":[-9.6872145E-1,-6.42312E-2,-3.6538947E-1,4.1001794E-1,-3.5027772E-1,2.5494901E-2,-1.4982528E-2,-2.6478305E-2,5.796839E-3],"split_indices":[1,0,13,16,3,0,0,0,0],"split_type":[0,0,0,0,0,0,0,0,0],"sum_hessian":[1.3047197E2,3.1557217E0,1.27316246E2,3.820494E1,8.9111305E1,2.8608639E1,9.596304E0,2.6990564E1,6.212074E1],"tree_param":{"num_deleted":"0","num_feature":"20","num_nodes":"9","size_leaf_vector":"1"}},{"base_weights":[8.501123E-2,-6.5327364E-1,1.506557E-1,1.1123495E-2,-6.329832E-2,-3.6934275E-2,1.9346127E-1,2.9698743E-2,4.6560136E-3],"categories":[],"categories_nodes":[],"categories_segments":[],"categories_sizes":[],"default_left":[0,0,0,0,0,0,0,0,0],"id":52,"left_children":[1,3,5,-1,-1,-1,7,-1,-1],"loss_changes":[6.4011416E0,6.163021E0,4.70685E0,0E0,0E0,0E0,4.5638065E0,0E0,0E0],"parents":[2147483647,0,0,1,1,2,2,6,6],"right_children":[2,4,6,-1,-1,-1,8,-1,-1],"split_conditions":[-1.0600051E0,-1.780798E-1,-1.194565E0,1.1123495E-2,-6.329832E-2,-3.6934275E-2,-2.7053827E-1,2.9698743E-2,4.6560136E-3],"split_indices":[15,11,8,0,0,0,12,0,0],"split_type":[0,0,0,0,0,0,0,0,0],"sum_hessian":[1.3008582E2,9.76676E0,1.2031905E2,4.215327E0,5.5514326E0,4.671417E0,1.1564764E2,2.1983559E1,9.366408E1],"tree_param":{"num_deleted":"0","num_feature":"20","num_nodes":"9","size_leaf_vector":"1"}},{"base_weights":[8.23034E-2,-3.021658E-1,1.6790785E-1,1.6787608E-1,-5.7209575E-1,-4.2427516E-1,2.4314533E-1,3.0160457E-2,-2.4854913E-2,-4.134413E-2,1.6410766E-2,1.0921604E-2,-3.961974E-2,3.817231E-2,4.517061E-3],"categories":[],"categories_nodes":[],"categories_segments":[],"categories_sizes":[],"default_left":[0,0,0,0,0,0,0,0,0,0,0,0,0,0,0],"id":53,"left_children":[1,3,5,7,9,11,13,-1,-1,-1,-1,-1,-1,-1,-1],"loss_changes":[4.279865E0,3.1332242E0,4.8205423E0,2.9893293E0,3.8458633E0,3.1159568E0,7.4056826E0,0E0,0E0,0E0,0E0,0E0,0E0,0E0,0E0],"parents":[2147483647,0,0,1,1,2,2,3,3,4,4,5,5,6,6],"right_children":[2,4,6,8,10,12,14,-1,-1,-1,-1,-1,-1,-1,-1],"split_conditions":[-9.2896074E-1,-1.3854275E0,-9.3582195E-1,2.5402984E-1,3.5709533E-1,2.3243865E-1,-3.4096795E-1,3.0160457E-2,-2.4854913E-2,-4.134413E-2,1.6410766E-2,1.0921604E-2,-3.961974E-2,3.817231E-2,4.517061E-3],"split_indices":[7,4,13,13,14,7,13,0,0,0,0,0,0,0,0],"split_type":[0,0,0,0,0,0,0,0,0,0,0,0,0,0,0],"sum_hessian":[1.27904945E2,2.2619162E1,1.0528578E2,8.253885E0,1.4365275E1,1.1195939E1,9.408984E1,5.135281E0,3.118605E0,1.1346783E1,3.0184922E0,4.1264563E0,7.0694833E0,2.0303926E1,7.378591E1],"tree_param":{"num_deleted":"0","num_feature":"20","num_nodes":"15","size_leaf_vector":"1"}},{"base_weights":[2.5402186E-2,2.7560055E-1,-1.0928118E-1,5.2146208E-2,1.5523796E-1,2.1353172E-2,-6.4361686E-1,-4.3718267E-2,1.5596944E-2,2.4367906E-2,-8.969146E-3,-4.4758916E-2,6.9462694E-3],"categories":[],"categories_nodes":[],"categories_segments":[],"categories_sizes":[],"default_left":[0,0,0,0,0,0,0,0,0,0,0,0,0],"id":54,"left_children":[1,3,5,-1,7,9,11,-1,-1,-1,-1,-1,-1],"loss_changes":[4.4034047E0,3.946915E0,5.9743752E0,0E0,6.809671E0,6.546412E0,3.5038261E0,0E0,0E0,0E0,0E0,0E0,0E0],"parents":[2147483647,0,0,1,1,2,2,4,4,5,5,6,6],"right_children":[2,4,6,-1,8,10,12,-1,-1,-1,-1,-1,-1],"split_conditions":[-1.9973385E-1,-1.4030977E0,5.4146177E-1,5.2146208E-2,-7.296446E-1,-2.1618028E-1,4.4854414E-1,-4.3718267E-2,1.5596944E-2,2.4367906E-2,-8.969146E-3,-4.4758916E-2,6.9462694E-3],"split_indices":[10,2,15,0,1,6,3,0,0,0,0,0,0],"split_type":[0,0,0,0,0,0,0,0,0,0,0,0,0],"sum_hessian":[1.2828694E2,4.4785706E1,8.3501236E1,4.920616E0,3.986509E1,6.771835E1,1.5782888E1,4.576594E0,3.5288498E1,2.0108099E1,4.7610252E1,1.1931241E1,3.8516476E0],"tree_param":{"num_deleted":"0","num_feature":"20","num_nodes":"13","size_leaf_vector":"1"}},{"base_weights":[2.5327057E-2,4.6857643E-1,-7.0349894E-2,-1.5987027E-1,7.5203425E-1,-5.637415E-2,-1.6505806E-2,2.8605921E-2,-4.5907933E-2,1.7058188E-2,5.9067365E-2,-2.2285622E-2,5.098321E-3],"categories":[],"categories_nodes":[],"categories_segments":[],"categories_sizes":[],"default_left":[0,0,0,0,0,0,0,0,0,0,0,0,0],"id":55,"left_children":[1,3,5,7,9,-1,11,-1,-1,-1,-1,-1,-1],"loss_changes":[5.5122004E0,4.292065E0,5.9105043E0,4.940048E0,2.3014488E0,0E0,5.2732368E0,0E0,0E0,0E0,0E0,0E0,0E0],"parents":[2147483647,0,0,1,1,2,2,3,3,4,4,6,6],"right_children":[2,4,6,8,10,-1,12,-1,-1,-1,-1,-1,-1],"split_conditions":[-2.7053827E-1,-2.3633888E-1,-1.0986694E0,-7.9078054E-1,3.687983E-3,-5.637415E-2,-7.0898277E-1,2.8605921E-2,-4.5907933E-2,1.7058188E-2,5.9067365E-2,-2.2285622E-2,5.098321E-3],"split_indices":[12,14,15,4,11,0,7,0,0,0,0,0,0],"split_type":[0,0,0,0,0,0,0,0,0,0,0,0,0],"sum_hessian":[1.2726157E2,2.2086693E1,1.0517488E2,6.891328E0,1.5195365E1,4.040953E0,1.0113393E2,3.564293E0,3.327035E0,8.800511E0,6.394853E0,2.146207E1,7.967186E1],"tree_param":{"num_deleted":"0","num_feature":"20","num_nodes":"13","size_leaf_vector":"1"}},{"base_weights":[-4.2327367E-2,8.5169554E-2,-3.3197555E-1,-6.593379E-1,1.9829972E-1,-6.69489E-1,2.7040517E-1,-5.6670647E-2,5.0889067E-3,-2.778064E-2,1.5560378E-2,-4.600693E-2,8.502217E-3,-1.6282883E-2,4.0537413E-2],"categories":[],"categories_nodes":[],"categories_segments":[],"categories_sizes":[],"default_left":[0,0,0,0,0,0,0,0,0,0,0,0,0,0,0],"id":56,"left_children":[1,3,5,7,9,11,13,-1,-1,-1,-1,-1,-1,-1,-1],"loss_changes":[4.523994E0,7.212065E0,7.8345647E0,4.287583E0,6.4769354E0,5.364807E0,4.838832E0,0E0,0E0,0E0,0E0,0E0,0E0,0E0,0E0],"parents":[2147483647,0,0,1,1,2,2,3,3,4,4,5,5,6,6],"right_children":[2,4,6,8,10,12,14,-1,-1,-1,-1,-1,-1,-1,-1],"split_conditions":[1.2430168E-1,-1.1670668E0,9.999699E-1,-1.2678762E-1,-8.858804E-1,1.2955819E0,3.4646195E-1,-5.6670647E-2,5.0889067E-3,-2.778064E-2,1.5560378E-2,-4.600693E-2,8.502217E-3,-1.6282883E-2,4.0537413E-2],"split_indices":[1,9,0,10,17,9,9,0,0,0,0,0,0,0,0],"split_type":[0,0,0,0,0,0,0,0,0,0,0,0,0,0,0],"sum_hessian":[1.2007039E2,8.362234E1,3.644805E1,1.027707E1,7.334527E1,2.3394651E1,1.3053402E1,6.1122084E0,4.1648617E0,8.927514E0,6.4417755E1,1.8033657E1,5.360994E0,6.3076057E0,6.745796E0],"tree_param":{"num_deleted":"0","num_feature":"20","num_nodes":"15","size_leaf_vector":"1"}},{"base_weights":[2.9270036E-2,-4.4961877E-2,5.9315646E-1,2.3784356E-2,-8.957807E-1,1.0340239E0,1.0892132E-1,1.51366135E-2,-6.902577E-3,-1.4396282E-2,-6.5256596E-2,6.520339E-2,2.1795152E-2,-1.72887E-2,3.0691475E-2],"categories":[],"categories_nodes":[],"categories_segments":[],"categories_sizes":[],"default_left":[0,0,0,0,0,0,0,0,0,0,0,0,0,0,0],"id":57,"left_children":[1,3,5,7,9,11,13,-1,-1,-1,-1,-1,-1,-1,-1],"loss_changes":[5.440165E0,6.770564E0,3.0008574E0,4.8547864E0,1.6171837E0,4.9936867E-1,2.1746876E0,0E0,0E0,0E0,0E0,0E0,0E0,0E0,0E0],"parents":[2147483647,0,0,1,1,2,2,3,3,4,4,5,5,6,6],"right_children":[2,4,6,8,10,12,14,-1,-1,-1,-1,-1,-1,-1,-1],"split_conditions":[1.0769469E0,4.2131308E-1,1.5361538E0,-1.9973385E-1,1.5490042E-1,6.751022E-1,2.102023E0,1.51366135E-2,-6.902577E-3,-1.4396282E-2,-6.5256596E-2,6.520339E-2,2.1795152E-2,-1.72887E-2,3.0691475E-2],"split_indices":[0,12,0,10,4,2,0,0,0,0,0,0,0,0,0],"split_type":[0,0,0,0,0,0,0,0,0,0,0,0,0,0,0],"sum_hessian":[1.2701924E2,1.1289967E2,1.4119571E1,1.0524998E2,7.649696E0,6.688343E0,7.4312277E0,3.8550255E1,6.669972E1,3.8622348E0,3.787461E0,3.6795905E0,3.0087526E0,3.971663E0,3.4595644E0],"tree_param":{"num_deleted":"0","num_feature":"20","num_nodes":"15","size_leaf_vector":"1"}},{"base_weights":[6.4534925E-2,-2.796293E-3,6.281611E-1,1.1613345E-1,-4.6639538E-1,1.20938756E-1,5.2449495E-2,1.1795736E-2,-1.9036071E-2,4.088243E-3,-4.9067773E-2,3.0064745E-2,-2.0128865E-2],"categories":[],"categories_nodes":[],"categories_segments":[],"categories_sizes":[],"default_left":[0,0,0,0,0,0,0,0,0,0,0,0,0],"id":58,"left_children":[1,3,5,7,9,11,-1,-1,-1,-1,-1,-1,-1],"loss_changes":[4.8623853E0,6.3624325E0,2.670845E0,5.501701E0,6.8320546E0,2.1303835E0,0E0,0E0,0E0,0E0,0E0,0E0,0E0],"parents":[2147483647,0,0,1,1,2,2,3,3,4,4,5,5],"right_children":[2,4,6,8,10,12,-1,-1,-1,-1,-1,-1,-1],"split_conditions":[1.132712E0,3.7888363E-1,1.0418104E0,8.9876777E-1,-4.1132182E-1,-5.745953E-1,5.2449495E-2,1.1795736E-2,-1.9036071E-2,4.088243E-3,-4.9067773E-2,3.0064745E-2,-2.0128865E-2],"split_indices":[0,0,5,15,9,15,0,0,0,0,0,0,0],"split_type":[0,0,0,0,0,0,0,0,0,0,0,0,0],"sum_hessian":[1.2543314E2,1.1277819E2,1.2654954E1,9.017808E1,2.2600111E1,6.429965E0,6.2249885E0,7.324637E1,1.6931711E1,1.1260579E1,1.1339532E1,3.375341E0,3.0546238E0],"tree_param":{"num_deleted":"0","num_feature":"20","num_nodes":"13","size_leaf_vector":"1"}},{"base_weights":[-7.0932815E-3,-9.647373E-2,3.6227337E-1,-1.5430732E-1,4.0793516E-2,6.8823016E-1,-0E0,-6.125026E-4,-2.9035592E-2,8.2072767E-4,6.607655E-2,-2.6080579E-2,4.0075388E-2],"categories":[],"categories_nodes":[],"categories_segments":[],"categories_sizes":[],"default_left":[0,0,0,0,0,0,0,0,0,0,0,0,0],"id":59,"left_children":[1,3,5,7,-1,9,11,-1,-1,-1,-1,-1,-1],"loss_changes":[4.266241E0,5.5920863E0,2.964396E0,5.963372E0,0E0,5.468633E0,5.812743E0,0E0,0E0,0E0,0E0,0E0,0E0],"parents":[2147483647,0,0,1,1,2,2,3,3,5,5,6,6],"right_children":[2,4,6,8,-1,10,12,-1,-1,-1,-1,-1,-1],"split_conditions":[3.364453E-1,1.7763904E0,-9.511626E-2,1.2430168E-1,4.0793516E-2,-3.2179502E-1,1.4559168E0,-6.125026E-4,-2.9035592E-2,8.2072767E-4,6.607655E-2,-2.6080579E-2,4.0075388E-2],"split_indices":[14,1,17,1,0,16,5,0,0,0,0,0,0],"split_type":[0,0,0,0,0,0,0,0,0,0,0,0,0],"sum_hessian":[1.2797108E2,1.03850555E2,2.4120522E1,9.85443E1,5.3062587E0,1.2218876E1,1.1901646E1,7.4865875E1,2.3678423E1,6.5035877E0,5.7152886E0,7.419052E0,4.482594E0],"tree_param":{"num_deleted":"0","num_feature":"20","num_nodes":"13","size_leaf_vector":"1"}},{"base_weights":[-5.541582E-2,-1.3665977E-1,4.3995482E-1,-6.793034E-2,-6.045506E-2,4.3211646E-2,4.66619E-2,2.8767171E-3,-3.12884E-2,4.3651555E-2,-2.0870894E-2],"categories":[],"categories_nodes":[],"categories_segments":[],"categories_sizes":[],"default_left":[0,0,0,0,0,0,0,0,0,0,0],"id":60,"left_children":[1,3,5,7,-1,-1,9,-1,-1,-1,-1],"loss_changes":[5.1052904E0,7.8449783E0,2.8442242E0,7.360842E0,0E0,0E0,4.411273E0,0E0,0E0,0E0,0E0],"parents":[2147483647,0,0,1,1,2,2,3,3,6,6],"right_children":[2,4,6,8,-1,-1,10,-1,-1,-1,-1],"split_conditions":[9.999699E-1,7.414681E-1,8.959916E-1,7.6143396E-1,-6.045506E-2,4.3211646E-2,-1.018054E0,2.8767171E-3,-3.12884E-2,4.3651555E-2,-2.0870894E-2],"split_indices":[0,0,2,15,0,0,15,0,0,0,0],"split_type":[0,0,0,0,0,0,0,0,0,0,0],"sum_hessian":[1.2511221E2,1.08279655E2,1.6832561E1,1.02845215E2,5.434442E0,7.3989744E0,9.433586E0,8.4547104E1,1.8298105E1,3.1531549E0,6.2804317E0],"tree_param":{"num_deleted":"0","num_feature":"20","num_nodes":"11","size_leaf_vector":"1"}},{"base_weights":[-4.162239E-3,-1.8475224E-1,2.180199E-1,4.299678E-1,-2.7808297E-1,6.112391E-1,-7.3738724E-2,3.390764E-4,4.3985467E-2,-4.2253524E-2,-6.6902726E-3,-0E0,3.758985E-2,-3.6585554E-2,6.237766E-3],"categories":[],"categories_nodes":[],"categories_segments":[],"categories_sizes":[],"default_left":[0,0,0,0,0,0,0,0,0,0,0,0,0,0,0],"id":61,"left_children":[1,3,5,7,9,11,13,-1,-1,-1,-1,-1,-1,-1,-1],"loss_changes":[5.208713E0,4.2289944E0,6.753188E0,1.7568376E0,4.956098E0,2.1616144E0,4.5981784E0,0E0,0E0,0E0,0E0,0E0,0E0,0E0,0E0],"parents":[2147483647,0,0,1,1,2,2,3,3,4,4,5,5,6,6],"right_children":[2,4,6,8,10,12,14,-1,-1,-1,-1,-1,-1,-1,-1],"split_conditions":[2.1856561E-1,-7.4854565E-1,7.9318905E-1,-1.002884E0,-3.7051433E-1,-8.4629786E-1,-7.2071177E-1,3.390764E-4,4.3985467E-2,-4.2253524E-2,-6.6902726E-3,-0E0,3.758985E-2,-3.6585554E-2,6.237766E-3],"split_indices":[2,3,2,3,3,6,9,0,0,0,0,0,0,0,0],"split_type":[0,0,0,0,0,0,0,0,0,0,0,0,0,0,0],"sum_hessian":[1.2789485E2,7.089215E1,5.7002705E1,8.727876E0,6.2164272E1,2.3959244E1,3.3043457E1,5.134229E0,3.5936463E0,1.1483924E1,5.0680347E1,4.63592E0,1.9323324E1,7.1523094E0,2.589115E1],"tree_param":{"num_deleted":"0","num_feature":"20","num_nodes":"15","size_leaf_vector":"1"}},{"base_weights":[4.3917473E-2,5.557288E-1,-4.6809986E-2,-9.451079E-3,7.783744E-1,-4.9304556E-2,9.4884075E-3,5.364737E-2,-9.370644E-3,1.09055815E-2,-8.605751E-3],"categories":[],"categories_nodes":[],"categories_segments":[],"categories_sizes":[],"default_left":[0,0,0,0,0,0,0,0,0,0,0],"id":62,"left_children":[1,3,5,-1,7,-1,9,-1,-1,-1,-1],"loss_changes":[5.9622874E0,3.410962E0,5.840029E0,0E0,4.607848E0,0E0,3.9510915E0,0E0,0E0,0E0,0E0],"parents":[2147483647,0,0,1,1,2,2,4,4,6,6],"right_children":[2,4,6,-1,8,-1,10,-1,-1,-1,-1],"split_conditions":[-1.0505342E0,-3.5331038E-1,-9.380425E-1,-9.451079E-3,3.099504E-1,-4.9304556E-2,-1.6071671E-1,5.364737E-2,-9.370644E-3,1.09055815E-2,-8.605751E-3],"split_indices":[5,3,5,0,11,0,3,0,0,0,0],"split_type":[0,0,0,0,0,0,0,0,0,0,0],"sum_hessian":[1.2574358E2,1.8328106E1,1.07415474E2,4.14959E0,1.4178516E1,5.240692E0,1.0217478E2,1.08590145E1,3.3195016E0,4.7712738E1,5.4462048E1],"tree_param":{"num_deleted":"0","num_feature":"20","num_nodes":"11","size_leaf_vector":"1"}},{"base_weights":[-1.547015E-2,5.26316E-1,-1.1704341E-1,1.1546647E-2,9.437066E-1,-5.7310563E-2,-6.737072E-2,-3.4075126E-2,3.2905657E-2,7.910626E-3,6.122762E-2,-5.0101604E-2,-7.1528705E-4],"categories":[],"categories_nodes":[],"categories_segments":[],"categories_sizes":[],"default_left":[0,0,0,0,0,0,0,0,0,0,0,0,0],"id":63,"left_children":[1,3,5,7,9,-1,11,-1,-1,-1,-1,-1,-1],"loss_changes":[6.8798394E0,4.127367E0,5.217082E0,4.9015884E0,2.0421152E0,0E0,4.953644E0,0E0,0E0,0E0,0E0,0E0,0E0],"parents":[2147483647,0,0,1,1,2,2,3,3,4,4,6,6],"right_children":[2,4,6,8,10,-1,12,-1,-1,-1,-1,-1,-1],"split_conditions":[-1.0505342E0,-1.2510664E0,-1.1242186E0,2.1856561E-1,-8.0564374E-1,-5.7310563E-2,-9.509155E-1,-3.4075126E-2,3.2905657E-2,7.910626E-3,6.122762E-2,-5.0101604E-2,-7.1528705E-4],"split_indices":[5,5,8,2,0,0,5,0,0,0,0,0,0],"split_type":[0,0,0,0,0,0,0,0,0,0,0,0,0],"sum_hessian":[1.2364186E2,1.8704885E1,1.0493697E2,8.942865E0,9.762021E0,3.7224813E0,1.0121449E2,4.2155533E0,4.7273126E0,3.0765808E0,6.68544E0,4.3756833E0,9.683881E1],"tree_param":{"num_deleted":"0","num_feature":"20","num_nodes":"13","size_leaf_vector":"1"}},{"base_weights":[-1.3462718E-1,4.4907555E-1,-2.2815661E-1,-9.268858E-2,5.7928335E-2,5.58539E-1,-2.8605074E-1,1.6029855E-2,-4.434075E-2,-1.4987788E-2,6.1585825E-2,-1.6216785E-2,3.190755E-2],"categories":[],"categories_nodes":[],"categories_segments":[],"categories_sizes":[],"default_left":[0,0,0,0,0,0,0,0,0,0,0,0,0],"id":64,"left_children":[1,3,5,7,-1,9,11,-1,-1,-1,-1,-1,-1],"loss_changes":[6.9041877E0,6.921933E0,5.0760736E0,3.8662794E0,0E0,4.888541E0,3.780469E0,0E0,0E0,0E0,0E0,0E0,0E0],"parents":[2147483647,0,0,1,1,2,2,3,3,5,5,6,6],"right_children":[2,4,6,8,-1,10,12,-1,-1,-1,-1,-1,-1],"split_conditions":[-1.2426577E0,-1.8608093E-1,-1.3288573E0,-3.1319565E-1,5.7928335E-2,-5.6540933E-2,2.596819E0,1.6029855E-2,-4.434075E-2,-1.4987788E-2,6.1585825E-2,-1.6216785E-2,3.190755E-2],"split_indices":[2,8,5,8,0,7,16,0,0,0,0,0,0],"split_type":[0,0,0,0,0,0,0,0,0,0,0,0,0],"sum_hessian":[1.2399353E2,1.6451519E1,1.0754201E2,9.7414255E0,6.710094E0,6.6605186E0,1.0088149E2,6.716392E0,3.0250337E0,3.1062484E0,3.5542703E0,9.7595856E1,3.2856333E0],"tree_param":{"num_deleted":"0","num_feature":"20","num_nodes":"13","size_leaf_vector":"1"}},{"base_weights":[-5.8062512E-2,2.5288314E-1,-1.8071526E-1,4.8418698E-1,-1.9326812E-1,-5.3652215E-1,-5.5493638E-2,4.1366644E-2,6.265112E-3,3.0752003E-2,-3.8446095E-2,9.105979E-3,-3.967752E-2,3.8861826E-2,-7.997199E-3],"categories":[],"categories_nodes":[],"categories_segments":[],"categories_sizes":[],"default_left":[0,0,0,0,0,0,0,0,0,0,0,0,0,0,0],"id":65,"left_children":[1,3,5,7,9,11,13,-1,-1,-1,-1,-1,-1,-1,-1],"loss_changes":[4.800321E0,3.7866275E0,3.9366474E0,2.7339058E0,6.3927927E0,4.49047E0,5.990636E0,0E0,0E0,0E0,0E0,0E0,0E0,0E0,0E0],"parents":[2147483647,0,0,1,1,2,2,3,3,4,4,5,5,6,6],"right_children":[2,4,6,8,10,12,14,-1,-1,-1,-1,-1,-1,-1,-1],"split_conditions":[-5.727397E-1,8.519236E-1,-3.0468836E-1,-1.3965926E-1,-4.280761E-1,-2.2545643E-1,-2.4366842E-1,4.1366644E-2,6.265112E-3,3.0752003E-2,-3.8446095E-2,9.105979E-3,-3.967752E-2,3.8861826E-2,-7.997199E-3],"split_indices":[16,2,3,14,9,13,3,0,0,0,0,0,0,0,0],"split_type":[0,0,0,0,0,0,0,0,0,0,0,0,0,0,0],"sum_hessian":[1.23856995E2,3.4504673E1,8.9352325E1,2.2815191E1,1.1689482E1,2.2197317E1,6.715501E1,1.0853623E1,1.1961568E1,4.7614803E0,6.9280014E0,5.8218927E0,1.6375423E1,6.659952E0,6.0495056E1],"tree_param":{"num_deleted":"0","num_feature":"20","num_nodes":"15","size_leaf_vector":"1"}}]},"name":"gbtree"},"learner_model_param":{"base_score":"[4.9560896E-1]","boost_from_average":"1","num_class":"0","num_feature":"20","num_target":"1"},"objective":{"name":"binary:logistic","reg_loss_param":{"scale_pos_weight":"1.74000001"}}},"version":[3,2,0]}