{"learner":{"attributes":{"best_iteration":"8","best_score":"0.6888347659538041","scikit_learn":"{\"_estimator_type\": \"classifier\"}"},"feature_names":[],"feature_types":[],"gradient_booster":{"model":{"cats":{"enc":[],"feature_segments":[],"sorted_idx":[]},"gbtree_model_param":{"num_parallel_tree":"1","num_trees":"39"},"iteration_indptr":[0,1,2,3,4,5,6,7,8,9,10,11,12,13,14,15,16,17,18,19,20,21,22,23,24,25,26,27,28,29,30,31,32,33,34,35,36,37,38,39],"tree_info":[0,0,0,0,0,0,0,0,0,0,0,0,0,0,0,0,0,0,0,0,0,0,0,0,0,0,0,0,0,0,0,0,0,0,0,0,0,0,0],"trees":[{"base_weights":[6.3454315E-2,9.565245E-1,-3.463881E-2,7.2183445E-2,-3.0852912E-3,-2.1426624E-1,5.525605E-1,-2.7363315E-1,3.981011E-2,9.806214E-1,1.10704884E-1,9.1347937E-4,-5.8637094E-1,-0E0,6.578829E-2,-3.9024755E-1,6.879025E-1,-6.2683485E-2,7.133151E-3,-3.9090242E-2,3.714129E-2,2.6104867E-2,-5.4675132E-2,6.0356177E-2,8.415619E-4],"categories":[],"categories_nodes":[],"categories_segments":[],"categories_sizes":[],"default_left":[0,0,0,0,0,0,0,0,0,0,0,0,0,0,0,0,0,0,0,0,0,0,0,0,0],"id":0,"left_children":[1,3,5,-1,-1,7,9,11,-1,13,15,17,19,-1,-1,21,23,-1,-1,-1,-1,-1,-1,-1,-1],"loss_changes":[1.2115642E1,7.286806E0,1.2894588E1,0E0,0E0,5.7361393E0,4.9521933E0,7.9360757E0,0E0,4.951473E0,4.8366537E0,8.491063E0,1.1700843E1,0E0,0E0,6.293871E0,2.3433466E0,0E0,0E0,0E0,0E0,0E0,0E0,0E0,0E0],"parents":[2147483647,0,0,1,1,2,2,5,5,6,6,7,7,9,9,10,10,11,11,12,12,15,15,16,16],"right_children":[2,4,6,-1,-1,8,10,12,-1,14,16,18,20,-1,-1,22,24,-1,-1,-1,-1,-1,-1,-1,-1],"split_conditions":[-1.4458754E0,-6.731283E-1,5.415795E-1,7.2183445E-2,-3.0852912E-3,1.9388791E0,3.683398E-1,9.8441474E-2,3.981011E-2,-4.273803E-1,1.4736247E0,-9.437432E-1,1.2646849E0,-0E0,6.578829E-2,8.411782E-1,6.743431E-1,-6.2683485E-2,7.133151E-3,-3.9090242E-2,3.714129E-2,2.6104867E-2,-5.4675132E-2,6.0356177E-2,8.415619E-4],"split_indices":[4,17,8,0,0,7,17,4,0,5,8,13,2,0,0,8,7,0,0,0,0,0,0,0,0],"split_type":[0,0,0,0,0,0,0,0,0,0,0,0,0,0,0,0,0,0,0,0,0,0,0,0,0],"sum_hessian":[1.3376482E2,1.2674982E1,1.2108983E2,8.489988E0,4.184994E0,9.360236E1,2.7487461E1,8.937737E1,4.224994E0,1.2997481E1,1.448998E1,4.7614933E1,4.176244E1,3.3624952E0,9.634986E0,7.652489E0,6.83749E0,3.8224945E0,4.379244E1,3.6964947E1,4.797493E0,3.2574954E0,4.394994E0,3.1524956E0,3.6849947E0],"tree_param":{"num_deleted":"0","num_feature":"20","num_nodes":"25","size_leaf_vector":"1"}},{"base_weights":[-4.328962E-2,-1.8293333E-1,6.6350967E-1,-3.4750193E-1,3.427585E-1,-0E0,9.425625E-1,-5.0325596E-1,1.7899776E-1,-4.171146E-2,5.456883E-1,-3.039991E-2,3.3637192E-2,2.5938043E-1,6.609258E-2,3.4577172E-2,-5.74055E-1,8.0192643E-1,-5.497963E-1,7.1474E-1,-9.948467E-3,3.3772826E-2,-7.163521E-3,-3.3551626E-2,1.3635516E-2,-8.255321E-3,6.02534E-2,-5.360064E-2,1.6820532E-3,5.0191052E-2,-9.7634393E-4],"categories":[],"categories_nodes":[],"categories_segments":[],"categories_sizes":[],"default_left":[0,0,0,0,0,0,0,0,0,0,0,0,0,0,0,0,0,0,0,0,0,0,0,0,0,0,0,0,0,0,0],"id":1,"left_children":[1,3,5,7,9,11,13,15,17,-1,19,-1,-1,21,-1,-1,23,25,27,29,-1,-1,-1,-1,-1,-1,-1,-1,-1,-1,-1],"loss_changes":[1.3180519E1,9.882679E0,4.079398E0,7.31102E0,6.8107786E0,3.4638712E0,3.1886377E0,6.091877E0,9.6551E0,0E0,3.296462E0,0E0,0E0,1.4367471E0,0E0,0E0,5.6182404E0,4.9871187E0,3.2870889E0,4.5527067E0,0E0,0E0,0E0,0E0,0E0,0E0,0E0,0E0,0E0,0E0,0E0],"parents":[2147483647,0,0,1,1,2,2,3,3,4,4,5,5,6,6,7,7,8,8,10,10,13,13,16,16,17,17,18,18,19,19],"right_children":[2,4,6,8,10,12,14,16,18,-1,20,-1,-1,22,-1,-1,24,26,28,30,-1,-1,-1,-1,-1,-1,-1,-1,-1,-1,-1],"split_conditions":[6.5065205E-1,6.253807E-1,4.3427296E-2,5.415795E-1,-8.732559E-1,6.6898733E-1,-1.4965704E-1,-1.3420925E0,8.449745E-1,-4.171146E-2,-1.1969627E-1,-3.039991E-2,3.3637192E-2,4.0883455E-1,6.609258E-2,3.4577172E-2,1.1032623E0,-1.7200834E-1,5.713763E-1,2.3451112E-1,-9.948467E-3,3.3772826E-2,-7.163521E-3,-3.3551626E-2,1.3635516E-2,-8.255321E-3,6.02534E-2,-5.360064E-2,1.6820532E-3,5.0191052E-2,-9.7634393E-4],"split_indices":[3,15,16,8,1,2,13,8,17,0,17,0,0,4,0,0,4,4,2,10,0,0,0,0,0,0,0,0,0,0,0],"split_type":[0,0,0,0,0,0,0,0,0,0,0,0,0,0,0,0,0,0,0,0,0,0,0,0,0,0,0,0,0,0,0],"sum_hessian":[1.3277208E2,1.1184105E2,2.0931025E1,8.586921E1,2.5971844E1,6.4717155E0,1.4459309E1,6.6739624E1,1.9129587E1,3.1445076E0,2.2827337E1,3.4655466E0,3.0061688E0,6.0452724E0,8.414037E0,3.0059738E0,6.3733646E1,1.0481732E1,8.647854E0,1.8964968E1,3.8623693E0,3.0062873E0,3.038985E0,5.7688572E1,6.045074E0,3.038779E0,7.4429536E0,4.39279E0,4.255064E0,1.3637388E1,5.327579E0],"tree_param":{"num_deleted":"0","num_feature":"20","num_nodes":"31","size_leaf_vector":"1"}},{"base_weights":[4.2688694E-2,-9.609828E-2,8.274864E-1,5.793307E-2,-1.5957454E-1,-4.5436205E-5,1.1844292E0,5.191812E-2,-2.1447808E-1,1.1821319E-2,7.015975E-2,-4.2012495E-1,8.573094E-2,-5.8077645E-2,-6.796947E-3,1.1733425E-2,-4.3937605E-2],"categories":[],"categories_nodes":[],"categories_segments":[],"categories_sizes":[],"default_left":[0,0,0,0,0,0,0,0,0,0,0,0,0,0,0,0,0],"id":2,"left_children":[1,3,5,-1,7,-1,9,-1,11,-1,-1,13,15,-1,-1,-1,-1],"loss_changes":[1.4786602E1,8.932776E0,6.393117E0,0E0,7.1598577E0,0E0,2.1881638E0,0E0,6.6504393E0,0E0,0E0,1.2807547E1,6.2088356E0,0E0,0E0,0E0,0E0],"parents":[2147483647,0,0,1,1,2,2,4,4,6,6,8,8,11,11,12,12],"right_children":[2,4,6,-1,8,-1,10,-1,12,-1,-1,14,16,-1,-1,-1,-1],"split_conditions":[6.5065205E-1,-8.4312725E-1,-2.7568495E-1,5.793307E-2,-1.7306677E0,-4.5436205E-5,-3.5585146E-2,5.191812E-2,-1.2001387E-2,1.1821319E-2,7.015975E-2,-1.5870732E-1,1.6769675E0,-5.8077645E-2,-6.796947E-3,1.1733425E-2,-4.3937605E-2],"split_indices":[3,12,11,0,5,0,16,0,9,0,0,11,6,0,0,0,0],"split_type":[0,0,0,0,0,0,0,0,0,0,0,0,0,0,0,0,0],"sum_hessian":[1.3201234E2,1.1259572E2,1.941662E1,4.3633842E0,1.0823234E2,5.894232E0,1.3522388E1,3.7186532E0,1.0451368E2,3.1826591E0,1.0339729E1,6.238147E1,4.2132214E1,1.6137236E1,4.6244232E1,3.7421276E1,4.7109365E0],"tree_param":{"num_deleted":"0","num_feature":"20","num_nodes":"17","size_leaf_vector":"1"}},{"base_weights":[-5.7425885E-3,-1.472399E-1,7.131876E-1,5.1028825E-2,-2.1111293E-1,9.074859E-1,-0E0,1.2735209E-1,-4.331202E-1,-0E0,5.6109574E-2,-4.2081228E-1,3.4883943E-1,-6.885486E-1,-0E0,-4.240201E-2,3.2476235E-2,3.66746E-3,3.6821093E-2,-2.210073E-3,-5.116411E-2,1.1423668E-2,-5.8343627E-2],"categories":[],"categories_nodes":[],"categories_segments":[],"categories_sizes":[],"default_left":[0,0,0,0,0,0,0,0,0,0,0,0,0,0,0,0,0,0,0,0,0,0,0],"id":3,"left_children":[1,3,5,-1,7,9,-1,11,13,-1,-1,15,17,19,21,-1,-1,-1,-1,-1,-1,-1,-1],"loss_changes":[1.3871602E1,8.598915E0,3.3369465E0,0E0,8.4666815E0,3.1468124E0,0E0,5.478853E0,7.3871956E0,0E0,0E0,6.442028E0,3.156387E0,8.76664E0,7.40311E0,0E0,0E0,0E0,0E0,0E0,0E0,0E0,0E0],"parents":[2147483647,0,0,1,1,2,2,4,4,5,5,7,7,8,8,11,11,12,12,13,13,14,14],"right_children":[2,4,6,-1,8,10,-1,12,14,-1,-1,16,18,20,22,-1,-1,-1,-1,-1,-1,-1,-1],"split_conditions":[6.5065205E-1,-8.4312725E-1,8.41216E-1,5.1028825E-2,-3.407762E-1,-1.8053415E-1,-0E0,-7.785891E-1,6.0612723E-2,-0E0,5.6109574E-2,1.2752977E-1,8.555965E-3,-2.7785298E-1,4.1958025E-1,-4.240201E-2,3.2476235E-2,3.66746E-3,3.6821093E-2,-2.210073E-3,-5.116411E-2,1.1423668E-2,-5.8343627E-2],"split_indices":[3,12,9,0,16,16,0,7,9,0,0,3,11,8,3,0,0,0,0,0,0,0,0],"split_type":[0,0,0,0,0,0,0,0,0,0,0,0,0,0,0,0,0,0,0,0,0,0,0],"sum_hessian":[1.3599825E2,1.1464642E2,2.1351822E1,4.925034E0,1.0972139E2,1.6857134E1,4.494687E0,4.3095085E1,6.6626305E1,3.6805933E0,1.3176541E1,1.1752966E1,3.1342117E1,4.134013E1,2.5286177E1,8.748823E0,3.0041428E0,1.9467829E1,1.1874289E1,1.4827035E1,2.6513094E1,2.1720108E1,3.5660682E0],"tree_param":{"num_deleted":"0","num_feature":"20","num_nodes":"23","size_leaf_vector":"1"}},{"base_weights":[-3.5273205E-2,-1.6933613E-1,6.644425E-1,5.366448E-1,-2.627915E-1,9.709241E-1,1.5902364E-1,1.721538E-2,5.035008E-2,-7.041009E-2,-1.839678E-1,1.1776613E0,8.644629E-3,-2.8544134E-2,3.2084353E-2,2.8654892E-2,-2.5939984E-2,-2.5021583E-1,4.3051824E-2,7.5983405E-2,2.5136804E-2,3.259633E-2,-1.6410394E-2],"categories":[],"categories_nodes":[],"categories_segments":[],"categories_sizes":[],"default_left":[0,0,0,0,0,0,0,0,0,0,0,0,0,0,0,0,0,0,0,0,0,0,0],"id":4,"left_children":[1,3,5,7,9,11,13,15,-1,-1,17,19,-1,-1,-1,-1,-1,21,-1,-1,-1,-1,-1],"loss_changes":[1.2883341E1,7.7608724E0,2.9125805E0,2.9981444E0,8.6652775E0,1.5561962E0,3.8631823E0,2.632769E0,0E0,0E0,6.8739166E0,9.2643833E-1,0E0,0E0,0E0,0E0,0E0,6.7292705E0,0E0,0E0,0E0,0E0,0E0],"parents":[2147483647,0,0,1,1,2,2,3,3,4,4,5,5,6,6,7,7,10,10,11,11,17,17],"right_children":[2,4,6,8,10,12,14,16,-1,-1,18,20,-1,-1,-1,-1,-1,22,-1,-1,-1,-1,-1],"split_conditions":[6.5065205E-1,-1.3890574E0,6.923991E-1,3.7589073E-1,-9.595873E-1,2.2152849E-1,-2.409376E-1,-3.8321045E-1,5.035008E-2,-7.041009E-2,1.6808805E0,1.1499093E0,8.644629E-3,-2.8544134E-2,3.2084353E-2,2.8654892E-2,-2.5939984E-2,-1.2335051E0,4.3051824E-2,7.5983405E-2,2.5136804E-2,3.259633E-2,-1.6410394E-2],"split_indices":[3,4,4,2,4,11,11,3,0,0,8,3,0,0,0,0,0,7,0,0,0,0,0],"split_type":[0,0,0,0,0,0,0,0,0,0,0,0,0,0,0,0,0,0,0,0,0,0,0],"sum_hessian":[1.3672433E2,1.1573641E2,2.0987926E1,1.2600131E1,1.0313628E2,1.2122407E1,8.86552E0,6.783414E0,5.816717E0,5.3096113E0,9.782667E1,8.951745E0,3.170662E0,3.2087579E0,5.6567616E0,3.5707831E0,3.2126307E0,9.297985E1,4.846815E0,4.8154793E0,4.1362653E0,6.507022E0,8.647283E1],"tree_param":{"num_deleted":"0","num_feature":"20","num_nodes":"23","size_leaf_vector":"1"}},{"base_weights":[-1.7896032E-2,7.191655E-1,-9.4158344E-2,6.1722428E-2,-6.5864907E-3,-1.703448E-1,7.242155E-1,-5.68796E-2,-1.1256197E-1,5.585589E-2,8.587166E-3,-3.0401576E-1,1.6937077E-1,3.580719E-2,-1.916012E-2,-5.39681E-2,1.4716622E-2],"categories":[],"categories_nodes":[],"categories_segments":[],"categories_sizes":[],"default_left":[0,0,0,0,0,0,0,0,0,0,0,0,0,0,0,0,0],"id":5,"left_children":[1,3,5,-1,-1,7,9,-1,11,-1,-1,13,15,-1,-1,-1,-1],"loss_changes":[7.5724077E0,6.008531E0,7.767591E0,0E0,0E0,5.965929E0,1.7058506E0,0E0,6.062981E0,0E0,0E0,5.5768785E0,7.064851E0,0E0,0E0,0E0,0E0],"parents":[2147483647,0,0,1,1,2,2,5,5,6,6,8,8,11,11,12,12],"right_children":[2,4,6,-1,-1,8,10,-1,12,-1,-1,14,16,-1,-1,-1,-1],"split_conditions":[-1.4767792E0,-6.731283E-1,1.6013219E0,6.1722428E-2,-6.5864907E-3,-1.0893108E0,1.0538697E0,-5.68796E-2,-2.5929824E-1,5.585589E-2,8.587166E-3,-1.2247213E0,-9.026099E-1,3.580719E-2,-1.916012E-2,-5.39681E-2,1.4716622E-2],"split_indices":[4,17,8,0,0,4,1,0,15,0,0,10,13,0,0,0,0],"split_type":[0,0,0,0,0,0,0,0,0,0,0,0,0,0,0,0,0],"sum_hessian":[1.358474E2,1.1578578E1,1.2426882E2,7.1503143E0,4.428263E0,1.1474506E2,9.523753E0,5.1222744E0,1.09622795E2,4.651028E0,4.8727245E0,6.587465E1,4.3748142E1,3.8927076E0,6.198194E1,3.0665047E0,4.0681637E1],"tree_param":{"num_deleted":"0","num_feature":"20","num_nodes":"17","size_leaf_vector":"1"}},{"base_weights":[3.5306986E-2,-3.6097783E-1,2.8310633E-1,4.391474E-1,-5.031161E-1,6.630934E-2,6.225267E-1,-3.6393665E-3,4.039545E-2,-6.502221E-1,1.9585619E-2,-1.9451027E-1,7.466533E-1,1.4084871E-1,9.884806E-1,-6.98626E-2,-4.744716E-1,-0E0,-9.1015005E-1,5.980306E-6,1.1759118E0,4.857363E-2,-2.2660422E-1,-4.669635E-3,1.2824773E0,6.9351527E-3,-3.559637E-2,4.8596248E-2,-1.0593324E-2,-7.060745E-2,-9.791087E-3,7.620828E-2,2.2437926E-2,-3.244248E-2,9.640621E-4,7.207373E-2,2.7505388E-2],"categories":[],"categories_nodes":[],"categories_segments":[],"categories_sizes":[],"default_left":[0,0,0,0,0,0,0,0,0,0,0,0,0,0,0,0,0,0,0,0,0,0,0,0,0,0,0,0,0,0,0,0,0,0,0,0,0],"id":6,"left_children":[1,3,5,7,9,11,13,-1,-1,15,-1,17,19,21,23,-1,25,27,29,-1,31,-1,33,-1,35,-1,-1,-1,-1,-1,-1,-1,-1,-1,-1,-1,-1],"loss_changes":[1.3664937E1,6.2907505E0,6.091462E0,1.8350956E0,6.3823586E0,9.93383E0,5.32489E0,0E0,0E0,4.0450344E0,0E0,5.401678E0,4.6313887E0,5.2455425E0,6.2612686E0,0E0,5.2694E0,6.7647476E0,2.2292109E0,0E0,1.1603079E0,0E0,1.3920443E0,0E0,3.0813026E-1,0E0,0E0,0E0,0E0,0E0,0E0,0E0,0E0,0E0,0E0,0E0,0E0],"parents":[2147483647,0,0,1,1,2,2,3,3,4,4,5,5,6,6,9,9,11,11,12,12,13,13,14,14,16,16,17,17,18,18,20,20,22,22,24,24],"right_children":[2,4,6,8,10,12,14,-1,-1,16,-1,18,20,22,24,-1,26,28,30,-1,32,-1,34,-1,36,-1,-1,-1,-1,-1,-1,-1,-1,-1,-1,-1,-1],"split_conditions":[-4.3727177E-1,-4.4643104E-1,6.2614715E-1,-2.7885747E-1,6.006354E-1,5.084351E-1,-2.6234478E-2,-3.6393665E-3,4.039545E-2,-2.245825E-1,1.9585619E-2,3.8705182E-1,-1.7696606E-1,-6.583722E-1,-2.0352776E-1,-6.98626E-2,-9.794104E-1,-3.2444492E-1,5.0813403E-2,5.980306E-6,1.9785924E-1,4.857363E-2,-2.5323096E-1,-4.669635E-3,1.2365065E0,6.9351527E-3,-3.559637E-2,4.8596248E-2,-1.0593324E-2,-7.060745E-2,-9.791087E-3,7.620828E-2,2.2437926E-2,-3.244248E-2,9.640621E-4,7.207373E-2,2.7505388E-2],"split_indices":[1,3,2,9,3,15,3,0,0,3,0,13,13,11,14,0,2,1,1,0,14,0,9,0,1,0,0,0,0,0,0,0,0,0,0,0,0],"split_type":[0,0,0,0,0,0,0,0,0,0,0,0,0,0,0,0,0,0,0,0,0,0,0,0,0,0,0,0,0,0,0,0,0,0,0,0,0],"sum_hessian":[1.373526E2,5.220235E1,8.5150246E1,7.241013E0,4.4961338E1,5.3230015E1,3.1920235E1,3.0273561E0,4.213657E0,3.9136135E1,5.8252006E0,3.8676117E1,1.4553897E1,1.4732972E1,1.7187262E1,5.8049517E0,3.3331184E1,3.1343164E1,7.3329525E0,5.9336686E0,8.620228E0,4.26488E0,1.0468092E1,3.6003413E0,1.3586921E1,9.067906E0,2.4263279E1,4.855021E0,2.6488144E1,3.4861624E0,3.8467898E0,4.808612E0,3.8116162E0,3.6983585E0,6.7697334E0,1.003127E1,3.5556505E0],"tree_param":{"num_deleted":"0","num_feature":"20","num_nodes":"37","size_leaf_vector":"1"}},{"base_weights":[1.4701029E-2,-1.007345E-1,7.6430374E-1,-3.9421907E-1,1.0276448E-1,6.58576E-2,2.7150694E-1,2.9697016E-1,-5.267098E-1,7.731403E-1,-1.4574941E-2,-1.6781347E-2,3.92579E-2,-1.4758654E-2,4.3731622E-2,2.8925633E-1,-6.802515E-1,1.7492531E-3,5.1345058E-2,4.345318E-1,-2.5696567E-1,-6.3838856E-3,3.5579856E-2,-2.5313947E-2,-6.689849E-2,-2.291092E-3,3.4215383E-2,2.3861103E-2,-2.1411067E-2],"categories":[],"categories_nodes":[],"categories_segments":[],"categories_sizes":[],"default_left":[0,0,0,0,0,0,0,0,0,0,0,0,0,0,0,0,0,0,0,0,0,0,0,0,0,0,0,0,0],"id":7,"left_children":[1,3,5,7,9,-1,11,13,15,17,19,-1,-1,-1,-1,21,23,-1,-1,25,27,-1,-1,-1,-1,-1,-1,-1,-1],"loss_changes":[1.1996884E1,7.1702104E0,4.2165318E0,4.721031E0,5.7310967E0,0E0,3.9374044E0,3.2272613E0,5.5660696E0,1.6685224E0,6.592274E0,0E0,0E0,0E0,0E0,1.504142E0,2.8759747E0,0E0,0E0,2.7397444E0,5.224577E0,0E0,0E0,0E0,0E0,0E0,0E0,0E0,0E0],"parents":[2147483647,0,0,1,1,2,2,3,3,4,4,6,6,7,7,8,8,9,9,10,10,15,15,16,16,19,19,20,20],"right_children":[2,4,6,8,10,-1,12,14,16,18,20,-1,-1,-1,-1,22,24,-1,-1,26,28,-1,-1,-1,-1,-1,-1,-1,-1],"split_conditions":[7.60016E-1,-4.3727177E-1,2.0552926E-1,-4.4643104E-1,-3.2444492E-1,6.58576E-2,-4.7278646E-1,4.2936858E-2,-1.0354645E0,-1.606291E-1,-6.96539E-1,-1.6781347E-2,3.92579E-2,-1.4758654E-2,4.3731622E-2,-8.4126496E-1,1.3121648E-1,1.7492531E-3,5.1345058E-2,3.7912345E-1,-1.3890574E0,-6.3838856E-3,3.5579856E-2,-2.5313947E-2,-6.689849E-2,-2.291092E-3,3.4215383E-2,2.3861103E-2,-2.1411067E-2],"split_indices":[3,1,4,3,1,0,15,0,7,14,16,0,0,0,0,1,14,0,0,1,4,0,0,0,0,0,0,0,0],"split_type":[0,0,0,0,0,0,0,0,0,0,0,0,0,0,0,0,0,0,0,0,0,0,0,0,0,0,0,0,0],"sum_hessian":[1.3445262E2,1.169138E2,1.7538809E1,4.8092377E1,6.882143E1,7.1905036E0,1.0348306E1,7.171857E0,4.092052E1,9.800072E0,5.9021355E1,4.633754E0,5.7145514E0,3.5265694E0,3.6452875E0,6.0311966E0,3.4889324E1,3.100686E0,6.6993856E0,1.9977062E1,3.9044292E1,3.0286665E0,3.00253E0,2.9351463E1,5.537862E0,6.702566E0,1.3274497E1,6.7155924E0,3.23287E1],"tree_param":{"num_deleted":"0","num_feature":"20","num_nodes":"29","size_leaf_vector":"1"}},{"base_weights":[2.5714017E-2,4.9020346E-2,-4.312698E-2,5.1417166E-1,-1.4390664E-1,-7.457157E-3,6.93923E-1,-2.5080568E-1,4.7212258E-1,2.4180269E-1,5.8072507E-2,-4.6772164E-1,5.0793067E-2,9.08148E-1,-1.9285187E-2,-2.1044591E-2,3.7081335E-2,-1.3365521E-2,-4.7410037E-2,8.524532E-3,-4.169564E-2,8.118617E-3,5.7145726E-2],"categories":[],"categories_nodes":[],"categories_segments":[],"categories_sizes":[],"default_left":[0,0,0,0,0,0,0,0,0,0,0,0,0,0,0,0,0,0,0,0,0,0,0],"id":8,"left_children":[1,-1,3,5,7,-1,9,11,13,15,-1,17,19,21,-1,-1,-1,-1,-1,-1,-1,-1,-1],"loss_changes":[9.274932E0,0E0,7.135441E0,2.570485E0,7.2554054E0,0E0,2.623909E0,6.3167295E0,6.5315037E0,3.5841005E0,0E0,4.727601E0,4.1540756E0,1.3853121E0,0E0,0E0,0E0,0E0,0E0,0E0,0E0,0E0,0E0],"parents":[2147483647,0,0,2,2,3,3,4,4,6,6,7,7,8,8,9,9,11,11,12,12,13,13],"right_children":[2,-1,4,6,8,-1,10,12,14,16,-1,18,20,22,-1,-1,-1,-1,-1,-1,-1,-1,-1],"split_conditions":[-8.4312725E-1,4.9020346E-2,-9.011388E-1,-3.3840808E-1,6.1311305E-1,-7.457157E-3,-4.3736994E-2,-4.6758335E-2,9.55406E-1,-7.2275084E-1,5.8072507E-2,1.9396913E-1,4.2292354E-1,-1.56093575E-2,-1.9285187E-2,-2.1044591E-2,3.7081335E-2,-1.3365521E-2,-4.7410037E-2,8.524532E-3,-4.169564E-2,8.118617E-3,5.7145726E-2],"split_indices":[12,0,17,12,3,0,3,9,7,9,0,4,3,16,0,0,0,0,0,0,0,0,0],"split_type":[0,0,0,0,0,0,0,0,0,0,0,0,0,0,0,0,0,0,0,0,0,0,0],"sum_hessian":[1.3520195E2,8.495928E0,1.2670602E2,1.8320004E1,1.0838601E2,3.5864964E0,1.4733508E1,9.3279205E1,1.5106807E1,8.5876875E0,6.1458206E0,5.4514885E1,3.876432E1,1.0208817E1,4.89799E0,3.5021071E0,5.0855803E0,4.0007988E1,1.4506895E1,3.5154434E1,3.6098838E0,3.1552215E0,7.053595E0],"tree_param":{"num_deleted":"0","num_feature":"20","num_nodes":"23","size_leaf_vector":"1"}},{"base_weights":[3.8238604E-2,-5.4248728E-2,5.4691696E-1,2.4464701E-1,-1.8916497E-1,1.0191966E0,1.1468237E-1,6.55359E-2,5.396995E-2,4.7540548E-1,-2.6563036E-1,6.269049E-2,1.6975237E-2,-3.380252E-1,4.7103774E-2,-3.9280394E-1,5.3480214E-1,4.3747127E-2,-4.424268E-3,-8.386805E-1,-1.02758326E-1,-5.290246E-2,1.9997148E-2,3.3688262E-2,-3.7686713E-2,2.0219833E-3,4.442709E-2,-5.446514E-2,-5.239292E-3,3.6893606E-2,-9.079873E-3],"categories":[],"categories_nodes":[],"categories_segments":[],"categories_sizes":[],"default_left":[0,0,0,0,0,0,0,0,0,0,0,0,0,0,0,0,0,0,0,0,0,0,0,0,0,0,0,0,0,0,0],"id":9,"left_children":[1,3,5,7,9,11,13,15,-1,17,19,-1,-1,21,-1,23,25,-1,-1,27,29,-1,-1,-1,-1,-1,-1,-1,-1,-1,-1],"loss_changes":[6.539732E0,4.6606374E0,3.9103475E0,4.887489E0,4.147976E0,6.5353966E-1,5.230197E0,6.8247423E0,0E0,2.1715417E0,6.457071E0,0E0,0E0,5.224545E0,0E0,6.579909E0,2.456254E0,0E0,0E0,2.403942E0,3.84377E0,0E0,0E0,0E0,0E0,0E0,0E0,0E0,0E0,0E0,0E0],"parents":[2147483647,0,0,1,1,2,2,3,3,4,4,5,5,6,6,7,7,9,9,10,10,13,13,15,15,16,16,19,19,20,20],"right_children":[2,4,6,8,10,12,14,16,-1,18,20,-1,-1,22,-1,24,26,-1,-1,28,30,-1,-1,-1,-1,-1,-1,-1,-1,-1,-1],"split_conditions":[6.5065205E-1,-5.33915E-1,2.0552926E-1,-1.4326264E-1,-8.115143E-1,3.258979E-1,1.9915327E0,-1.8198149E-1,5.396995E-2,-1.2791461E0,-1.7309454E-1,6.269049E-2,1.6975237E-2,-5.860281E-1,4.7103774E-2,-1.8745302E0,-2.0615375E-1,4.3747127E-2,-4.424268E-3,1.9687985E-1,-1.319883E0,-5.290246E-2,1.9997148E-2,3.3688262E-2,-3.7686713E-2,2.0219833E-3,4.442709E-2,-5.446514E-2,-5.239292E-3,3.6893606E-2,-9.079873E-3],"split_indices":[3,16,4,0,11,2,16,3,0,4,11,0,0,15,0,0,15,0,0,13,6,0,0,0,0,0,0,0,0,0,0],"split_type":[0,0,0,0,0,0,0,0,0,0,0,0,0,0,0,0,0,0,0,0,0,0,0,0,0,0,0,0,0,0,0],"sum_hessian":[1.3423404E2,1.1383946E2,2.0394573E1,3.445977E1,7.937969E1,8.765233E0,1.162934E1,2.9555914E1,4.903857E0,7.247774E0,7.213192E1,5.560005E0,3.2052276E0,7.6645565E0,3.964784E0,1.4711044E1,1.4844869E1,4.2306247E0,3.0171492E0,1.4638049E1,5.749387E1,3.865671E0,3.7988856E0,3.2902474E0,1.1420797E1,7.010238E0,7.834631E0,1.0246017E1,4.3920317E0,3.8867345E0,5.3607136E1],"tree_param":{"num_deleted":"0","num_feature":"20","num_nodes":"31","size_leaf_vector":"1"}},{"base_weights":[-3.6393045E-3,-2.8728878E-1,1.8658797E-1,3.52363E-2,-3.6934564E-1,3.086373E-1,-1.9369803E-1,-8.178776E-2,-6.8635255E-1,-7.34404E-2,4.3486714E-1,-4.7140983E-1,3.0196467E-1,-3.2546172E-1,5.043334E-1,1.0309402E-2,-8.577897E-1,3.2488428E-2,-5.0129175E-1,6.4266145E-1,3.400561E-2,-8.5140264E-1,1.7703511E-3,4.3731935E-2,-1.2034553E-2,-3.59588E-2,1.4882268E-2,4.931981E-2,-0E0,-6.7750536E-2,-1.6611194E-2,-2.9412452E-3,-5.7032306E-2,4.1810255E-2,-3.887257E-3,-7.814009E-3,4.0038835E-2,-6.916596E-3,-5.9489E-2],"categories":[],"categories_nodes":[],"categories_segments":[],"categories_sizes":[],"default_left":[0,0,0,0,0,0,0,0,0,0,0,0,0,0,0,0,0,0,0,0,0,0,0,0,0,0,0,0,0,0,0,0,0,0,0,0,0,0,0],"id":10,"left_children":[1,3,5,-1,7,9,11,13,15,17,19,21,23,25,27,-1,29,-1,31,33,35,37,-1,-1,-1,-1,-1,-1,-1,-1,-1,-1,-1,-1,-1,-1,-1,-1,-1],"loss_changes":[7.391307E0,4.6686735E0,3.8555133E0,0E0,4.462347E0,3.146573E0,2.905795E0,4.244924E0,4.0672646E0,5.15286E0,3.7389832E0,2.8572187E0,2.6686726E0,5.5945883E0,1.7785797E0,0E0,4.461499E0,0E0,2.6048846E0,4.58589E0,2.914867E0,1.3772125E0,0E0,0E0,0E0,0E0,0E0,0E0,0E0,0E0,0E0,0E0,0E0,0E0,0E0,0E0,0E0,0E0,0E0],"parents":[2147483647,0,0,1,1,2,2,4,4,5,5,6,6,7,7,8,8,9,9,10,10,11,11,12,12,13,13,14,14,16,16,18,18,19,19,20,20,21,21],"right_children":[2,4,6,-1,8,10,12,14,16,18,20,22,24,26,28,-1,30,-1,32,34,36,38,-1,-1,-1,-1,-1,-1,-1,-1,-1,-1,-1,-1,-1,-1,-1,-1,-1],"split_conditions":[-4.3727177E-1,-1.3068011E0,9.0542966E-1,3.52363E-2,1.3852692E-1,-7.871149E-1,1.3137758E0,4.044142E-3,-7.5510484E-1,-1.2791461E0,1.918102E-1,1.3442137E0,1.7773103E0,2.4340356E-2,-5.982161E-1,1.0309402E-2,-1.3848157E-1,3.2488428E-2,7.013232E-1,3.5599425E-1,1.194657E0,-1.7046943E-1,1.7703511E-3,4.3731935E-2,-1.2034553E-2,-3.59588E-2,1.4882268E-2,4.931981E-2,-0E0,-6.7750536E-2,-1.6611194E-2,-2.9412452E-3,-5.7032306E-2,4.1810255E-2,-3.887257E-3,-7.814009E-3,4.0038835E-2,-6.916596E-3,-5.9489E-2],"split_indices":[1,8,17,0,4,7,0,7,14,4,4,4,0,12,8,0,14,0,1,7,0,8,0,0,0,0,0,0,0,0,0,0,0,0,0,0,0,0,0],"split_type":[0,0,0,0,0,0,0,0,0,0,0,0,0,0,0,0,0,0,0,0,0,0,0,0,0,0,0,0,0,0,0,0,0,0,0,0,0,0,0],"sum_hessian":[1.344296E2,5.4392025E1,8.0037575E1,3.2963996E0,5.1095627E1,6.1331184E1,1.8706396E1,2.7948141E1,2.3147486E1,1.4744254E1,4.658693E1,1.2408368E1,6.2980275E0,2.0416674E1,7.531467E0,3.4150975E0,1.9732388E1,5.0270452E0,9.71721E0,2.9792053E1,1.6794874E1,7.0411777E0,5.367191E0,3.0355844E0,3.262443E0,1.2711874E1,7.7047997E0,3.0582411E0,4.473226E0,9.0353365E0,1.0697052E1,6.665537E0,3.0516722E0,2.368465E1,6.1074023E0,1.3780074E1,3.0148E0,3.004698E0,4.0364795E0],"tree_param":{"num_deleted":"0","num_feature":"20","num_nodes":"39","size_leaf_vector":"1"}},{"base_weights":[-4.0723905E-2,-1.6645926E-1,6.0706836E-1,3.8093917E-2,-2.183502E-1,-1.0574467E-2,8.0200064E-1,-3.3958775E-1,2.1573237E-1,4.0096024E-1,1.032515E0,3.4922317E-2,-3.9474165E-1,-0E0,4.410129E-2,3.8039096E-2,-2.5858749E-3,1.7585246E-2,6.904408E-2,-2.7554793E-2,-5.0967108E-3,-1.1790361E-2,4.2966492E-2],"categories":[],"categories_nodes":[],"categories_segments":[],"categories_sizes":[],"default_left":[0,0,0,0,0,0,0,0,0,0,0,0,0,0,0,0,0,0,0,0,0,0,0],"id":11,"left_children":[1,3,5,-1,7,-1,9,11,13,15,17,-1,19,21,-1,-1,-1,-1,-1,-1,-1,-1,-1],"loss_changes":[1.0620171E1,5.3353243E0,3.7109733E0,0E0,5.684172E0,0E0,7.7683544E-1,4.977517E0,3.4570985E0,1.6381139E0,1.3719301E0,0E0,3.4290524E0,3.836416E0,0E0,0E0,0E0,0E0,0E0,0E0,0E0,0E0,0E0],"parents":[2147483647,0,0,1,1,2,2,4,4,6,6,7,7,8,8,9,9,10,10,12,12,13,13],"right_children":[2,4,6,-1,8,-1,10,12,14,16,18,-1,20,22,-1,-1,-1,-1,-1,-1,-1,-1,-1],"split_conditions":[6.5065205E-1,-8.4312725E-1,-6.3641137E-1,3.8093917E-2,7.5749594E-1,-1.0574467E-2,-1.4965704E-1,-1.591342E0,-9.792893E-1,7.6983356E-1,2.77351E-1,3.4922317E-2,5.132104E-1,8.324127E-2,4.410129E-2,3.8039096E-2,-2.5858749E-3,1.7585246E-2,6.904408E-2,-2.7554793E-2,-5.0967108E-3,-1.1790361E-2,4.2966492E-2],"split_indices":[3,12,11,0,15,0,13,0,6,6,17,0,6,3,0,0,0,0,0,0,0,0,0],"split_type":[0,0,0,0,0,0,0,0,0,0,0,0,0,0,0,0,0,0,0,0,0,0,0],"sum_hessian":[1.297704E2,1.0968657E2,2.0083826E1,4.7761827E0,1.04910385E2,3.5505326E0,1.6533295E1,8.2716736E1,2.2193655E1,7.5094633E0,9.023831E0,3.3103733E0,7.940636E1,1.7362394E1,4.8312593E0,4.1738653E0,3.3355985E0,4.0262012E0,4.9976296E0,5.052187E1,2.888449E1,1.43208065E1,3.0415888E0],"tree_param":{"num_deleted":"0","num_feature":"20","num_nodes":"23","size_leaf_vector":"1"}},{"base_weights":[1.5783263E-2,-4.9839962E-1,1.1345768E-1,-6.36922E-2,-1.2314032E-1,5.1906306E-1,2.2540148E-2,1.1237952E-1,-3.5556987E-2,1.157914E-1,5.0701328E-2,-1.0757512E-1,3.1817576E-1,-2.390441E-1,3.3138182E-2,-2.0075455E-2,4.9877226E-1,-3.4484366E-1,3.6753264E-1,7.3554164E-1,-3.296144E-1,1.3958886E-2,-3.7050318E-2,4.3889567E-2,-0E0,6.2623555E-3,-2.966815E-2,3.640724E-2,-8.618063E-3,4.7740545E-2,-0E0,-4.932861E-2,-0E0],"categories":[],"categories_nodes":[],"categories_segments":[],"categories_sizes":[],"default_left":[0,0,0,0,0,0,0,0,0,0,0,0,0,0,0,0,0,0,0,0,0,0,0,0,0,0,0,0,0,0,0,0,0],"id":12,"left_children":[1,3,5,-1,7,9,11,13,-1,15,-1,17,19,21,-1,-1,23,25,27,29,31,-1,-1,-1,-1,-1,-1,-1,-1,-1,-1,-1,-1],"loss_changes":[6.6333933E0,5.525338E0,4.0034404E0,0E0,2.4056878E0,3.554515E0,3.7206745E0,2.5223079E0,0E0,2.712935E0,0E0,7.4978237E0,8.405909E0,2.2860146E0,0E0,0E0,1.5864506E0,5.423687E0,4.5485325E0,3.0917282E0,2.5838757E0,0E0,0E0,0E0,0E0,0E0,0E0,0E0,0E0,0E0,0E0,0E0,0E0],"parents":[2147483647,0,0,1,1,2,2,4,4,5,5,6,6,7,7,9,9,11,11,12,12,13,13,16,16,17,17,18,18,19,19,20,20],"right_children":[2,4,6,-1,8,10,12,14,-1,16,-1,18,20,22,-1,-1,24,26,28,30,32,-1,-1,-1,-1,-1,-1,-1,-1,-1,-1,-1,-1],"split_conditions":[-8.476541E-1,-7.513491E-1,-7.072852E-1,-6.36922E-2,5.488723E-1,4.7313133E-1,5.415795E-1,-7.172746E-2,-3.5556987E-2,-1.0684883E-2,5.0701328E-2,6.6898733E-1,8.6436E-1,-1.0187517E-1,3.3138182E-2,-2.0075455E-2,-6.2421758E-2,-1.5088014E-1,6.0281288E-2,8.474081E-1,5.4241085E-1,1.3958886E-2,-3.7050318E-2,4.3889567E-2,-0E0,6.2623555E-3,-2.966815E-2,3.640724E-2,-8.618063E-3,4.7740545E-2,-0E0,-4.932861E-2,-0E0],"split_indices":[1,15,8,0,15,15,8,14,0,4,0,2,17,11,0,0,1,14,10,2,1,0,0,0,0,0,0,0,0,0,0,0,0],"split_type":[0,0,0,0,0,0,0,0,0,0,0,0,0,0,0,0,0,0,0,0,0,0,0,0,0,0,0,0,0,0,0,0,0],"sum_hessian":[1.3225354E2,1.9967176E1,1.1228637E2,5.469944E0,1.4497232E1,1.9094091E1,9.3192276E1,1.0564397E1,3.9328358E0,1.1535545E1,7.5585465E0,6.4448524E1,2.8743752E1,6.4601536E0,4.1042433E0,4.5534263E0,6.9821196E0,4.358688E1,2.0861649E1,1.7680195E1,1.1063556E1,3.1029084E0,3.3572452E0,3.6360939E0,3.3460255E0,1.4827866E1,2.8759012E1,1.2631594E1,8.230055E0,1.3476956E1,4.20324E0,3.0012634E0,8.062292E0],"tree_param":{"num_deleted":"0","num_feature":"20","num_nodes":"33","size_leaf_vector":"1"}},{"base_weights":[1.09278895E-2,3.888805E-2,-4.4112504E-2,5.457498E-1,-1.426388E-1,-1.3247854E-2,8.125411E-1,-2.9595706E-1,5.967394E-2,1.2688883E-2,5.871713E-2,-8.4873945E-2,-8.6302155E-1,-3.2156664E-1,3.6277145E-1,-1.9800005E-2,9.461567E-3,-0E0,-6.216344E-2,1.559749E-2,-4.5500744E-2,3.3887476E-2,-2.8250266E-2],"categories":[],"categories_nodes":[],"categories_segments":[],"categories_sizes":[],"default_left":[0,0,0,0,0,0,0,0,0,0,0,0,0,0,0,0,0,0,0,0,0,0,0],"id":13,"left_children":[1,-1,3,5,7,-1,9,11,13,-1,-1,15,17,19,21,-1,-1,-1,-1,-1,-1,-1,-1],"loss_changes":[5.8328E0,0E0,7.1575017E0,4.165599E0,3.4197128E0,0E0,2.0420704E0,7.0763283E0,5.4777184E0,0E0,0E0,4.1241655E0,5.1653366E0,8.140156E0,8.217801E0,0E0,0E0,0E0,0E0,0E0,0E0,0E0,0E0],"parents":[2147483647,0,0,2,2,3,3,4,4,6,6,7,7,8,8,11,11,12,12,13,13,14,14],"right_children":[2,-1,4,6,8,-1,10,12,14,-1,-1,16,18,20,22,-1,-1,-1,-1,-1,-1,-1,-1],"split_conditions":[-8.890526E-1,3.888805E-2,-9.011388E-1,-3.3840808E-1,-1.2001387E-2,-1.3247854E-2,-1.018303E0,2.0552926E-1,-2.1071758E-3,1.2688883E-2,5.871713E-2,-5.9498154E-2,1.2087781E-1,-1.12315014E-1,1.6260754E0,-1.9800005E-2,9.461567E-3,-0E0,-6.216344E-2,1.559749E-2,-4.5500744E-2,3.3887476E-2,-2.8250266E-2],"split_indices":[12,0,17,12,9,0,6,4,8,0,0,11,7,11,6,0,0,0,0,0,0,0,0],"split_type":[0,0,0,0,0,0,0,0,0,0,0,0,0,0,0,0,0,0,0,0,0,0,0],"sum_hessian":[1.311682E2,8.269921E0,1.22898285E2,1.650447E1,1.06393814E2,3.8098302E0,1.2694641E1,6.1105976E1,4.5287834E1,5.983846E0,6.7107954E0,4.575349E1,1.5352487E1,1.959289E1,2.5694944E1,2.1733929E1,2.4019562E1,5.1313076E0,1.0221179E1,9.415902E0,1.0176988E1,1.9625109E1,6.069835E0],"tree_param":{"num_deleted":"0","num_feature":"20","num_nodes":"23","size_leaf_vector":"1"}},{"base_weights":[8.994881E-3,3.2616425E-1,-1.11154325E-1,-4.18885E-2,9.57095E-1,-3.8212937E-1,1.469369E-1,4.1440856E-1,-4.877808E-1,2.1394642E-2,6.1846968E-2,1.622485E-1,-5.476767E-1,3.6965165E-1,-1.6777872E-1,-2.0496925E-2,8.2529587E-1,-9.1906357E-1,2.78895E-2,5.7074016E-1,-1.7933859E-2,-0E0,-7.370667E-1,-1.7049189E-1,5.9567595E-1,-7.523435E-1,1.2894346E-1,5.8134414E-2,4.395223E-3,-6.551917E-2,-8.791476E-3,4.6302583E-2,3.31272E-4,-3.1549852E-2,5.1964086E-2,-4.944005E-2,2.4033235E-3,9.8158335E-3,-3.149378E-2,4.0729616E-2,-0E0,-5.2556228E-2,-1.0021597E-2,3.1248638E-2,-2.4853311E-2],"categories":[],"categories_nodes":[],"categories_segments":[],"categories_sizes":[],"default_left":[0,0,0,0,0,0,0,0,0,0,0,0,0,0,0,0,0,0,0,0,0,0,0,0,0,0,0,0,0,0,0,0,0,0,0,0,0,0,0,0,0,0,0,0,0],"id":14,"left_children":[1,3,5,7,9,11,13,15,17,-1,-1,19,21,23,25,-1,27,29,-1,31,-1,33,35,37,39,41,43,-1,-1,-1,-1,-1,-1,-1,-1,-1,-1,-1,-1,-1,-1,-1,-1,-1,-1],"loss_changes":[5.136095E0,8.963046E0,6.8330116E0,5.1436715E0,1.0540028E0,4.4962883E0,3.5759096E0,4.5811443E0,6.49266E0,0E0,0E0,2.7056866E0,3.9419308E0,3.8577127E0,3.8479505E0,0E0,1.6843E0,2.1737833E0,0E0,1.1428831E0,0E0,7.5181255E0,5.8198786E0,1.7962297E0,2.7801251E0,6.34892E-1,4.7404404E0,0E0,0E0,0E0,0E0,0E0,0E0,0E0,0E0,0E0,0E0,0E0,0E0,0E0,0E0,0E0,0E0,0E0,0E0],"parents":[2147483647,0,0,1,1,2,2,3,3,4,4,5,5,6,6,7,7,8,8,11,11,12,12,13,13,14,14,16,16,17,17,19,19,21,21,22,22,23,23,24,24,25,25,26,26],"right_children":[2,4,6,8,10,12,14,16,18,-1,-1,20,22,24,26,-1,28,30,-1,32,-1,34,36,38,40,42,44,-1,-1,-1,-1,-1,-1,-1,-1,-1,-1,-1,-1,-1,-1,-1,-1,-1,-1],"split_conditions":[-4.6060356E-1,-1.1786074E-1,1.1482833E-1,-5.9862924E-1,5.1023847E-1,-8.575939E-1,8.811407E-1,-1.1266876E-1,-6.85488E-1,2.1394642E-2,6.1846968E-2,-9.476592E-3,-1.2495593E0,-1.569237E-1,1.6312525E-1,-2.0496925E-2,3.2020274E-1,-2.2584585E-2,2.78895E-2,2.301557E-1,-1.7933859E-2,-7.303837E-2,6.1107713E-1,-2.159644E-1,5.851519E-1,7.552239E-2,1.6385329E0,5.8134414E-2,4.395223E-3,-6.551917E-2,-8.791476E-3,4.6302583E-2,3.31272E-4,-3.1549852E-2,5.1964086E-2,-4.944005E-2,2.4033235E-3,9.8158335E-3,-3.149378E-2,4.0729616E-2,-0E0,-5.2556228E-2,-1.0021597E-2,3.1248638E-2,-2.4853311E-2],"split_indices":[17,8,16,8,1,16,17,11,17,0,0,14,2,11,9,0,11,13,0,6,0,16,6,6,7,11,6,0,0,0,0,0,0,0,0,0,0,0,0,0,0,0,0,0,0],"split_type":[0,0,0,0,0,0,0,0,0,0,0,0,0,0,0,0,0,0,0,0,0,0,0,0,0,0,0,0,0,0,0,0,0,0,0,0,0,0,0,0,0,0,0,0,0],"sum_hessian":[1.3113455E2,3.6242912E1,9.489165E1,2.317937E1,1.30635395E1,4.6623013E1,4.8268635E1,1.1158398E1,1.2020974E1,5.764186E0,7.299354E0,1.0454076E1,3.6168934E1,2.8721779E1,1.9546856E1,3.469619E0,7.6887784E0,8.799307E0,3.2216678E0,6.128551E0,4.3255243E0,9.391186E0,2.677775E1,8.154025E0,2.0567755E1,6.4046836E0,1.3142173E1,4.600313E0,3.0884652E0,5.000023E0,3.7992835E0,3.0402317E0,3.0883193E0,6.0174847E0,3.3737009E0,2.0369463E1,6.408288E0,4.4891405E0,3.6648846E0,1.4722764E1,5.84499E0,3.2157395E0,3.1889443E0,7.6005955E0,5.5415773E0],"tree_param":{"num_deleted":"0","num_feature":"20","num_nodes":"45","size_leaf_vector":"1"}},{"base_weights":[3.1754216E-3,-9.7011335E-2,5.541697E-1,-9.192539E-1,-2.7439173E-2,3.084281E-1,6.2283475E-2,-1.3939437E-2,-6.465188E-2,3.6835905E-2,-7.501573E-2,6.0007614E-1,-1.8088376E-2,2.4951407E-1,-2.0309134E-1,5.6131512E-2,1.7665258E-1,-3.6790546E-3,4.0118713E-2,1.0592111E-2,-1.8538581E-2,-1.7103774E-2,4.64902E-2],"categories":[],"categories_nodes":[],"categories_segments":[],"categories_sizes":[],"default_left":[0,0,0,0,0,0,0,0,0,0,0,0,0,0,0,0,0,0,0,0,0,0,0],"id":15,"left_children":[1,3,5,7,9,11,-1,-1,-1,-1,13,15,-1,17,19,-1,21,-1,-1,-1,-1,-1,-1],"loss_changes":[7.6652884E0,6.2669783E0,2.7931232E0,1.226996E0,3.7598343E0,3.7030435E0,0E0,0E0,0E0,0E0,4.290533E0,2.2573104E0,0E0,5.412485E0,5.316334E0,0E0,3.857223E0,0E0,0E0,0E0,0E0,0E0,0E0],"parents":[2147483647,0,0,1,1,2,2,3,3,4,4,5,5,10,10,11,11,13,13,14,14,16,16],"right_children":[2,4,6,8,10,12,-1,-1,-1,-1,14,16,-1,18,20,-1,22,-1,-1,-1,-1,-1,-1],"split_conditions":[6.5065205E-1,-1.0027769E0,1.1575315E0,1.4302324E-1,-8.4312725E-1,4.5327365E-1,6.2283475E-2,-1.3939437E-2,-6.465188E-2,3.6835905E-2,-7.4152046E-1,-1.5017657E-1,-1.8088376E-2,-2.2867378E-2,-5.510736E-1,5.6131512E-2,1.6280737E0,-3.6790546E-3,4.0118713E-2,1.0592111E-2,-1.8538581E-2,-1.7103774E-2,4.64902E-2],"split_indices":[3,1,0,6,12,12,0,0,0,0,6,6,0,3,16,0,16,0,0,0,0,0,0],"split_type":[0,0,0,0,0,0,0,0,0,0,0,0,0,0,0,0,0,0,0,0,0,0,0],"sum_hessian":[1.3439972E2,1.1395827E2,2.0441456E1,7.600952E0,1.06357315E2,1.6468746E1,3.9727101E0,3.7403884E0,3.8605638E0,5.0151587E0,1.01342155E2,1.1859933E1,4.608814E0,2.7746065E1,7.3596085E1,4.2522874E0,7.6076455E0,1.7716627E1,1.0029439E1,2.059074E1,5.300535E1,4.592247E0,3.0153983E0],"tree_param":{"num_deleted":"0","num_feature":"20","num_nodes":"23","size_leaf_vector":"1"}},{"base_weights":[-8.144536E-3,-8.027441E-2,8.0174357E-1,3.669182E-1,-1.597412E-1,6.0534623E-2,9.318665E-3,-1.7352786E-2,6.084651E-1,3.3188093E-2,-2.0986077E-1,9.4166495E-2,5.4212745E-2,-5.1502943E-2,-1.4233845E-1,2.5701616E-2,-1.1351846E-2,1.8876288E-2,-1.2628737E-2],"categories":[],"categories_nodes":[],"categories_segments":[],"categories_sizes":[],"default_left":[0,0,0,0,0,0,0,0,0,0,0,0,0,0,0,0,0,0,0],"id":16,"left_children":[1,3,5,7,9,-1,-1,-1,11,-1,13,15,-1,-1,17,-1,-1,-1,-1],"loss_changes":[7.2549477E0,4.178288E0,1.9019866E0,3.3058102E0,4.1794386E0,0E0,0E0,0E0,2.907876E0,0E0,4.845116E0,1.2821822E0,0E0,0E0,5.2524614E0,0E0,0E0,0E0,0E0],"parents":[2147483647,0,0,1,1,2,2,3,3,4,4,8,8,10,10,11,11,14,14],"right_children":[2,4,6,8,10,-1,-1,-1,12,-1,14,16,-1,-1,18,-1,-1,-1,-1],"split_conditions":[1.6013219E0,-9.3283176E-1,9.229928E-1,-3.3840808E-1,-1.2247213E0,6.0534623E-2,9.318665E-3,-1.7352786E-2,-3.9438477E-1,3.3188093E-2,-5.587098E-1,-1.5849341E0,5.4212745E-2,-5.1502943E-2,-2.7449003E-1,2.5701616E-2,-1.1351846E-2,1.8876288E-2,-1.2628737E-2],"split_indices":[8,17,16,12,10,0,0,0,8,0,10,5,0,0,12,0,0,0,0],"split_type":[0,0,0,0,0,0,0,0,0,0,0,0,0,0,0,0,0,0,0],"sum_hessian":[1.2579551E2,1.16675514E2,9.119996E0,1.648955E1,1.0018597E2,4.604866E0,4.51513E0,3.744022E0,1.2745527E1,4.701843E0,9.548412E1,7.003564E0,5.741963E0,5.8405466E0,8.964357E1,3.1801887E0,3.8233755E0,1.4782859E1,7.486072E1],"tree_param":{"num_deleted":"0","num_feature":"20","num_nodes":"19","size_leaf_vector":"1"}},{"base_weights":[-3.4770574E-2,6.169347E-1,-8.629311E-2,7.7759037E-3,4.628019E-2,-1.3535787E-1,5.207956E-1,-3.971872E-1,3.6868274E-2,4.1978072E-2,-0E0,2.2489566E-1,-6.6617185E-1,-6.282009E-1,1.2948966E-1,-3.118732E-2,3.166824E-2,-1.88252E-2,-6.412181E-2,-5.0187495E-2,-2.465304E-3,2.5184671E-3,4.8238326E-2],"categories":[],"categories_nodes":[],"categories_segments":[],"categories_sizes":[],"default_left":[0,0,0,0,0,0,0,0,0,0,0,0,0,0,0,0,0,0,0,0,0,0,0],"id":17,"left_children":[1,3,5,-1,-1,7,9,11,13,-1,-1,15,17,19,21,-1,-1,-1,-1,-1,-1,-1,-1],"loss_changes":[4.216345E0,8.3167434E-1,3.547097E0,0E0,0E0,5.2107573E0,1.6667364E0,7.9034295E0,4.1381145E0,0E0,0E0,5.306347E0,4.800785E0,1.4004157E0,3.6889994E0,0E0,0E0,0E0,0E0,0E0,0E0,0E0,0E0],"parents":[2147483647,0,0,1,1,2,2,5,5,6,6,7,7,8,8,11,11,12,12,13,13,14,14],"right_children":[2,4,6,-1,-1,8,10,12,14,-1,-1,16,18,20,22,-1,-1,-1,-1,-1,-1,-1,-1],"split_conditions":[-1.2247213E0,-1.5613116E0,1.6013219E0,7.7759037E-3,4.628019E-2,-5.041723E-1,6.364147E-1,1.1514516E-1,-9.026099E-1,4.1978072E-2,-0E0,7.0581794E-2,3.182707E-1,-6.2733924E-1,1.3912464E0,-3.118732E-2,3.166824E-2,-1.88252E-2,-6.412181E-2,-5.0187495E-2,-2.465304E-3,2.5184671E-3,4.8238326E-2],"split_indices":[10,10,8,0,0,15,7,4,13,0,0,7,13,4,17,0,0,0,0,0,0,0,0],"split_type":[0,0,0,0,0,0,0,0,0,0,0,0,0,0,0,0,0,0,0,0,0,0,0],"sum_hessian":[1.2772607E2,8.12732E0,1.1959874E2,4.249968E0,3.8773525E0,1.11831726E2,7.767015E0,4.4545887E1,6.728584E1,4.7381277E0,3.0288873E0,1.3159777E1,3.1386112E1,7.1223383E0,6.01635E1,3.8660738E0,9.293702E0,2.2777542E1,8.608569E0,3.5604289E0,3.5619092E0,5.6254356E1,3.909143E0],"tree_param":{"num_deleted":"0","num_feature":"20","num_nodes":"23","size_leaf_vector":"1"}},{"base_weights":[-5.384982E-3,-7.820108E-2,3.8448754E-1,-7.163232E-1,-1.6212339E-2,8.3480644E-1,-0E0,-0E0,-5.66557E-2,-1.2005606E-1,3.2131732E-1,9.329016E-3,5.7142355E-2,-3.6445227E-2,2.8100714E-2,-6.143577E-1,8.292702E-3,-7.0947334E-2,6.9066447E-1,-5.3452652E-2,-4.457065E-3,9.512047E-3,-1.9098267E-2,-3.7454598E-2,2.2426486E-2,4.559085E-3,5.129651E-2],"categories":[],"categories_nodes":[],"categories_segments":[],"categories_sizes":[],"default_left":[0,0,0,0,0,0,0,0,0,0,0,0,0,0,0,0,0,0,0,0,0,0,0,0,0,0,0],"id":18,"left_children":[1,3,5,7,9,11,13,-1,-1,15,17,-1,-1,-1,-1,19,21,23,25,-1,-1,-1,-1,-1,-1,-1,-1],"loss_changes":[3.7179608E0,4.264936E0,3.7610507E0,2.8602033E0,3.6604345E0,1.3327985E0,5.259821E0,0E0,0E0,5.3731565E0,3.7568762E0,0E0,0E0,0E0,0E0,3.6996493E0,4.6590414E0,4.759843E0,2.1856246E0,0E0,0E0,0E0,0E0,0E0,0E0,0E0,0E0],"parents":[2147483647,0,0,1,1,2,2,3,3,4,4,5,5,6,6,9,9,10,10,15,15,16,16,17,17,18,18],"right_children":[2,4,6,8,10,12,14,-1,-1,16,18,-1,-1,-1,-1,20,22,24,26,-1,-1,-1,-1,-1,-1,-1,-1],"split_conditions":[6.5065205E-1,-1.0027769E0,2.0552926E-1,-2.8649846E-1,6.253807E-1,-6.2733924E-1,-7.504622E-2,-0E0,-5.66557E-2,-6.859147E-1,-1.8198149E-1,9.329016E-3,5.7142355E-2,-3.6445227E-2,2.8100714E-2,-1.6558027E-1,1.01805985E-1,-1.6050857E-1,3.5664073E-1,-5.3452652E-2,-4.457065E-3,9.512047E-3,-1.9098267E-2,-3.7454598E-2,2.2426486E-2,4.559085E-3,5.129651E-2],"split_indices":[3,1,4,9,15,4,13,0,0,5,3,0,0,0,0,13,3,13,2,0,0,0,0,0,0,0,0],"split_type":[0,0,0,0,0,0,0,0,0,0,0,0,0,0,0,0,0,0,0,0,0,0,0,0,0,0,0],"sum_hessian":[1.3214243E2,1.12668365E2,1.9474056E1,8.612686E0,1.0405568E2,8.739885E0,1.0734171E1,3.5433915E0,5.069295E0,8.074649E1,2.3309189E1,3.646326E0,5.0935597E0,4.744502E0,5.9896684E0,1.6345776E1,6.440071E1,1.1301798E1,1.2007391E1,7.8999276E0,8.445847E0,4.479663E1,1.9604084E1,4.9610076E0,6.3407907E0,5.0838423E0,6.923549E0],"tree_param":{"num_deleted":"0","num_feature":"20","num_nodes":"27","size_leaf_vector":"1"}},{"base_weights":[-0E0,-5.126229E-1,5.7131227E-2,8.2755875E-4,-9.108391E-1,-1.2960521E-2,8.018813E-1,-1.606526E-2,-5.8104303E-2,2.326646E-1,-2.7459598E-1,6.1853897E-2,2.1604237E-3,9.0672773E-1,5.3789757E-2,-7.7681834E-1,-9.549725E-2,6.016813E-2,7.7479444E-3,-2.5481663E-3,4.9436387E-2,1.0169595E-2,-5.7677638E-2,1.7873596E-2,-1.6004823E-2],"categories":[],"categories_nodes":[],"categories_segments":[],"categories_sizes":[],"default_left":[0,0,0,0,0,0,0,0,0,0,0,0,0,0,0,0,0,0,0,0,0,0,0,0,0],"id":19,"left_children":[1,3,5,-1,7,9,11,-1,-1,13,15,-1,-1,17,19,21,23,-1,-1,-1,-1,-1,-1,-1,-1],"loss_changes":[3.9877238E0,3.1722608E0,6.4070435E0,0E0,3.9082813E-1,7.0472445E0,3.04074E0,0E0,0E0,6.4027357E0,4.4829226E0,0E0,0E0,1.92766E0,4.7966237E0,5.5058155E0,4.2816505E0,0E0,0E0,0E0,0E0,0E0,0E0,0E0,0E0],"parents":[2147483647,0,0,1,1,2,2,4,4,5,5,6,6,9,9,10,10,13,13,14,14,15,15,16,16],"right_children":[2,4,6,-1,8,10,12,-1,-1,14,16,-1,-1,18,20,22,24,-1,-1,-1,-1,-1,-1,-1,-1],"split_conditions":[-9.437432E-1,-5.9831455E-2,1.6280737E0,8.2755875E-4,-1.2376728E0,5.634901E-2,1.0316929E0,-1.606526E-2,-5.8104303E-2,-4.429958E-1,-7.0774204E-1,6.1853897E-2,2.1604237E-3,1.2333577E-1,-4.604095E-4,-3.6829147E-1,-9.440903E-2,6.016813E-2,7.7479444E-3,-2.5481663E-3,4.9436387E-2,1.0169595E-2,-5.7677638E-2,1.7873596E-2,-1.6004823E-2],"split_indices":[13,14,16,0,5,4,5,0,0,13,2,0,0,14,4,14,2,0,0,0,0,0,0,0,0],"split_type":[0,0,0,0,0,0,0,0,0,0,0,0,0,0,0,0,0,0,0,0,0,0,0,0,0],"sum_hessian":[1.2971457E2,1.2709287E1,1.1700529E2,5.5453553E0,7.1639314E0,1.07470535E2,9.534753E0,3.1785543E0,3.9853768E0,5.489698E1,5.2573555E1,5.4070845E0,4.1276684E0,1.0307708E1,4.458927E1,1.2502383E1,4.007117E1,6.674356E0,3.633352E0,4.06584E1,3.9308684E0,3.3777504E0,9.124633E0,1.2643862E1,2.7427309E1],"tree_param":{"num_deleted":"0","num_feature":"20","num_nodes":"25","size_leaf_vector":"1"}},{"base_weights":[8.62484E-3,7.5177354E-1,-4.6757516E-2,1.5343971E-2,5.8038414E-2,-7.265012E-1,6.944019E-3,-6.409322E-3,-6.158304E-2,-8.9199916E-2,3.2236466E-1,-0E0,-8.181238E-1,-3.452378E-2,5.4319245E-1,-1.3148944E-2,1.3134296E-2,-6.173537E-2,-2.4991846E-3,3.7660997E-2,-0E0],"categories":[],"categories_nodes":[],"categories_segments":[],"categories_sizes":[],"default_left":[0,0,0,0,0,0,0,0,0,0,0,0,0,0,0,0,0,0,0,0,0],"id":20,"left_children":[1,3,5,-1,-1,7,9,-1,-1,11,13,15,17,-1,19,-1,-1,-1,-1,-1,-1],"loss_changes":[5.69763E0,9.5390654E-1,4.7408404E0,0E0,0E0,2.300818E0,3.5964186E0,0E0,0E0,5.5170803E0,6.568689E0,5.606307E0,2.52696E0,0E0,2.8583875E0,0E0,0E0,0E0,0E0,0E0,0E0],"parents":[2147483647,0,0,1,1,2,2,5,5,6,6,9,9,10,10,11,11,12,12,14,14],"right_children":[2,4,6,-1,-1,8,10,-1,-1,12,14,16,18,-1,20,-1,-1,-1,-1,-1,-1],"split_conditions":[-8.4312725E-1,8.811777E-1,-1.0027769E0,1.5343971E-2,5.8038414E-2,-5.1091176E-2,5.690577E-1,-6.409322E-3,-6.158304E-2,2.6559812E-1,-1.2776887E0,-1.2001387E-2,-5.196273E-2,-3.452378E-2,1.5661527E0,-1.3148944E-2,1.3134296E-2,-6.173537E-2,-2.4991846E-3,3.7660997E-2,-0E0],"split_indices":[12,1,1,0,0,13,15,0,0,15,0,9,11,0,15,0,0,0,0,0,0],"split_type":[0,0,0,0,0,0,0,0,0,0,0,0,0,0,0,0,0,0,0,0,0],"sum_hessian":[1.3144237E2,8.619823E0,1.2282254E2,5.318416E0,3.3014069E0,8.484559E0,1.1433798E2,4.729971E0,3.7545881E0,8.7448685E1,2.68893E1,7.915452E1,8.294168E0,4.1893415E0,2.2699957E1,4.0098404E1,3.905611E1,4.730653E0,3.5635157E0,1.636392E1,6.3360367E0],"tree_param":{"num_deleted":"0","num_feature":"20","num_nodes":"21","size_leaf_vector":"1"}},{"base_weights":[3.6421172E-2,-5.1196184E-2,4.373824E-1,-8.7247896E-1,1.9805655E-2,7.41613E-1,-0E0,-1.7190963E-2,-5.9527643E-2,5.01857E-1,-8.918008E-2,1.528902E-1,5.9046734E-2,-3.886897E-1,3.65705E-2,-1.6279656E-2,7.2335494E-1,-2.1759067E-1,2.68862E-1,4.3090347E-2,-2.862261E-2,-4.575714E-2,1.2350525E-2,1.5930768E-2,4.5150954E-2,1.647673E-2,-1.5609681E-2,2.3525037E-2,-3.160534E-2],"categories":[],"categories_nodes":[],"categories_segments":[],"categories_sizes":[],"default_left":[0,0,0,0,0,0,0,0,0,0,0,0,0,0,0,0,0,0,0,0,0,0,0,0,0,0,0,0,0],"id":21,"left_children":[1,3,5,7,9,11,13,-1,-1,15,17,19,-1,21,-1,-1,23,25,27,-1,-1,-1,-1,-1,-1,-1,-1,-1,-1],"loss_changes":[4.804235E0,6.6454396E0,3.2658596E0,6.528263E-1,5.4865975E0,3.1625056E0,3.4293432E0,0E0,0E0,3.8965464E0,3.854612E0,4.5011196E0,0E0,3.0632482E0,0E0,0E0,4.976349E-1,3.316442E0,4.193761E0,0E0,0E0,0E0,0E0,0E0,0E0,0E0,0E0,0E0,0E0],"parents":[2147483647,0,0,1,1,2,2,3,3,4,4,5,5,6,6,9,9,10,10,11,11,13,13,16,16,17,17,18,18],"right_children":[2,4,6,8,10,12,14,-1,-1,16,18,20,-1,22,-1,-1,24,26,28,-1,-1,-1,-1,-1,-1,-1,-1,-1,-1],"split_conditions":[5.222657E-1,-1.0027769E0,6.923991E-1,1.4302324E-1,-7.826253E-1,3.3597603E-1,8.1961477E-1,-1.7190963E-2,-5.9527643E-2,-9.2363477E-1,5.415795E-1,-8.245519E-2,5.9046734E-2,1.9194156E0,3.65705E-2,-1.6279656E-2,-3.9719787E-1,-9.5525587E-1,1.2700073E0,4.3090347E-2,-2.862261E-2,-4.575714E-2,1.2350525E-2,1.5930768E-2,4.5150954E-2,1.647673E-2,-1.5609681E-2,2.3525037E-2,-3.160534E-2],"split_indices":[3,1,4,6,8,1,0,0,0,7,8,10,0,7,0,0,17,17,2,0,0,0,0,0,0,0,0,0,0],"split_type":[0,0,0,0,0,0,0,0,0,0,0,0,0,0,0,0,0,0,0,0,0,0,0,0,0,0,0,0,0],"sum_hessian":[1.3181616E2,1.0827928E2,2.3536886E1,8.054102E0,1.0022518E2,1.3472723E1,1.0064164E1,4.161513E0,3.8925889E0,1.8324137E1,8.190104E1,6.62527E0,6.847453E0,6.8787684E0,3.1853955E0,3.4841237E0,1.48400135E1,6.1186775E1,2.0714268E1,3.4645932E0,3.1606765E0,3.780389E0,3.0983794E0,5.92826E0,8.911754E0,8.186513E0,5.3000263E1,1.7588648E1,3.125619E0],"tree_param":{"num_deleted":"0","num_feature":"20","num_nodes":"29","size_leaf_vector":"1"}},{"base_weights":[2.1461064E-2,3.892122E-2,-2.3173776E-2,-7.613985E-1,3.491465E-2,-1.8956601E-4,-5.5335756E-2,-0E0,4.8249137E-2,1.4390683E-1,-1.7329086E-1,6.605067E-4,4.3624185E-2,1.6452808E-2,-1.606753E-2],"categories":[],"categories_nodes":[],"categories_segments":[],"categories_sizes":[],"default_left":[0,0,0,0,0,0,0,0,0,0,0,0,0,0,0],"id":22,"left_children":[1,-1,3,5,7,-1,-1,9,-1,11,13,-1,-1,-1,-1],"loss_changes":[4.650355E0,0E0,5.550518E0,2.1340055E0,3.821503E0,0E0,0E0,2.8211408E0,0E0,5.578721E0,3.9364572E0,0E0,0E0,0E0,0E0],"parents":[2147483647,0,0,2,2,3,3,4,4,7,7,9,9,10,10],"right_children":[2,-1,4,6,8,-1,-1,10,-1,12,14,-1,-1,-1,-1],"split_conditions":[-1.2247213E0,3.892122E-2,-5.9732985E-1,-2.2086841E-1,2.7367735E0,-1.8956601E-4,-5.5335756E-2,1.1514516E-1,4.8249137E-2,-4.604095E-4,-6.372913E-1,6.605067E-4,4.3624185E-2,1.6452808E-2,-1.606753E-2],"split_indices":[10,0,10,7,13,0,0,4,0,4,16,0,0,0,0],"split_type":[0,0,0,0,0,0,0,0,0,0,0,0,0,0,0],"sum_hessian":[1.2939777E2,6.664011E0,1.2273375E2,8.446551E0,1.1428719E2,3.2330816E0,5.21347E0,1.1103239E2,3.254808E0,6.0497536E1,5.0534855E1,5.250818E1,7.9893546E0,1.076431E1,3.9770546E1],"tree_param":{"num_deleted":"0","num_feature":"20","num_nodes":"15","size_leaf_vector":"1"}},{"base_weights":[-0E0,-4.2257893E-1,9.2973486E-2,5.259991E-2,-7.0104307E-1,-1.0464507E-1,2.7324596E-1,-2.8214712E-2,2.49931E-2,4.5092315E-3,-1.0228848E0,2.1530727E-1,-4.1795537E-1,-2.265514E-2,5.4381555E-1,-6.571442E-2,-1.2000171E-2,9.0739906E-1,-6.888093E-2,-5.1619466E-2,-2.230855E-1,-1.8958719E-1,3.5907414E-2,6.992198E-1,-6.9824182E-3,7.501701E-2,5.326857E-3,-3.1625073E-2,1.0264228E-2,-3.420959E-2,7.914618E-3,-3.1876463E-2,1.195087E-2,5.9721884E-3,4.416465E-2],"categories":[],"categories_nodes":[],"categories_segments":[],"categories_sizes":[],"default_left":[0,0,0,0,0,0,0,0,0,0,0,0,0,0,0,0,0,0,0,0,0,0,0,0,0,0,0,0,0,0,0,0,0,0,0],"id":23,"left_children":[1,3,5,7,9,11,13,-1,-1,-1,15,17,19,21,23,-1,-1,25,27,-1,29,31,-1,33,-1,-1,-1,-1,-1,-1,-1,-1,-1,-1,-1],"loss_changes":[5.2502446E0,3.4334083E0,3.907825E0,2.8765767E0,4.3765516E0,5.2830744E0,4.754014E0,0E0,0E0,0E0,1.8484488E0,5.3327875E0,2.5877037E0,3.4137225E0,3.5035763E0,0E0,0E0,3.0646777E0,3.149347E0,0E0,4.1178403E0,4.840895E0,0E0,2.3004208E0,0E0,0E0,0E0,0E0,0E0,0E0,0E0,0E0,0E0,0E0,0E0],"parents":[2147483647,0,0,1,1,2,2,3,3,4,4,5,5,6,6,10,10,11,11,12,12,13,13,14,14,17,17,18,18,20,20,21,21,23,23],"right_children":[2,4,6,8,10,12,14,-1,-1,-1,16,18,20,22,24,-1,-1,26,28,-1,30,32,-1,34,-1,-1,-1,-1,-1,-1,-1,-1,-1,-1,-1],"split_conditions":[-7.828054E-1,-8.6773694E-1,-2.6234478E-2,-1.8053415E-1,-5.3169966E-1,-1.6311017E-1,-4.4424248E-1,-2.8214712E-2,2.49931E-2,4.5092315E-3,3.97175E-1,-6.9860625E-1,1.0691195E-2,1.3989127E0,7.643134E-1,-6.571442E-2,-1.2000171E-2,-3.805029E-1,-2.5929824E-1,-5.1619466E-2,-1.995435E-1,2.044761E-1,3.5907414E-2,-4.7917393E-1,-6.9824182E-3,7.501701E-2,5.326857E-3,-3.1625073E-2,1.0264228E-2,-3.420959E-2,7.914618E-3,-3.1876463E-2,1.195087E-2,5.9721884E-3,4.416465E-2],"split_indices":[1,2,3,16,17,10,15,0,0,0,17,15,10,16,9,0,0,1,15,0,17,9,0,1,0,0,0,0,0,0,0,0,0,0,0],"split_type":[0,0,0,0,0,0,0,0,0,0,0,0,0,0,0,0,0,0,0,0,0,0,0,0,0,0,0,0,0,0,0,0,0,0,0],"sum_hessian":[1.2966922E2,2.319887E1,1.0647035E2,8.473399E0,1.4725471E1,5.0197807E1,5.627255E1,3.1694574E0,5.3039417E0,4.1964397E0,1.0529031E1,2.4516672E1,2.5681133E1,2.6786127E1,2.9486422E1,6.899078E0,3.6299527E0,6.805566E0,1.7711107E1,4.778131E0,2.0903002E1,2.2797909E1,3.9882183E0,2.4362766E1,5.1236553E0,3.1933064E0,3.6122594E0,5.7263284E0,1.1984778E1,9.459084E0,1.1443919E1,1.1251386E1,1.1546524E1,6.6610637E0,1.7701702E1],"tree_param":{"num_deleted":"0","num_feature":"20","num_nodes":"35","size_leaf_vector":"1"}},{"base_weights":[7.6734778E-3,3.3308752E-2,-3.3614174E-2,-4.795496E-2,1.25477165E-2,-1.9651819E-2,4.866373E-2,-1.0024008E-1,2.881055E-1,4.4283904E-3,-1.4802918E-2,3.209346E-2,-1.8620595E-2],"categories":[],"categories_nodes":[],"categories_segments":[],"categories_sizes":[],"default_left":[0,0,0,0,0,0,0,0,0,0,0,0,0],"id":24,"left_children":[1,-1,3,-1,5,7,-1,9,11,-1,-1,-1,-1],"loss_changes":[3.8279693E0,0E0,5.6648717E0,0E0,4.0290847E0,2.8780756E0,0E0,3.576973E0,5.8803573E0,0E0,0E0,0E0,0E0],"parents":[2147483647,0,0,2,2,4,4,5,5,7,7,8,8],"right_children":[2,-1,4,-1,6,8,-1,10,12,-1,-1,-1,-1],"split_conditions":[-8.890526E-1,3.3308752E-2,-5.0442004E-1,-4.795496E-2,2.3630025E0,5.415795E-1,4.866373E-2,-2.5207713E-1,1.3500595E0,4.4283904E-3,-1.4802918E-2,3.209346E-2,-1.8620595E-2],"split_indices":[12,0,12,0,11,8,0,8,6,0,0,0,0],"split_type":[0,0,0,0,0,0,0,0,0,0,0,0,0],"sum_hessian":[1.3199287E2,7.3233314E0,1.2466954E2,5.292091E0,1.1937745E2,1.1615181E2,3.2256398E0,9.335522E1,2.2796593E1,4.702724E1,4.6327972E1,1.5159698E1,7.6368957E0],"tree_param":{"num_deleted":"0","num_feature":"20","num_nodes":"13","size_leaf_vector":"1"}},{"base_weights":[3.0648902E-2,-2.8295746E-1,1.283325E-1,2.2092225E-1,-6.321244E-1,1.6936004E-1,-4.129697E-2,-1.5586194E-1,3.3891417E-2,-2.5219283E-1,-5.747765E-2,-1.4325637E-4,4.765385E-1,3.1650008E-3,-2.1587873E-2,-4.2249363E-2,1.3154017E-2,2.711184E-1,-2.2285286E-1,-1.8009529E-1,7.22562E-1,3.0518545E-2,-6.9249505E-3,-2.0120773E-2,2.4804031E-2,-3.176608E-2,2.3989871E-2,-0E0,5.0557222E-2],"categories":[],"categories_nodes":[],"categories_segments":[],"categories_sizes":[],"default_left":[0,0,0,0,0,0,0,0,0,0,0,0,0,0,0,0,0,0,0,0,0,0,0,0,0,0,0,0,0],"id":25,"left_children":[1,3,5,7,9,11,-1,13,-1,15,-1,17,19,-1,-1,-1,-1,21,23,25,27,-1,-1,-1,-1,-1,-1,-1,-1],"loss_changes":[4.005501E0,5.6669807E0,3.9115431E0,2.4936404E0,2.976284E0,5.2622423E0,0E0,5.9479755E-1,0E0,4.1932883E0,0E0,3.8959224E0,6.042494E0,0E0,0E0,0E0,0E0,4.1971254E0,4.838541E0,3.4061399E0,5.2766685E0,0E0,0E0,0E0,0E0,0E0,0E0,0E0,0E0],"parents":[2147483647,0,0,1,1,2,2,3,3,4,4,5,5,7,7,9,9,11,11,12,12,17,17,18,18,19,19,20,20],"right_children":[2,4,6,8,10,12,-1,14,-1,16,-1,18,20,-1,-1,-1,-1,22,24,26,28,-1,-1,-1,-1,-1,-1,-1,-1],"split_conditions":[-7.6358175E-1,-1.045466E0,2.0652022E0,8.776146E-2,-7.484444E-2,1.2598087E-1,-4.129697E-2,2.7662945E-1,3.3891417E-2,3.0109733E-1,-5.747765E-2,-4.6060356E-1,-6.990258E-1,3.1650008E-3,-2.1587873E-2,-4.2249363E-2,1.3154017E-2,1.8344373E-2,5.624523E-1,-7.9838336E-2,-4.6299097E-1,3.0518545E-2,-6.9249505E-3,-2.0120773E-2,2.4804031E-2,-3.176608E-2,2.3989871E-2,-0E0,5.0557222E-2],"split_indices":[15,15,14,1,14,16,0,0,0,17,0,17,9,0,0,0,0,14,6,14,15,0,0,0,0,0,0,0,0],"split_type":[0,0,0,0,0,0,0,0,0,0,0,0,0,0,0,0,0,0,0,0,0,0,0,0,0,0,0,0,0],"sum_hessian":[1.3008147E2,2.971517E1,1.003663E2,1.19615965E1,1.7753574E1,9.731911E1,3.047195E0,6.5568357E0,5.404761E0,1.1428886E1,6.3246875E0,6.2728157E1,3.459095E1,3.4775703E0,3.0792654E0,5.28784E0,6.141046E0,2.7576004E1,3.5152153E1,9.168613E0,2.5422337E1,1.5216073E1,1.2359932E1,2.8813234E1,6.338919E0,5.716764E0,3.4518495E0,7.7687545E0,1.7653582E1],"tree_param":{"num_deleted":"0","num_feature":"20","num_nodes":"29","size_leaf_vector":"1"}},{"base_weights":[4.4487916E-2,-1.6991287E-1,1.8983246E-1,-4.47899E-2,-7.12864E-1,8.859603E-1,8.8581674E-2,-1.3943316E-1,4.0614933E-2,-2.2525608E-3,-5.1314242E-2,6.227107E-2,6.301525E-4,-2.9584803E-3,5.9789693E-1,4.0329103E-3,-6.857326E-1,8.713591E-2,-5.2104455E-1,4.082251E-2,3.8660232E-3,-1.1626148E-2,1.9771824E-2,-5.1243383E-2,-6.307933E-3,-3.3935332E-3,5.1911533E-2,-4.83675E-2,-0E0],"categories":[],"categories_nodes":[],"categories_segments":[],"categories_sizes":[],"default_left":[0,0,0,0,0,0,0,0,0,0,0,0,0,0,0,0,0,0,0,0,0,0,0,0,0,0,0,0,0],"id":26,"left_children":[1,3,5,7,9,11,13,15,-1,-1,-1,-1,-1,17,19,21,23,25,27,-1,-1,-1,-1,-1,-1,-1,-1,-1,-1],"loss_changes":[4.0977325E0,3.2955704E0,5.193479E0,3.4839807E0,1.5755596E0,2.6009502E0,3.462866E0,3.407421E0,0E0,0E0,0E0,0E0,0E0,2.98444E0,9.465151E-1,3.186777E0,1.2206812E0,7.9725947E0,2.2718933E0,0E0,0E0,0E0,0E0,0E0,0E0,0E0,0E0,0E0,0E0],"parents":[2147483647,0,0,1,1,2,2,3,3,4,4,5,5,6,6,7,7,13,13,14,14,15,15,16,16,17,17,18,18],"right_children":[2,4,6,8,10,12,14,16,-1,-1,-1,-1,-1,18,20,22,24,26,28,-1,-1,-1,-1,-1,-1,-1,-1,-1,-1],"split_conditions":[-4.3727177E-1,1.3915299E-1,-3.4273195E-1,4.0870827E-2,-2.2121502E-1,2.249086E-2,1.4736247E0,-1.0713961E-1,4.0614933E-2,-2.2525608E-3,-5.1314242E-2,6.227107E-2,6.301525E-4,5.2634436E-1,1.82737E0,-2.0187502E-1,4.092303E-1,1.6407697E-1,1.3253312E0,4.082251E-2,3.8660232E-3,-1.1626148E-2,1.9771824E-2,-5.1243383E-2,-6.307933E-3,-3.3935332E-3,5.1911533E-2,-4.83675E-2,-0E0],"split_indices":[1,10,1,10,11,12,8,10,0,0,0,0,0,12,13,10,5,12,12,0,0,0,0,0,0,0,0,0,0],"split_type":[0,0,0,0,0,0,0,0,0,0,0,0,0,0,0,0,0,0,0,0,0,0,0,0,0,0,0,0,0],"sum_hessian":[1.2927095E2,5.1325916E1,7.794503E1,4.304194E1,8.283977E0,8.537083E0,6.940795E1,3.983098E1,3.2109616E0,3.3170927E0,4.966884E0,5.5027227E0,3.0343595E0,5.917711E1,1.0230844E1,3.1897663E1,7.9333153E0,5.062607E1,8.55104E0,6.3995028E0,3.8313413E0,1.9656906E1,1.2240757E1,4.0880675E0,3.8452477E0,4.4058723E1,6.567345E0,4.198822E0,4.352218E0],"tree_param":{"num_deleted":"0","num_feature":"20","num_nodes":"29","size_leaf_vector":"1"}},{"base_weights":[4.6142895E-2,4.93178E-1,-0E0,-6.892512E-3,4.6700858E-2,-4.657285E-2,4.942535E-2,-2.8204417E-2,5.7677805E-1,2.3096189E-1,-2.6075965E-1,-0E0,9.4631934E-1,4.9368683E-3,4.671779E-2,-1.8755822E-2,1.2014418E-2,6.180793E-2,1.8010572E-2],"categories":[],"categories_nodes":[],"categories_segments":[],"categories_sizes":[],"default_left":[0,0,0,0,0,0,0,0,0,0,0,0,0,0,0,0,0,0,0],"id":27,"left_children":[1,3,5,-1,-1,-1,7,9,11,13,15,-1,17,-1,-1,-1,-1,-1,-1],"loss_changes":[2.6970277E0,3.7703576E0,5.5471787E0,0E0,0E0,0E0,4.860951E0,6.1028004E0,3.4137988E0,3.9938326E0,3.2157128E0,0E0,6.833725E-1,0E0,0E0,0E0,0E0,0E0,0E0],"parents":[2147483647,0,0,1,1,2,2,6,6,7,7,8,8,9,9,10,10,12,12],"right_children":[2,4,6,-1,-1,-1,8,10,12,14,16,-1,18,-1,-1,-1,-1,-1,-1],"split_conditions":[-1.3890574E0,-1.9355978E0,-1.0893108E0,-6.892512E-3,4.6700858E-2,-4.657285E-2,1.2007084E0,9.8441474E-2,-1.339959E-1,-4.604095E-4,1.7064078E0,-0E0,2.6190966E-1,4.9368683E-3,4.671779E-2,-1.8755822E-2,1.2014418E-2,6.180793E-2,1.8010572E-2],"split_indices":[4,4,4,0,0,0,2,4,14,4,7,0,17,0,0,0,0,0,0],"split_type":[0,0,0,0,0,0,0,0,0,0,0,0,0,0,0,0,0,0,0],"sum_hessian":[1.2962505E2,1.1232113E1,1.1839293E2,4.6223474E0,6.609765E0,5.0717316E0,1.133212E2,9.91093E1,1.4211899E1,4.626598E1,5.284332E1,5.748813E0,8.463085E0,4.0264E1,6.0019813E0,4.3715893E1,9.127426E0,4.578165E0,3.8849206E0],"tree_param":{"num_deleted":"0","num_feature":"20","num_nodes":"19","size_leaf_vector":"1"}},{"base_weights":[2.5248444E-3,6.4155537E-1,-4.5131672E-2,1.1308228E-2,4.6862375E-2,2.5564513E-1,-1.6878916E-1,-1.7665615E-2,3.9605796E-1,-4.901823E-2,-1.0310324E-1,1.4279696E-1,8.859641E-1,-2.264026E-2,-4.191592E-2,-1.8424256E-2,1.9405894E-2,6.021718E-2,1.7014284E-2,-2.0279558E-2,4.491022E-3],"categories":[],"categories_nodes":[],"categories_segments":[],"categories_sizes":[],"default_left":[0,0,0,0,0,0,0,0,0,0,0,0,0,0,0,0,0,0,0,0,0],"id":28,"left_children":[1,3,5,-1,-1,7,9,-1,11,-1,13,15,17,19,-1,-1,-1,-1,-1,-1,-1],"loss_changes":[4.065041E0,5.803907E-1,4.4193974E0,0E0,0E0,3.074944E0,4.11514E0,0E0,3.1187959E0,0E0,4.471216E0,2.7174404E0,7.191458E-1,3.307166E0,0E0,0E0,0E0,0E0,0E0,0E0,0E0],"parents":[2147483647,0,0,1,1,2,2,5,5,6,6,8,8,10,10,11,11,12,12,13,13],"right_children":[2,4,6,-1,-1,8,10,-1,12,-1,14,16,18,20,-1,-1,-1,-1,-1,-1,-1],"split_conditions":[-8.4312725E-1,3.3597603E-1,-4.772558E-1,1.1308228E-2,4.6862375E-2,-9.437432E-1,-3.859869E-1,-1.7665615E-2,5.1023847E-1,-4.901823E-2,1.6769675E0,-1.4099862E-1,-1.606291E-1,-2.7447495E-1,-4.191592E-2,-1.8424256E-2,1.9405894E-2,6.021718E-2,1.7014284E-2,-2.0279558E-2,4.491022E-3],"split_indices":[12,1,17,0,0,13,17,0,1,0,6,12,14,11,0,0,0,0,0,0,0],"split_type":[0,0,0,0,0,0,0,0,0,0,0,0,0,0,0,0,0,0,0,0,0],"sum_hessian":[1.2565539E2,8.292568E0,1.17362816E2,4.6041093E0,3.6884587E0,3.317546E1,8.4187355E1,5.5317936E0,2.764367E1,4.918996E0,7.926836E1,1.947813E1,8.165539E0,7.27458E1,6.522565E0,5.7562933E0,1.3721837E1,4.0472903E0,4.118248E0,1.6527494E1,5.62183E1],"tree_param":{"num_deleted":"0","num_feature":"20","num_nodes":"21","size_leaf_vector":"1"}},{"base_weights":[-0E0,-1.0159016E-1,2.622834E-1,-4.9374565E-2,-2.6458291E-2,-1.4169553E-2,6.619899E-1,4.27734E-1,-1.4298807E-1,3.464933E-1,-4.3581307E-2,4.8974466E-2,3.1108982E-3,8.0618255E-2,7.6689065E-1,-1.7964762E-2,-6.302681E-1,7.616753E-1,-7.036257E-2,2.713422E-2,-2.4080003E-2,5.3394813E-2,7.418287E-3,-2.4051901E-2,8.494898E-3,-4.6775334E-2,2.3580107E-3,6.488132E-2,7.4599194E-3,-4.5588978E-2,2.5924483E-2],"categories":[],"categories_nodes":[],"categories_segments":[],"categories_sizes":[],"default_left":[0,0,0,0,0,0,0,0,0,0,0,0,0,0,0,0,0,0,0,0,0,0,0,0,0,0,0,0,0,0,0],"id":29,"left_children":[1,3,5,-1,7,9,11,13,15,17,-1,-1,-1,19,21,23,25,27,29,-1,-1,-1,-1,-1,-1,-1,-1,-1,-1,-1,-1],"loss_changes":[3.471607E0,6.0323405E0,4.1953716E0,0E0,4.710578E0,7.2289333E0,2.5275145E0,1.8019159E0,4.2091284E0,3.008953E0,0E0,0E0,0E0,2.993283E0,1.0676041E0,5.3243713E0,3.2629547E0,2.1296911E0,4.791203E0,0E0,0E0,0E0,0E0,0E0,0E0,0E0,0E0,0E0,0E0,0E0,0E0],"parents":[2147483647,0,0,1,1,2,2,4,4,5,5,6,6,7,7,8,8,9,9,13,13,14,14,15,15,16,16,17,17,18,18],"right_children":[2,4,6,-1,8,10,12,14,16,18,-1,-1,-1,20,22,24,26,28,30,-1,-1,-1,-1,-1,-1,-1,-1,-1,-1,-1,-1],"split_conditions":[2.73257E-1,-1.0027769E0,3.9961314E-1,-4.9374565E-2,-7.826253E-1,1.3915299E-1,6.923991E-1,-1.3536987E-1,8.732121E-2,1.1514516E-1,-4.3581307E-2,4.8974466E-2,3.1108982E-3,2.291477E-1,-1.542601E-1,-7.58102E-1,6.6898733E-1,-1.7814542E-1,-2.0187502E-1,2.713422E-2,-2.4080003E-2,5.3394813E-2,7.418287E-3,-2.4051901E-2,8.494898E-3,-4.6775334E-2,2.3580107E-3,6.488132E-2,7.4599194E-3,-4.5588978E-2,2.5924483E-2],"split_indices":[3,1,1,0,8,10,4,0,3,4,0,0,0,13,2,5,2,13,10,0,0,0,0,0,0,0,0,0,0,0,0],"split_type":[0,0,0,0,0,0,0,0,0,0,0,0,0,0,0,0,0,0,0,0,0,0,0,0,0,0,0,0,0,0,0],"sum_hessian":[1.2971707E2,9.45936E1,3.5123474E1,6.133644E0,8.845995E1,2.0889479E1,1.4233997E1,1.6990784E1,7.146917E1,1.4877674E1,6.011804E0,8.566096E0,5.6679E0,9.4456835E0,7.5450997E0,5.8191326E1,1.32778425E1,7.399935E0,7.4777393E0,5.496588E0,3.949095E0,4.2602835E0,3.2848165E0,1.6804733E1,4.1386593E1,9.196106E0,4.081737E0,3.088692E0,4.311243E0,3.0626097E0,4.4151297E0],"tree_param":{"num_deleted":"0","num_feature":"20","num_nodes":"31","size_leaf_vector":"1"}},{"base_weights":[-4.5846447E-2,-9.145351E-2,5.3031826E-1,-2.7704927E-1,1.05847955E-1,3.52955E-2,2.7888478E-3,2.4646325E-2,-3.4583643E-1,5.6014102E-2,1.3293652E-2,-1.8871751E-1,-6.9704545E-1,3.5041854E-1,-1.164805E-1,-1.8224431E-2,1.05564045E-2,-2.0639146E-2,-6.440791E-2,-1.4634187E-2,3.57122E-2,2.5668535E-2,-1.2764503E-2],"categories":[],"categories_nodes":[],"categories_segments":[],"categories_sizes":[],"default_left":[0,0,0,0,0,0,0,0,0,0,0,0,0,0,0,0,0,0,0,0,0,0,0],"id":30,"left_children":[1,3,5,7,9,-1,-1,-1,11,-1,13,15,17,19,21,-1,-1,-1,-1,-1,-1,-1,-1],"loss_changes":[3.3185878E0,4.5223436E0,4.9540162E-1,3.492876E0,5.159585E0,0E0,0E0,0E0,2.874702E0,0E0,2.5219054E0,3.1400495E0,1.87601E0,4.127994E0,3.541853E0,0E0,0E0,0E0,0E0,0E0,0E0,0E0,0E0],"parents":[2147483647,0,0,1,1,2,2,3,3,4,4,8,8,10,10,11,11,12,12,13,13,14,14],"right_children":[2,4,6,8,10,-1,-1,-1,12,-1,14,16,18,20,22,-1,-1,-1,-1,-1,-1,-1,-1],"split_conditions":[1.6013219E0,-2.756172E-1,8.788936E-1,-1.2247213E0,-2.1436694E-1,3.52955E-2,2.7888478E-3,2.4646325E-2,5.5812484E-1,5.6014102E-2,-6.154649E-1,2.161425E-1,7.88762E-1,-9.2363477E-1,-1.5163561E0,-1.8224431E-2,1.05564045E-2,-2.0639146E-2,-6.440791E-2,-1.4634187E-2,3.57122E-2,2.5668535E-2,-1.2764503E-2],"split_indices":[8,15,4,10,15,0,0,0,2,0,8,8,7,7,6,0,0,0,0,0,0,0,0],"split_type":[0,0,0,0,0,0,0,0,0,0,0,0,0,0,0,0,0,0,0,0,0,0,0],"sum_hessian":[1.2845633E2,1.202961E2,8.160236E0,6.256208E1,5.7734013E1,5.1389494E0,3.0212872E0,4.2673903E0,5.8294693E1,3.6276834E0,5.4106327E1,4.1928734E1,1.6365955E1,1.5208767E1,3.889756E1,2.9707924E1,1.2220811E1,1.2540931E1,3.8250256E0,5.2679834E0,9.9407835E0,6.146785E0,3.275078E1],"tree_param":{"num_deleted":"0","num_feature":"20","num_nodes":"23","size_leaf_vector":"1"}},{"base_weights":[-0E0,-6.32011E-2,4.3727246E-1,3.5741832E-2,-1.01026855E-1,4.7724366E-2,5.8015954E-2,4.398789E-1,-1.555239E-1,3.279488E-2,-4.473009E-1,-0E0,4.7263384E-2,-6.838321E-1,-4.808788E-2,-3.623047E-2,-0E0,-5.02222E-2,-6.7148707E-4,2.8426568E-3,-2.908287E-2],"categories":[],"categories_nodes":[],"categories_segments":[],"categories_sizes":[],"default_left":[0,0,0,0,0,0,0,0,0,0,0,0,0,0,0,0,0,0,0,0,0],"id":31,"left_children":[1,3,5,-1,7,9,-1,11,13,-1,15,-1,-1,17,19,-1,-1,-1,-1,-1,-1],"loss_changes":[3.7540507E0,3.313433E0,4.427346E0,0E0,3.291636E0,4.116716E0,0E0,2.4102285E0,5.605541E0,0E0,6.7903996E-1,0E0,0E0,3.312286E0,5.079508E0,0E0,0E0,0E0,0E0,0E0,0E0],"parents":[2147483647,0,0,1,1,2,2,4,4,5,5,7,7,8,8,10,10,13,13,14,14],"right_children":[2,4,6,-1,8,10,-1,12,14,-1,16,-1,-1,18,20,-1,-1,-1,-1,-1,-1],"split_conditions":[7.60016E-1,-1.3420925E0,4.7931606E-1,3.5741832E-2,-8.115143E-1,2.0552926E-1,5.8015954E-2,-1.0518087E-2,-2.3529717E-1,3.279488E-2,1.7375603E0,-0E0,4.7263384E-2,5.331861E-1,7.3054004E-1,-3.623047E-2,-0E0,-5.02222E-2,-6.7148707E-4,2.8426568E-3,-2.908287E-2],"split_indices":[3,8,0,0,11,4,0,13,11,0,3,0,0,4,13,0,0,0,0,0,0],"split_type":[0,0,0,0,0,0,0,0,0,0,0,0,0,0,0,0,0,0,0,0,0],"sum_hessian":[1.3159251E2,1.15390526E2,1.6201984E1,4.152317E0,1.1123821E2,1.149166E1,4.7103233E0,9.030476E0,1.0220773E2,5.2826304E0,6.20903E0,5.1609635E0,3.869512E0,1.58938055E1,8.6313934E1,3.0403268E0,3.168703E0,1.0112067E1,5.781738E0,7.2404755E1,1.3909175E1],"tree_param":{"num_deleted":"0","num_feature":"20","num_nodes":"21","size_leaf_vector":"1"}},{"base_weights":[4.720388E-3,6.718715E-1,-4.5673396E-2,4.4552903E-3,4.5405887E-2,4.8569688E-1,-1.0945031E-1,1.9172834E-3,7.015012E-1,-4.3363977E-2,-6.1036773E-2,4.8590776E-2,9.720497E-3,-1.406288E-1,3.8660896E-1,-5.567607E-2,-3.8129322E-3,3.8110007E-2,-3.9773327E-3],"categories":[],"categories_nodes":[],"categories_segments":[],"categories_sizes":[],"default_left":[0,0,0,0,0,0,0,0,0,0,0,0,0,0,0,0,0,0,0],"id":32,"left_children":[1,3,5,-1,-1,7,9,-1,11,-1,13,-1,-1,15,17,-1,-1,-1,-1],"loss_changes":[4.5017633E0,9.1808224E-1,3.9721017E0,0E0,0E0,9.5103836E-1,3.6141906E0,0E0,5.405338E-1,0E0,3.6336856E0,0E0,0E0,5.0914593E0,2.922496E0,0E0,0E0,0E0,0E0],"parents":[2147483647,0,0,1,1,2,2,5,5,6,6,8,8,10,10,13,13,14,14],"right_children":[2,4,6,-1,-1,8,10,-1,12,-1,14,-1,-1,16,18,-1,-1,-1,-1],"split_conditions":[-8.4312725E-1,6.666373E-2,-1.4458754E0,4.4552903E-3,4.5405887E-2,8.875715E-1,-1.0893108E0,1.9172834E-3,2.1814616E0,-4.3363977E-2,6.5065205E-1,4.8590776E-2,9.720497E-3,-5.200854E-1,6.923991E-1,-5.567607E-2,-3.8129322E-3,3.8110007E-2,-3.9773327E-3],"split_indices":[12,16,4,0,0,15,4,0,15,0,3,0,0,12,4,0,0,0,0],"split_type":[0,0,0,0,0,0,0,0,0,0,0,0,0,0,0,0,0,0,0],"sum_hessian":[1.2639984E2,8.429143E0,1.17970695E2,3.194954E0,5.2341895E0,1.1428916E1,1.0654178E2,4.554828E0,6.8740873E0,5.009903E0,1.01531876E2,3.5001879E0,3.3738997E0,8.73559E1,1.4175977E1,4.1204233E0,8.323548E1,7.8552923E0,6.320685E0],"tree_param":{"num_deleted":"0","num_feature":"20","num_nodes":"19","size_leaf_vector":"1"}},{"base_weights":[4.4684622E-2,-1.4349215E-1,1.7653106E-1,6.229067E-1,-2.8254372E-1,7.642668E-1,8.8616595E-2,5.6707323E-2,-3.5114207E-3,4.3469363E-1,-4.2199263E-1,5.8462646E-2,-0E0,4.381241E-1,-5.859591E-2,-0E0,3.898359E-2,-2.7251923E-1,-5.4862805E-2,-2.6710529E-2,7.0754945E-1,-9.819106E-1,1.1489056E-1,-2.5696954E-2,1.2602231E-2,4.4072393E-2,-0E0,-6.8637945E-2,-1.0346887E-2,2.173376E-2,-2.3785892E-3],"categories":[],"categories_nodes":[],"categories_segments":[],"categories_sizes":[],"default_left":[0,0,0,0,0,0,0,0,0,0,0,0,0,0,0,0,0,0,0,0,0,0,0,0,0,0,0,0,0,0,0],"id":33,"left_children":[1,3,5,7,9,11,13,-1,-1,15,17,-1,-1,19,21,-1,-1,23,-1,-1,25,27,29,-1,-1,-1,-1,-1,-1,-1,-1],"loss_changes":[3.2115595E0,5.6536903E0,3.637717E0,3.2413168E0,4.7141485E0,2.9044824E0,3.6518679E0,0E0,0E0,1.1628711E0,3.2077775E0,0E0,0E0,5.919186E0,8.111514E0,0E0,0E0,4.4472947E0,0E0,0E0,2.2299576E0,1.6712098E0,2.28201E0,0E0,0E0,0E0,0E0,0E0,0E0,0E0,0E0],"parents":[2147483647,0,0,1,1,2,2,3,3,4,4,5,5,6,6,9,9,10,10,13,13,14,14,17,17,20,20,21,21,22,22],"right_children":[2,4,6,8,10,12,14,-1,-1,16,18,-1,-1,20,22,-1,-1,24,-1,-1,26,28,30,-1,-1,-1,-1,-1,-1,-1,-1],"split_conditions":[-4.3727177E-1,-4.4643104E-1,-3.4273195E-1,-1.6311017E-1,-1.0354645E0,1.5191019E-2,-4.8322222E-1,5.6707323E-2,-3.5114207E-3,-2.3670182E-1,1.3121648E-1,5.8462646E-2,-0E0,-1.4139241E0,-2.2905032E-1,-0E0,3.898359E-2,2.1621965E-1,-5.4862805E-2,-2.6710529E-2,2.731331E-1,1.0657082E-1,-2.2777806E-1,-2.5696954E-2,1.2602231E-2,4.4072393E-2,-0E0,-6.8637945E-2,-1.0346887E-2,2.173376E-2,-2.3785892E-3],"split_indices":[1,3,1,10,7,12,13,0,0,13,14,0,0,13,13,0,0,3,0,0,12,3,10,0,0,0,0,0,0,0,0],"split_type":[0,0,0,0,0,0,0,0,0,0,0,0,0,0,0,0,0,0,0,0,0,0,0,0,0,0,0,0,0,0,0],"sum_hessian":[1.2702343E2,5.1358593E1,7.566484E1,7.0215197E0,4.433707E1,8.400325E0,6.726451E1,3.923903E0,3.0976164E0,6.5222373E0,3.7814835E1,5.1406817E0,3.259643E0,1.9953426E1,4.7311085E1,3.2710235E0,3.2512138E0,3.2474308E1,5.340526E0,3.8744802E0,1.6078947E1,7.0198774E0,4.029121E1,2.2644701E1,9.829606E0,1.2874926E1,3.2040215E0,3.896334E0,3.1235433E0,1.3631172E1,2.6660038E1],"tree_param":{"num_deleted":"0","num_feature":"20","num_nodes":"31","size_leaf_vector":"1"}},{"base_weights":[3.3217177E-2,-6.928439E-2,2.8295618E-1,3.3895285E-3,-5.3052163E-1,4.567252E-1,-3.1856844E-1,1.0100554E-1,-4.786945E-1,-5.4205228E-2,-2.6257291E-2,7.7339226E-1,1.8315837E-1,-3.3317875E-2,7.759937E-3,-2.6562902E-1,3.3701158E-1,4.379868E-3,-5.2300114E-2,-2.1442145E-2,1.4651127E-2,5.2120715E-2,-0E0,-3.3579272E-1,7.1981066E-1,1.5188751E-2,-2.86456E-2,-1.9393148E-2,2.176859E-2,1.1315524E-2,-3.940129E-2,1.1240241E-2,4.988806E-2],"categories":[],"categories_nodes":[],"categories_segments":[],"categories_sizes":[],"default_left":[0,0,0,0,0,0,0,0,0,0,0,0,0,0,0,0,0,0,0,0,0,0,0,0,0,0,0,0,0,0,0,0,0],"id":34,"left_children":[1,3,5,7,9,11,13,15,17,-1,19,21,23,-1,-1,25,27,-1,-1,-1,-1,-1,-1,29,31,-1,-1,-1,-1,-1,-1,-1,-1],"loss_changes":[3.273292E0,3.1195135E0,4.086488E0,3.5447943E0,3.1519315E0,2.1480012E0,1.6678383E0,5.7467866E0,4.418505E0,0E0,1.1812084E0,2.9686599E0,5.3074646E0,0E0,0E0,4.728523E0,3.0753088E0,0E0,0E0,0E0,0E0,0E0,0E0,2.7451804E0,6.9416714E-1,0E0,0E0,0E0,0E0,0E0,0E0,0E0,0E0],"parents":[2147483647,0,0,1,1,2,2,3,3,4,4,5,5,6,6,7,7,8,8,10,10,11,11,12,12,15,15,16,16,23,23,24,24],"right_children":[2,4,6,8,10,12,14,16,18,-1,20,22,24,-1,-1,26,28,-1,-1,-1,-1,-1,-1,30,32,-1,-1,-1,-1,-1,-1,-1,-1],"split_conditions":[2.1621965E-1,8.887413E-2,9.0785986E-1,1.0020312E0,-2.4348491E-1,-1.15169056E-1,1.5017644E0,-7.58102E-1,-1.0021176E0,-5.4205228E-2,-1.1936629E-1,1.1422381E-2,4.436761E-2,-3.3317875E-2,7.759937E-3,-2.5179994E-1,-9.5051366E-1,4.379868E-3,-5.2300114E-2,-2.1442145E-2,1.4651127E-2,5.2120715E-2,-0E0,-4.395493E-1,5.4849964E-1,1.5188751E-2,-2.86456E-2,-1.9393148E-2,2.176859E-2,1.1315524E-2,-3.940129E-2,1.1240241E-2,4.988806E-2],"split_indices":[3,3,9,5,10,6,9,5,15,0,11,9,9,0,0,10,15,0,0,0,0,0,0,9,9,0,0,0,0,0,0,0,0],"split_type":[0,0,0,0,0,0,0,0,0,0,0,0,0,0,0,0,0,0,0,0,0,0,0,0,0,0,0,0,0,0,0,0,0],"sum_hessian":[1.2359983E2,8.729305E1,3.630678E1,7.57067E1,1.1586347E1,2.8742945E1,7.563838E0,6.413329E1,1.1573413E1,4.691359E0,6.8949876E0,1.1966937E1,1.6776009E1,4.492581E0,3.0712574E0,2.4568909E1,3.956438E1,5.9504232E0,5.62299E0,3.3134534E0,3.5815344E0,8.869661E0,3.0972757E0,8.434743E0,8.341266E0,8.273323E0,1.6295584E1,4.0110774E0,3.5553307E1,3.6875267E0,4.7472157E0,4.0380216E0,4.3032436E0],"tree_param":{"num_deleted":"0","num_feature":"20","num_nodes":"33","size_leaf_vector":"1"}},{"base_weights":[5.7752255E-2,-4.6303667E-2,2.937979E-1,-4.6136547E-2,3.7277562E-3,4.3952498E-1,-2.2819829E-1,8.9974776E-2,-5.2763456E-1,-0E0,5.7829446E-1,-4.7690436E-2,1.5745549E-2,2.0250142E-1,-3.8484323E-1,-4.970475E-2,-1.213181E-1,-2.407415E-2,2.1539269E-2,7.836539E-1,9.937847E-2,-5.9022303E-3,1.5834015E-2,-5.1116448E-2,4.6786196E-3,1.0082959E-2,-2.3772705E-2,4.8377804E-2,3.4638352E-3,-2.93313E-2,3.5417933E-2],"categories":[],"categories_nodes":[],"categories_segments":[],"categories_sizes":[],"default_left":[0,0,0,0,0,0,0,0,0,0,0,0,0,0,0,0,0,0,0,0,0,0,0,0,0,0,0,0,0,0,0],"id":35,"left_children":[1,3,5,-1,7,9,11,13,15,17,19,-1,-1,21,23,-1,25,-1,-1,27,29,-1,-1,-1,-1,-1,-1,-1,-1,-1,-1],"loss_changes":[3.3057683E0,4.2654495E0,3.2902956E0,0E0,3.888256E0,1.9691024E0,4.109458E0,4.0790415E0,1.774318E0,2.0742183E0,2.1067257E0,0E0,0E0,2.3856266E0,4.7590685E0,0E0,1.0667117E0,0E0,0E0,1.8353138E0,4.236277E0,0E0,0E0,0E0,0E0,0E0,0E0,0E0,0E0,0E0,0E0],"parents":[2147483647,0,0,1,1,2,2,4,4,5,5,6,6,7,7,8,8,9,9,10,10,13,13,14,14,16,16,19,19,20,20],"right_children":[2,4,6,-1,8,10,12,14,16,18,20,-1,-1,22,24,-1,26,-1,-1,28,30,-1,-1,-1,-1,-1,-1,-1,-1,-1,-1],"split_conditions":[2.1621965E-1,-1.0269597E0,1.196671E0,-4.6136547E-2,1.01805985E-1,-3.578387E-1,7.491165E-1,3.6556062E-1,-1.2120964E-1,-5.110378E-1,1.3121648E-1,-4.7690436E-2,1.5745549E-2,-2.1536823E-1,7.4363244E-1,-4.970475E-2,-1.9364E-2,-2.407415E-2,2.1539269E-2,2.462984E-2,2.8812614E-1,-5.9022303E-3,1.5834015E-2,-5.1116448E-2,4.6786196E-3,1.0082959E-2,-2.3772705E-2,4.8377804E-2,3.4638352E-3,-2.93313E-2,3.5417933E-2],"split_indices":[3,1,17,0,3,12,3,11,11,15,14,0,0,14,1,0,11,0,0,13,11,0,0,0,0,0,0,0,0,0,0],"split_type":[0,0,0,0,0,0,0,0,0,0,0,0,0,0,0,0,0,0,0,0,0,0,0,0,0,0,0,0,0,0,0],"sum_hessian":[1.3001225E2,8.99101E1,4.0102146E1,4.2372437E0,8.567286E1,3.1922863E1,8.179282E0,7.4909355E1,1.0763505E1,8.016751E0,2.3906113E1,3.4141066E0,4.765176E0,6.1532234E1,1.3377123E1,3.9937027E0,6.7698026E0,3.6562138E0,4.3605375E0,1.5847832E1,8.058281E0,1.5462225E1,4.6070007E1,5.516537E0,7.860585E0,3.3227935E0,3.447009E0,1.1987531E1,3.8603008E0,3.5750906E0,4.48319E0],"tree_param":{"num_deleted":"0","num_feature":"20","num_nodes":"31","size_leaf_vector":"1"}},{"base_weights":[3.6802735E-2,-1.1853898E-3,5.8266026E-1,3.6522496E-2,-5.309806E-1,4.4869114E-2,-0E0,4.2111438E-2,-0E0,3.0635735E-3,-5.5681914E-2,-4.323677E-2,4.0729165E-2,5.179076E-3,-2.7226714E-2],"categories":[],"categories_nodes":[],"categories_segments":[],"categories_sizes":[],"default_left":[0,0,0,0,0,0,0,0,0,0,0,0,0,0,0],"id":36,"left_children":[1,3,5,7,9,-1,-1,-1,11,-1,-1,-1,13,-1,-1],"loss_changes":[2.8006072E0,2.542243E0,1.4536784E0,3.2721722E0,3.3138978E0,0E0,0E0,0E0,3.8180993E0,0E0,0E0,0E0,3.7376604E0,0E0,0E0],"parents":[2147483647,0,0,1,1,2,2,3,3,4,4,8,8,12,12],"right_children":[2,4,6,8,10,-1,-1,-1,12,-1,-1,-1,14,-1,-1],"split_conditions":[1.6808805E0,1.3538996E0,9.8328745E-1,-1.3420925E0,-1.244735E-1,4.4869114E-2,-0E0,4.2111438E-2,-1.4465524E0,3.0635735E-3,-5.5681914E-2,-4.323677E-2,5.8083755E-1,5.179076E-3,-2.7226714E-2],"split_indices":[8,13,7,8,11,0,0,0,13,0,0,0,12,0,0],"split_type":[0,0,0,0,0,0,0,0,0,0,0,0,0,0,0],"sum_hessian":[1.2561365E2,1.1785962E2,7.754027E0,1.1036897E2,7.4906464E0,4.4956384E0,3.2583885E0,3.822345E0,1.0654663E2,3.903167E0,3.587479E0,3.8760142E0,1.02670616E2,9.3920006E1,8.750608E0],"tree_param":{"num_deleted":"0","num_feature":"20","num_nodes":"15","size_leaf_vector":"1"}},{"base_weights":[1.2720777E-3,-3.121189E-2,3.9931502E-2,-3.226896E-1,7.2118E-2,-5.864447E-1,8.359419E-2,-3.6043845E-2,1.1187655E-1,-9.8206544E-1,6.656413E-2,3.7198287E-2,-2.8374797E-1,2.7043483E-1,-5.2664515E-2,-1.6499113E-2,-6.428678E-2,2.877299E-2,-2.5753928E-2,-4.3061383E-2,2.053529E-2,3.8156364E-2,6.9674323E-3,-2.7232349E-2,3.8858342E-3],"categories":[],"categories_nodes":[],"categories_segments":[],"categories_sizes":[],"default_left":[0,0,0,0,0,0,0,0,0,0,0,0,0,0,0,0,0,0,0,0,0,0,0,0,0],"id":37,"left_children":[1,3,-1,5,7,9,11,-1,13,15,17,-1,19,21,23,-1,-1,-1,-1,-1,-1,-1,-1,-1,-1],"loss_changes":[3.542989E0,3.7900167E0,0E0,3.7384443E0,2.7527552E0,5.660709E0,3.6061087E0,0E0,2.3610926E0,1.699872E0,2.8069615E0,0E0,4.121883E0,2.569697E0,2.9293609E0,0E0,0E0,0E0,0E0,0E0,0E0,0E0,0E0,0E0,0E0],"parents":[2147483647,0,0,1,1,3,3,4,4,5,5,6,6,8,8,9,9,10,10,12,12,13,13,14,14],"right_children":[2,4,-1,6,8,10,12,-1,14,16,18,-1,20,22,24,-1,-1,-1,-1,-1,-1,-1,-1,-1,-1],"split_conditions":[2.174737E0,-2.1536823E-1,3.9931502E-2,2.6997313E-1,-1.4465524E0,-3.5733998E-2,7.643134E-1,-3.6043845E-2,-2.992323E-2,-7.851135E-1,-2.126424E-1,3.7198287E-2,9.087769E-1,-8.235128E-1,2.4340356E-2,-1.6499113E-2,-6.428678E-2,2.877299E-2,-2.5753928E-2,-4.3061383E-2,2.053529E-2,3.8156364E-2,6.9674323E-3,-2.7232349E-2,3.8858342E-3],"split_indices":[9,14,0,9,13,12,9,0,12,14,17,0,17,17,12,0,0,0,0,0,0,0,0,0,0],"split_type":[0,0,0,0,0,0,0,0,0,0,0,0,0,0,0,0,0,0,0,0,0,0,0,0,0],"sum_hessian":[1.25936905E2,1.2156886E2,4.3680425E0,3.2021515E1,8.954735E1,1.9595373E1,1.2426142E1,3.0971403E0,8.645021E1,1.2174837E1,7.420537E0,4.3669963E0,8.059145E0,4.462626E1,4.1823948E1,4.8451695E0,7.329668E0,4.238534E0,3.1820028E0,4.5048976E0,3.5542474E0,7.883959E0,3.6742302E1,8.578249E0,3.32457E1],"tree_param":{"num_deleted":"0","num_feature":"20","num_nodes":"25","size_leaf_vector":"1"}},{"base_weights":[2.1575738E-2,-1.1968861E-2,3.99259E-2,-7.406066E-2,3.3275738E-1,3.8510752E-1,-1.2748376E-1,-0E0,6.18655E-1,-7.823001E-4,3.2532107E-2,-5.810589E-1,1.6169306E-3,2.4819506E-2,-3.185826E-2,4.6891738E-2,-0E0,-5.5010945E-2,8.183092E-3,5.630243E-3,-1.7020104E-2],"categories":[],"categories_nodes":[],"categories_segments":[],"categories_sizes":[],"default_left":[0,0,0,0,0,0,0,0,0,0,0,0,0,0,0,0,0,0,0,0,0],"id":38,"left_children":[1,3,-1,5,7,9,11,13,15,-1,-1,17,19,-1,-1,-1,-1,-1,-1,-1,-1],"loss_changes":[3.5539596E0,2.5649326E0,0E0,2.5522156E0,1.7473071E0,1.3315234E0,5.7708364E0,3.2653112E0,2.0808377E0,0E0,0E0,8.847718E0,2.8122268E0,0E0,0E0,0E0,0E0,0E0,0E0,0E0,0E0],"parents":[2147483647,0,0,1,1,3,3,4,4,5,5,6,6,7,7,8,8,11,11,12,12],"right_children":[2,4,-1,6,8,10,12,14,16,-1,-1,18,20,-1,-1,-1,-1,-1,-1,-1,-1],"split_conditions":[2.174737E0,6.5065205E-1,3.99259E-2,-8.115143E-1,3.3597603E-1,1.5337655E-1,-1.6820656E-1,-1.0713961E-1,4.805478E-1,-7.823001E-4,3.2532107E-2,6.0612723E-2,5.805335E-1,2.4819506E-2,-3.185826E-2,4.6891738E-2,-0E0,-5.5010945E-2,8.183092E-3,5.630243E-3,-1.7020104E-2],"split_indices":[9,3,0,11,1,16,11,10,9,0,0,9,13,0,0,0,0,0,0,0,0],"split_type":[0,0,0,0,0,0,0,0,0,0,0,0,0,0,0,0,0,0,0,0,0],"sum_hessian":[1.25943825E2,1.2130493E2,4.638893E0,1.0419316E2,1.7111769E1,9.626844E0,9.456632E1,8.306583E0,8.805185E0,3.7613595E0,5.8654847E0,2.069181E1,7.387451E1,4.758691E0,3.547893E0,5.632621E0,3.1725645E0,1.21483965E1,8.543415E0,5.6943718E1,1.6930788E1],"tree_param":{"num_deleted":"0","num_feature":"20","num_nodes":"21","size_leaf_vector":"1"}}]},"name":"gbtree"},"learner_model_param":{"base_score":"[4.993993E-1]","boost_from_average":"1","num_class":"0","num_feature":"20","num_target":"1"},"objective":{"name":"binary:logistic","reg_loss_param":{"scale_pos_weight":"1.28999996"}}},"version":[3,2,0]}